50 -50 0 
50.0873 -49.9998 2.46191e-05 
50.1746 -49.9997 4.92382e-05 
50.2619 -49.9995 7.38573e-05 
50.3492 -49.9994 9.84764e-05 
50.4365 -49.9992 0.000123096 
50.5238 -49.999 0.000147715 
50.6111 -49.9989 0.000172334 
50.6984 -49.9987 0.000196953 
50.7857 -49.9986 0.000221572 
50.8729 -49.9984 0.000246191 
50.9602 -49.9982 0.00027081 
51.0475 -49.9981 0.000295429 
51.1348 -49.9979 0.000320048 
51.2221 -49.9978 0.000344668 
51.3094 -49.9976 0.000369287 
51.3967 -49.9974 0.000393906 
51.484 -49.9973 0.000418525 
51.5713 -49.9971 0.000443144 
51.6586 -49.997 0.000467763 
51.7459 -49.9968 0.000492382 
51.8332 -49.9966 0.000517001 
51.9205 -49.9965 0.00054162 
52.0078 -49.9963 0.00056624 
52.0951 -49.9962 0.000590859 
52.1824 -49.996 0.000615478 
52.2697 -49.9958 0.000640097 
52.357 -49.9957 0.000664716 
52.4442 -49.9955 0.000689335 
52.5315 -49.9954 0.000713954 
52.6188 -49.9952 0.000738573 
52.7061 -49.995 0.000763192 
52.7934 -49.9949 0.000787812 
52.8807 -49.9947 0.000812431 
52.968 -49.9946 0.00083705 
53.0553 -49.9944 0.000861669 
53.1426 -49.9942 0.000886288 
53.2299 -49.9941 0.000910907 
53.3172 -49.9939 0.000935526 
53.4045 -49.9938 0.000960145 
53.4918 -49.9936 0.000984764 
53.5791 -49.9934 0.00100938 
53.6664 -49.9933 0.001034 
53.7537 -49.9931 0.00105862 
53.841 -49.993 0.00108324 
53.9283 -49.9928 0.00110786 
54.0155 -49.9926 0.00113248 
54.1028 -49.9925 0.0011571 
54.1901 -49.9923 0.00118172 
54.2774 -49.9922 0.00120634 
54.3647 -49.992 0.00123096 
54.452 -49.9918 0.00125557 
54.5393 -49.9917 0.00128019 
54.6266 -49.9915 0.00130481 
54.7139 -49.9914 0.00132943 
54.8012 -49.9912 0.00135405 
54.8885 -49.991 0.00137867 
54.9758 -49.9909 0.00140329 
55.0631 -49.9907 0.00142791 
55.1504 -49.9906 0.00145253 
55.2377 -49.9904 0.00147715 
55.325 -49.9902 0.00150177 
55.4123 -49.9901 0.00152638 
55.4996 -49.9899 0.001551 
55.5868 -49.9898 0.00157562 
55.6741 -49.9896 0.00160024 
55.7614 -49.9894 0.00162486 
55.8487 -49.9893 0.00164948 
55.936 -49.9891 0.0016741 
56.0233 -49.989 0.00169872 
56.1106 -49.9888 0.00172334 
56.1979 -49.9886 0.00174796 
56.2852 -49.9885 0.00177258 
56.3725 -49.9883 0.0017972 
56.4598 -49.9882 0.00182181 
56.5471 -49.988 0.00184643 
56.6344 -49.9878 0.00187105 
56.7217 -49.9877 0.00189567 
56.809 -49.9875 0.00192029 
56.8963 -49.9874 0.00194491 
56.9836 -49.9872 0.00196953 
57.0709 -49.987 0.00199415 
57.1582 -49.9869 0.00201877 
57.2454 -49.9867 0.00204339 
57.3327 -49.9866 0.00206801 
57.42 -49.9864 0.00209262 
57.5073 -49.9862 0.00211724 
57.5946 -49.9861 0.00214186 
57.6819 -49.9859 0.00216648 
57.7692 -49.9858 0.0021911 
57.8565 -49.9856 0.00221572 
57.9438 -49.9854 0.00224034 
58.0311 -49.9853 0.00226496 
58.1184 -49.9851 0.00228958 
58.2057 -49.9849 0.0023142 
58.293 -49.9848 0.00233882 
58.3803 -49.9846 0.00236343 
58.4676 -49.9845 0.00238805 
58.5549 -49.9843 0.00241267 
58.6422 -49.9841 0.00243729 
58.7295 -49.984 0.00246191 
58.8167 -49.9838 0.00248653 
58.904 -49.9837 0.00251115 
58.9913 -49.9835 0.00253577 
59.0786 -49.9833 0.00256039 
59.1659 -49.9832 0.00258501 
59.2532 -49.983 0.00260963 
59.3405 -49.9829 0.00263424 
59.4278 -49.9827 0.00265886 
59.5151 -49.9825 0.00268348 
59.6024 -49.9824 0.0027081 
59.6897 -49.9822 0.00273272 
59.777 -49.9821 0.00275734 
59.8643 -49.9819 0.00278196 
59.9516 -49.9817 0.00280658 
60.0389 -49.9816 0.0028312 
60.1262 -49.9814 0.00285582 
60.2135 -49.9813 0.00288044 
60.3008 -49.9811 0.00290505 
60.388 -49.9809 0.00292967 
60.4753 -49.9808 0.00295429 
60.5626 -49.9806 0.00297891 
60.6499 -49.9805 0.00300353 
60.7372 -49.9803 0.00302815 
60.8245 -49.9801 0.00305277 
60.9118 -49.98 0.00307739 
60.9991 -49.9798 0.00310201 
61.0864 -49.9797 0.00312663 
61.1737 -49.9795 0.00315125 
61.261 -49.9793 0.00317587 
61.3483 -49.9792 0.00320048 
61.4356 -49.979 0.0032251 
61.5229 -49.9789 0.00324972 
61.6102 -49.9787 0.00327434 
61.6975 -49.9785 0.00329896 
61.7848 -49.9784 0.00332358 
61.8721 -49.9782 0.0033482 
61.9593 -49.9781 0.00337282 
62.0466 -49.9779 0.00339744 
62.1339 -49.9777 0.00342206 
62.2212 -49.9776 0.00344668 
62.3085 -49.9774 0.00347129 
62.3958 -49.9773 0.00349591 
62.4831 -49.9771 0.00352053 
62.5704 -49.9769 0.00354515 
62.6577 -49.9768 0.00356977 
62.745 -49.9766 0.00359439 
62.8323 -49.9765 0.00361901 
62.9196 -49.9763 0.00364363 
63.0069 -49.9761 0.00366825 
63.0787 -49.9294 0.00758106 
63.1506 -49.8826 0.0114939 
63.2225 -49.8359 0.0154067 
63.2943 -49.7891 0.0193195 
63.3662 -49.7423 0.0232323 
63.438 -49.6956 0.0271451 
63.5099 -49.6488 0.0310579 
63.5818 -49.6021 0.0349707 
63.6536 -49.5553 0.0388836 
63.7255 -49.5085 0.0427964 
63.7973 -49.4618 0.0467092 
63.8692 -49.415 0.050622 
63.941 -49.3682 0.0545348 
64.0129 -49.3215 0.0584476 
64.0848 -49.2747 0.0623604 
64.1566 -49.228 0.0662732 
64.2285 -49.1812 0.070186 
64.3003 -49.1344 0.0740989 
64.3722 -49.0877 0.0780117 
64.4441 -49.0409 0.0819245 
64.5159 -48.9942 0.0858373 
64.5878 -48.9474 0.0897501 
64.6596 -48.9006 0.0936629 
64.7315 -48.8539 0.0975757 
64.8033 -48.8071 0.101489 
64.8752 -48.7604 0.105401 
64.9471 -48.7136 0.109314 
65.0189 -48.6668 0.113227 
65.0908 -48.6201 0.11714 
65.1626 -48.5733 0.121053 
65.2345 -48.5265 0.124965 
65.3064 -48.4798 0.128878 
65.3782 -48.433 0.132791 
65.4501 -48.3863 0.136704 
65.5219 -48.3395 0.140617 
65.5938 -48.2927 0.144529 
65.6657 -48.246 0.148442 
65.7375 -48.1992 0.152355 
65.8094 -48.1525 0.156268 
65.8812 -48.1057 0.160181 
65.9531 -48.0589 0.164094 
66.0249 -48.0122 0.168006 
66.0968 -47.9654 0.171919 
66.1687 -47.9186 0.175832 
66.2405 -47.8719 0.179745 
66.3124 -47.8251 0.183658 
66.3842 -47.7784 0.18757 
66.4561 -47.7316 0.191483 
66.528 -47.6848 0.195396 
66.5998 -47.6381 0.199309 
66.6717 -47.5913 0.203222 
66.7435 -47.5446 0.207134 
66.8154 -47.4978 0.211047 
66.8872 -47.451 0.21496 
66.9591 -47.4043 0.218873 
67.031 -47.3575 0.222786 
67.1028 -47.3108 0.226699 
67.1747 -47.264 0.230611 
67.2465 -47.2172 0.234524 
67.3184 -47.1705 0.238437 
67.3903 -47.1237 0.24235 
67.4621 -47.0769 0.246263 
67.534 -47.0302 0.250175 
67.6058 -46.9834 0.254088 
67.6777 -46.9367 0.258001 
67.7496 -46.8899 0.261914 
67.8214 -46.8431 0.265827 
67.8933 -46.7964 0.269739 
67.9651 -46.7496 0.273652 
68.037 -46.7029 0.277565 
68.1088 -46.6561 0.281478 
68.1807 -46.6093 0.285391 
68.2526 -46.5626 0.289304 
68.3244 -46.5158 0.293216 
68.3963 -46.469 0.297129 
68.4681 -46.4223 0.301042 
68.54 -46.3755 0.304955 
68.6119 -46.3288 0.308868 
68.6837 -46.282 0.31278 
68.7556 -46.2352 0.316693 
68.8274 -46.1885 0.320606 
68.8993 -46.1417 0.324519 
68.9711 -46.095 0.328432 
69.043 -46.0482 0.332344 
69.1149 -46.0014 0.336257 
69.1867 -45.9547 0.34017 
69.2586 -45.9079 0.344083 
69.3304 -45.8612 0.347996 
69.4023 -45.8144 0.351909 
69.4742 -45.7676 0.355821 
69.546 -45.7209 0.359734 
69.6179 -45.6741 0.363647 
69.6897 -45.6273 0.36756 
69.7616 -45.5806 0.371473 
69.8335 -45.5338 0.375385 
69.9053 -45.4871 0.379298 
69.9772 -45.4403 0.383211 
70.049 -45.3935 0.387124 
70.1209 -45.3468 0.391037 
70.1927 -45.3 0.394949 
70.2646 -45.2533 0.398862 
70.3365 -45.2065 0.402775 
70.4083 -45.1597 0.406688 
70.4802 -45.113 0.410601 
70.552 -45.0662 0.414513 
70.6239 -45.0194 0.418426 
70.6958 -44.9727 0.422339 
70.7676 -44.9259 0.426252 
70.8395 -44.8792 0.430165 
70.9113 -44.8324 0.434078 
70.9832 -44.7856 0.43799 
71.0551 -44.7389 0.441903 
71.1269 -44.6921 0.445816 
71.1988 -44.6454 0.449729 
71.2706 -44.5986 0.453642 
71.3425 -44.5518 0.457554 
71.4143 -44.5051 0.461467 
71.4862 -44.4583 0.46538 
71.5581 -44.4116 0.469293 
71.6299 -44.3648 0.473206 
71.7018 -44.318 0.477118 
71.7736 -44.2713 0.481031 
71.8455 -44.2245 0.484944 
71.9174 -44.1777 0.488857 
71.9892 -44.131 0.49277 
72.0611 -44.0842 0.496683 
72.1329 -44.0375 0.500595 
72.2048 -43.9907 0.504508 
72.2766 -43.9439 0.508421 
72.3485 -43.8972 0.512334 
72.4204 -43.8504 0.516247 
72.4922 -43.8037 0.520159 
72.5641 -43.7569 0.524072 
72.6359 -43.7101 0.527985 
72.7078 -43.6634 0.531898 
72.7797 -43.6166 0.535811 
72.8515 -43.5698 0.539723 
72.9234 -43.5231 0.543636 
72.9952 -43.4763 0.547549 
73.0671 -43.4296 0.551462 
73.139 -43.3828 0.555375 
73.2108 -43.336 0.559288 
73.2827 -43.2893 0.5632 
73.3545 -43.2425 0.567113 
73.4264 -43.1958 0.571026 
73.4982 -43.149 0.574939 
73.5701 -43.1022 0.578852 
73.642 -43.0555 0.582764 
73.7138 -43.0087 0.586677 
73.7857 -42.962 0.59059 
73.8575 -42.9152 0.594503 
73.9294 -42.8684 0.598416 
74.0013 -42.8217 0.602328 
74.0731 -42.7749 0.606241 
74.145 -42.7281 0.610154 
74.2168 -42.6814 0.614067 
74.2887 -42.6346 0.61798 
74.3605 -42.5879 0.621893 
74.4324 -42.5411 0.625805 
74.5043 -42.4943 0.629718 
74.5761 -42.4476 0.633631 
74.648 -42.4008 0.637544 
74.7198 -42.3541 0.641457 
74.7917 -42.3073 0.645369 
74.8636 -42.2605 0.649282 
74.9354 -42.2138 0.653195 
75.0073 -42.167 0.657108 
75.0791 -42.1202 0.661021 
75.151 -42.0735 0.664933 
75.2229 -42.0267 0.668846 
75.2947 -41.98 0.672759 
75.3666 -41.9332 0.676672 
75.4384 -41.8864 0.680585 
75.5103 -41.8397 0.684498 
75.5821 -41.7929 0.68841 
75.654 -41.7462 0.692323 
75.7259 -41.6994 0.696236 
75.7977 -41.6526 0.700149 
75.8696 -41.6059 0.704062 
75.9414 -41.5591 0.707974 
76.0133 -41.5124 0.711887 
76.0852 -41.4656 0.7158 
76.157 -41.4188 0.719713 
76.2289 -41.3721 0.723626 
76.3007 -41.3253 0.727538 
76.3726 -41.2785 0.731451 
76.4444 -41.2318 0.735364 
76.5163 -41.185 0.739277 
76.5882 -41.1383 0.74319 
76.66 -41.0915 0.747103 
76.7319 -41.0447 0.751015 
76.8037 -40.998 0.754928 
76.8756 -40.9512 0.758841 
76.9475 -40.9045 0.762754 
77.0193 -40.8577 0.766667 
77.0912 -40.8109 0.770579 
77.163 -40.7642 0.774492 
77.2349 -40.7174 0.778405 
77.3068 -40.6706 0.782318 
77.3786 -40.6239 0.786231 
77.4505 -40.5771 0.790143 
77.5223 -40.5304 0.794056 
77.5942 -40.4836 0.797969 
77.666 -40.4368 0.801882 
77.7379 -40.3901 0.805795 
77.8098 -40.3433 0.809707 
77.8816 -40.2966 0.81362 
77.9535 -40.2498 0.817533 
78.0253 -40.203 0.821446 
78.0972 -40.1563 0.825359 
78.1691 -40.1095 0.829272 
78.2409 -40.0628 0.833184 
78.3128 -40.016 0.837097 
78.3846 -39.9692 0.84101 
78.4565 -39.9225 0.844923 
78.5283 -39.8757 0.848836 
78.6002 -39.8289 0.852748 
78.6721 -39.7822 0.856661 
78.7439 -39.7354 0.860574 
78.8158 -39.6887 0.864487 
78.8876 -39.6419 0.8684 
78.9595 -39.5951 0.872312 
79.0314 -39.5484 0.876225 
79.1032 -39.5016 0.880138 
79.1751 -39.4549 0.884051 
79.2469 -39.4081 0.887964 
79.3188 -39.3613 0.891877 
79.3907 -39.3146 0.895789 
79.4625 -39.2678 0.899702 
79.5344 -39.221 0.903615 
79.6062 -39.1743 0.907528 
79.6781 -39.1275 0.911441 
79.7499 -39.0808 0.915353 
79.8218 -39.034 0.919266 
79.8937 -38.9872 0.923179 
79.9655 -38.9405 0.927092 
80.0374 -38.8937 0.931005 
80.1092 -38.847 0.934917 
80.1811 -38.8002 0.93883 
80.253 -38.7534 0.942743 
80.3248 -38.7067 0.946656 
80.3967 -38.6599 0.950569 
80.4685 -38.6132 0.954482 
80.5404 -38.5664 0.958394 
80.6122 -38.5196 0.962307 
80.6841 -38.4729 0.96622 
80.756 -38.4261 0.970133 
80.8278 -38.3793 0.974046 
80.8997 -38.3326 0.977958 
80.9715 -38.2858 0.981871 
81.0434 -38.2391 0.985784 
81.1153 -38.1923 0.989697 
81.1871 -38.1455 0.99361 
81.259 -38.0988 0.997522 
81.3308 -38.052 1.00144 
81.4027 -38.0053 1.00535 
81.4746 -37.9585 1.00926 
81.5464 -37.9117 1.01317 
81.6183 -37.865 1.01709 
81.6901 -37.8182 1.021 
81.762 -37.7714 1.02491 
81.8338 -37.7247 1.02882 
81.9057 -37.6779 1.03274 
81.9776 -37.6312 1.03665 
82.0494 -37.5844 1.04056 
82.1213 -37.5376 1.04448 
82.1931 -37.4909 1.04839 
82.265 -37.4441 1.0523 
82.3369 -37.3974 1.05621 
82.4087 -37.3506 1.06013 
82.4806 -37.3038 1.06404 
82.5524 -37.2571 1.06795 
82.6243 -37.2103 1.07187 
82.6962 -37.1636 1.07578 
82.768 -37.1168 1.07969 
82.8399 -37.07 1.0836 
82.9117 -37.0233 1.08752 
82.9836 -36.9765 1.09143 
83.0554 -36.9297 1.09534 
83.1273 -36.883 1.09926 
83.1992 -36.8362 1.10317 
83.271 -36.7895 1.10708 
83.3429 -36.7427 1.11099 
83.4147 -36.6959 1.11491 
83.4866 -36.6492 1.11882 
83.5585 -36.6024 1.12273 
83.6303 -36.5557 1.12665 
83.7022 -36.5089 1.13056 
83.774 -36.4621 1.13447 
83.8459 -36.4154 1.13838 
83.9177 -36.3686 1.1423 
83.9896 -36.3218 1.14621 
84.0615 -36.2751 1.15012 
83.9974 -36.3322 1.14638 
83.9333 -36.3893 1.14265 
83.8691 -36.4464 1.13891 
83.805 -36.5035 1.13517 
83.7409 -36.5606 1.13143 
83.6768 -36.6177 1.12769 
83.6127 -36.6748 1.12395 
83.5486 -36.7319 1.12022 
83.4845 -36.789 1.11648 
83.4204 -36.8461 1.11274 
83.3563 -36.9032 1.109 
83.2922 -36.9603 1.10526 
83.2281 -37.0174 1.10152 
83.164 -37.0745 1.09779 
83.0999 -37.1316 1.09405 
83.0358 -37.1887 1.09031 
82.9717 -37.2458 1.08657 
82.9076 -37.3029 1.08283 
82.8435 -37.36 1.07909 
82.7794 -37.4171 1.07536 
82.7152 -37.4742 1.07162 
82.6511 -37.5314 1.06788 
82.587 -37.5885 1.06414 
82.5229 -37.6456 1.0604 
82.4588 -37.7027 1.05666 
82.3947 -37.7598 1.05292 
82.3306 -37.8169 1.04919 
82.2665 -37.874 1.04545 
82.2024 -37.9311 1.04171 
82.1383 -37.9882 1.03797 
82.0742 -38.0453 1.03423 
82.0101 -38.1024 1.03049 
81.946 -38.1595 1.02676 
81.8819 -38.2166 1.02302 
81.8178 -38.2737 1.01928 
81.7537 -38.3308 1.01554 
81.6896 -38.3879 1.0118 
81.6255 -38.445 1.00806 
81.5613 -38.5021 1.00433 
81.4972 -38.5592 1.00059 
81.4331 -38.6163 0.99685 
81.369 -38.6734 0.993111 
81.3049 -38.7305 0.989373 
81.2408 -38.7876 0.985635 
81.1767 -38.8447 0.981896 
81.1126 -38.9018 0.978158 
81.0485 -38.9589 0.97442 
80.9844 -39.016 0.970681 
80.9203 -39.0731 0.966943 
80.8562 -39.1302 0.963205 
80.7921 -39.1873 0.959466 
80.728 -39.2444 0.955728 
80.6639 -39.3015 0.951989 
80.5998 -39.3586 0.948251 
80.5357 -39.4157 0.944513 
80.4716 -39.4728 0.940774 
80.4074 -39.53 0.937036 
80.3433 -39.5871 0.933298 
80.2792 -39.6442 0.929559 
80.2151 -39.7013 0.925821 
80.151 -39.7584 0.922083 
80.0869 -39.8155 0.918344 
80.0228 -39.8726 0.914606 
79.9587 -39.9297 0.910868 
79.8946 -39.9868 0.907129 
79.8305 -40.0439 0.903391 
79.7664 -40.101 0.899653 
79.7023 -40.1581 0.895914 
79.6382 -40.2152 0.892176 
79.5741 -40.2723 0.888437 
79.51 -40.3294 0.884699 
79.4459 -40.3865 0.880961 
79.3818 -40.4436 0.877222 
79.3177 -40.5007 0.873484 
79.2535 -40.5578 0.869746 
79.1894 -40.6149 0.866007 
79.1253 -40.672 0.862269 
79.0612 -40.7291 0.858531 
78.9971 -40.7862 0.854792 
78.933 -40.8433 0.851054 
78.8689 -40.9004 0.847316 
78.8048 -40.9575 0.843577 
78.7407 -41.0146 0.839839 
78.6766 -41.0717 0.836101 
78.6125 -41.1288 0.832362 
78.5484 -41.1859 0.828624 
78.4843 -41.243 0.824886 
78.4202 -41.3001 0.821147 
78.3561 -41.3572 0.817409 
78.292 -41.4143 0.81367 
78.2279 -41.4715 0.809932 
78.1638 -41.5286 0.806194 
78.0996 -41.5857 0.802455 
78.0355 -41.6428 0.798717 
77.9714 -41.6999 0.794979 
77.9073 -41.757 0.79124 
77.8432 -41.8141 0.787502 
77.7791 -41.8712 0.783764 
77.715 -41.9283 0.780025 
77.6509 -41.9854 0.776287 
77.5868 -42.0425 0.772549 
77.5227 -42.0996 0.76881 
77.4586 -42.1567 0.765072 
77.3945 -42.2138 0.761334 
77.3304 -42.2709 0.757595 
77.2663 -42.328 0.753857 
77.2022 -42.3851 0.750118 
77.1381 -42.4422 0.74638 
77.074 -42.4993 0.742642 
77.0099 -42.5564 0.738903 
76.9457 -42.6135 0.735165 
76.8816 -42.6706 0.731427 
76.8175 -42.7277 0.727688 
76.7534 -42.7848 0.72395 
76.6893 -42.8419 0.720212 
76.6252 -42.899 0.716473 
76.5611 -42.9561 0.712735 
76.497 -43.0132 0.708997 
76.4329 -43.0703 0.705258 
76.3688 -43.1274 0.70152 
76.3047 -43.1845 0.697782 
76.2406 -43.2416 0.694043 
76.1765 -43.2987 0.690305 
76.1124 -43.3558 0.686566 
76.0483 -43.4129 0.682828 
75.9842 -43.4701 0.67909 
75.9201 -43.5272 0.675351 
75.856 -43.5843 0.671613 
75.7918 -43.6414 0.667875 
75.7277 -43.6985 0.664136 
75.6636 -43.7556 0.660398 
75.5995 -43.8127 0.65666 
75.5354 -43.8698 0.652921 
75.4713 -43.9269 0.649183 
75.4072 -43.984 0.645445 
75.3431 -44.0411 0.641706 
75.279 -44.0982 0.637968 
75.2149 -44.1553 0.63423 
75.1508 -44.2124 0.630491 
75.0867 -44.2695 0.626753 
75.0226 -44.3266 0.623015 
74.9585 -44.3837 0.619276 
74.8944 -44.4408 0.615538 
74.8303 -44.4979 0.611799 
74.7662 -44.555 0.608061 
74.702 -44.6121 0.604323 
74.6379 -44.6692 0.600584 
74.5738 -44.7263 0.596846 
74.5097 -44.7834 0.593108 
74.4456 -44.8405 0.589369 
74.3815 -44.8976 0.585631 
74.3174 -44.9547 0.581893 
74.2533 -45.0118 0.578154 
74.1892 -45.0689 0.574416 
74.1251 -45.126 0.570678 
74.061 -45.1831 0.566939 
73.9969 -45.2402 0.563201 
73.9328 -45.2973 0.559463 
73.8687 -45.3544 0.555724 
73.8046 -45.4115 0.551986 
73.7405 -45.4687 0.548247 
73.6764 -45.5258 0.544509 
73.6123 -45.5829 0.540771 
73.5481 -45.64 0.537032 
73.484 -45.6971 0.533294 
73.4199 -45.7542 0.529556 
73.3558 -45.8113 0.525817 
73.2917 -45.8684 0.522079 
73.2276 -45.9255 0.518341 
73.1635 -45.9826 0.514602 
73.0994 -46.0397 0.510864 
73.0353 -46.0968 0.507126 
72.9712 -46.1539 0.503387 
72.9071 -46.211 0.499649 
72.843 -46.2681 0.495911 
72.7789 -46.3252 0.492172 
72.7148 -46.3823 0.488434 
72.6507 -46.4394 0.484695 
72.5866 -46.4965 0.480957 
72.5225 -46.5536 0.477219 
72.4584 -46.6107 0.47348 
72.3942 -46.6678 0.469742 
72.3301 -46.7249 0.466004 
72.266 -46.782 0.462265 
72.2019 -46.8391 0.458527 
72.1378 -46.8962 0.454789 
72.0737 -46.9533 0.45105 
72.0096 -47.0104 0.447312 
71.9455 -47.0675 0.443574 
71.8814 -47.1246 0.439835 
71.8173 -47.1817 0.436097 
71.7532 -47.2388 0.432359 
71.6891 -47.2959 0.42862 
71.625 -47.353 0.424882 
71.5609 -47.4102 0.421143 
71.4968 -47.4673 0.417405 
71.4327 -47.5244 0.413667 
71.3686 -47.5815 0.409928 
71.3045 -47.6386 0.40619 
71.2403 -47.6957 0.402452 
71.1762 -47.7528 0.398713 
71.1121 -47.8099 0.394975 
71.048 -47.867 0.391237 
70.9839 -47.9241 0.387498 
70.9198 -47.9812 0.38376 
70.8557 -48.0383 0.380022 
70.7916 -48.0954 0.376283 
70.7275 -48.1525 0.372545 
70.6634 -48.2096 0.368807 
70.5993 -48.2667 0.365068 
70.5352 -48.3238 0.36133 
70.4711 -48.3809 0.357592 
70.407 -48.438 0.353853 
70.3429 -48.4951 0.350115 
70.2788 -48.5522 0.346376 
70.2147 -48.6093 0.342638 
70.1506 -48.6664 0.3389 
70.0864 -48.7235 0.335161 
70.0223 -48.7806 0.331423 
69.9582 -48.8377 0.327685 
69.8941 -48.8948 0.323946 
69.83 -48.9519 0.320208 
69.7659 -49.009 0.31647 
69.7018 -49.0661 0.312731 
69.6377 -49.1232 0.308993 
69.5736 -49.1803 0.305255 
69.4883 -49.1703 0.301516 
69.4031 -49.1603 0.297778 
69.3178 -49.1502 0.29404 
69.2326 -49.1402 0.290301 
69.1473 -49.1302 0.286563 
69.062 -49.1201 0.282824 
68.9768 -49.1101 0.279086 
68.8915 -49.1 0.275348 
68.8062 -49.09 0.271609 
68.721 -49.08 0.267871 
68.6357 -49.0699 0.264133 
68.5505 -49.0599 0.260394 
68.4652 -49.0499 0.256656 
68.3799 -49.0398 0.252918 
68.2947 -49.0298 0.249179 
68.2094 -49.0198 0.245441 
68.1242 -49.0097 0.241703 
68.0389 -48.9997 0.237964 
67.9536 -48.9896 0.234226 
67.8684 -48.9796 0.230488 
67.7831 -48.9696 0.226749 
67.6978 -48.9595 0.223011 
67.6126 -48.9495 0.219272 
67.5273 -48.9395 0.215534 
67.4421 -48.9294 0.211796 
67.3568 -48.9194 0.208057 
67.2715 -48.9093 0.204319 
67.1863 -48.8993 0.200581 
67.101 -48.8893 0.196842 
67.0158 -48.8792 0.193104 
66.9305 -48.8692 0.189366 
66.8452 -48.8592 0.185627 
66.76 -48.8491 0.181889 
66.6747 -48.8391 0.178151 
66.5894 -48.829 0.174412 
66.5042 -48.819 0.170674 
66.4189 -48.809 0.166936 
66.3337 -48.7989 0.163197 
66.2484 -48.7889 0.159459 
66.1631 -48.7789 0.155721 
66.0779 -48.7688 0.151982 
65.9926 -48.7588 0.148244 
65.9074 -48.7488 0.144505 
65.8221 -48.7387 0.140767 
65.7368 -48.7287 0.137029 
65.6516 -48.7186 0.13329 
65.5663 -48.7086 0.129552 
65.4811 -48.6986 0.125814 
65.3958 -48.6885 0.122075 
65.3105 -48.6785 0.118337 
65.2253 -48.6685 0.114599 
65.14 -48.6584 0.11086 
65.0547 -48.6484 0.107122 
64.9695 -48.6383 0.103384 
64.8842 -48.6283 0.0996452 
64.799 -48.6183 0.0959069 
64.7137 -48.6082 0.0921685 
64.6284 -48.5982 0.0884302 
64.5432 -48.5882 0.0846918 
64.4579 -48.5781 0.0809535 
64.3727 -48.5681 0.0772151 
64.2874 -48.5581 0.0734768 
64.2021 -48.548 0.0697384 
64.1169 -48.538 0.0660001 
64.0316 -48.5279 0.0622617 
63.9463 -48.5179 0.0585234 
63.8611 -48.5079 0.054785 
63.7758 -48.4978 0.0510467 
63.6906 -48.4878 0.0473083 
63.6053 -48.4778 0.04357 
63.52 -48.4677 0.0398316 
63.4348 -48.4577 0.0360932 
63.3495 -48.4476 0.0323549 
63.2643 -48.4376 0.0286165 
63.179 -48.4276 0.0248782 
63.0937 -48.4175 0.0211398 
63.0085 -48.4075 0.0174015 
62.9232 -48.3975 0.0136631 
62.8379 -48.3874 0.00992479 
62.7527 -48.3774 0.00618643 
62.6674 -48.3674 0.00244808 
62.5822 -48.3573 -0.00129027 
62.4969 -48.3473 -0.00502862 
62.4116 -48.3372 -0.00876697 
62.3264 -48.3272 -0.0125053 
62.2411 -48.3172 -0.0162437 
62.1559 -48.3071 -0.019982 
62.0706 -48.2971 -0.0237204 
61.9853 -48.2871 -0.0274587 
61.9001 -48.277 -0.0311971 
61.8148 -48.267 -0.0349354 
61.7295 -48.2569 -0.0386738 
61.6443 -48.2469 -0.0424121 
61.559 -48.2369 -0.0461505 
61.4738 -48.2268 -0.0498888 
61.3885 -48.2168 -0.0536272 
61.3032 -48.2068 -0.0573655 
61.218 -48.1967 -0.0611039 
61.1327 -48.1867 -0.0648423 
61.0475 -48.1767 -0.0685806 
60.9622 -48.1666 -0.072319 
60.8769 -48.1566 -0.0760573 
60.7917 -48.1465 -0.0797957 
60.7064 -48.1365 -0.083534 
60.6211 -48.1265 -0.0872724 
60.5359 -48.1164 -0.0910107 
60.4506 -48.1064 -0.0947491 
60.3654 -48.0964 -0.0984874 
60.2801 -48.0863 -0.102226 
60.1948 -48.0763 -0.105964 
60.1096 -48.0662 -0.109702 
60.0243 -48.0562 -0.113441 
59.9391 -48.0462 -0.117179 
59.8538 -48.0361 -0.120918 
59.7685 -48.0261 -0.124656 
59.6833 -48.0161 -0.128394 
59.598 -48.006 -0.132133 
59.5127 -47.996 -0.135871 
59.4275 -47.986 -0.139609 
59.3422 -47.9759 -0.143348 
59.257 -47.9659 -0.147086 
59.1717 -47.9558 -0.150824 
59.0864 -47.9458 -0.154563 
59.0012 -47.9358 -0.158301 
58.9159 -47.9257 -0.162039 
58.8307 -47.9157 -0.165778 
58.7454 -47.9057 -0.169516 
58.6601 -47.8956 -0.173254 
58.5749 -47.8856 -0.176993 
58.4896 -47.8755 -0.180731 
58.4043 -47.8655 -0.18447 
58.3191 -47.8555 -0.188208 
58.2338 -47.8454 -0.191946 
58.1486 -47.8354 -0.195685 
58.0633 -47.8254 -0.199423 
57.978 -47.8153 -0.203161 
57.8928 -47.8053 -0.2069 
57.8075 -47.7953 -0.210638 
57.7223 -47.7852 -0.214376 
57.637 -47.7752 -0.218115 
57.5517 -47.7651 -0.221853 
57.4665 -47.7551 -0.225591 
57.3812 -47.7451 -0.22933 
57.2959 -47.735 -0.233068 
57.2107 -47.725 -0.236806 
57.1254 -47.715 -0.240545 
57.0402 -47.7049 -0.244283 
56.9549 -47.6949 -0.248021 
56.8696 -47.6848 -0.25176 
56.7844 -47.6748 -0.255498 
56.6991 -47.6648 -0.259237 
56.6139 -47.6547 -0.262975 
56.5286 -47.6447 -0.266713 
56.4433 -47.6347 -0.270452 
56.3581 -47.6246 -0.27419 
56.2728 -47.6146 -0.277928 
56.1875 -47.6046 -0.281667 
56.1023 -47.5945 -0.285405 
56.017 -47.5845 -0.289143 
55.9318 -47.5744 -0.292882 
55.8465 -47.5644 -0.29662 
55.7612 -47.5544 -0.300358 
55.676 -47.5443 -0.304097 
55.5907 -47.5343 -0.307835 
55.5055 -47.5243 -0.311573 
55.4202 -47.5142 -0.315312 
55.3349 -47.5042 -0.31905 
55.2497 -47.4941 -0.322789 
55.1644 -47.4841 -0.326527 
55.0791 -47.4741 -0.330265 
54.9939 -47.464 -0.334004 
54.9086 -47.454 -0.337742 
54.8234 -47.444 -0.34148 
54.7381 -47.4339 -0.345219 
54.6528 -47.4239 -0.348957 
54.5676 -47.4139 -0.352695 
54.4823 -47.4038 -0.356434 
54.3971 -47.3938 -0.360172 
54.3118 -47.3837 -0.36391 
54.2265 -47.3737 -0.367649 
54.1413 -47.3637 -0.371387 
54.056 -47.3536 -0.375125 
53.9707 -47.3436 -0.378864 
53.8855 -47.3336 -0.382602 
53.8002 -47.3235 -0.386341 
53.715 -47.3135 -0.390079 
53.6297 -47.3034 -0.393817 
53.5444 -47.2934 -0.397556 
53.4592 -47.2834 -0.401294 
53.3739 -47.2733 -0.405032 
53.2887 -47.2633 -0.408771 
53.2034 -47.2533 -0.412509 
53.1181 -47.2432 -0.416247 
53.0329 -47.2332 -0.419986 
52.9476 -47.2232 -0.423724 
52.8623 -47.2131 -0.427462 
52.7771 -47.2031 -0.431201 
52.6918 -47.193 -0.434939 
52.6066 -47.183 -0.438677 
52.5213 -47.173 -0.442416 
52.436 -47.1629 -0.446154 
52.3508 -47.1529 -0.449893 
52.2655 -47.1429 -0.453631 
52.1803 -47.1328 -0.457369 
52.095 -47.1228 -0.461108 
52.0097 -47.1127 -0.464846 
51.9245 -47.1027 -0.468584 
51.8392 -47.0927 -0.472323 
51.7539 -47.0826 -0.476061 
51.6687 -47.0726 -0.479799 
51.5834 -47.0626 -0.483538 
51.4982 -47.0525 -0.487276 
51.4129 -47.0425 -0.491014 
51.3276 -47.0325 -0.494753 
51.2424 -47.0224 -0.498491 
51.1571 -47.0124 -0.502229 
51.0719 -47.0023 -0.505968 
50.9866 -46.9923 -0.509706 
50.9013 -46.9823 -0.513444 
50.8161 -46.9722 -0.517183 
50.7308 -46.9622 -0.520921 
50.6455 -46.9522 -0.52466 
50.5603 -46.9421 -0.528398 
50.475 -46.9321 -0.532136 
50.3898 -46.922 -0.535875 
50.3045 -46.912 -0.539613 
50.2554 -46.8416 -0.543351 
50.2063 -46.7712 -0.54709 
50.1572 -46.7007 -0.550828 
50.1081 -46.6303 -0.554566 
50.059 -46.5599 -0.558305 
50.0099 -46.4894 -0.562043 
49.9608 -46.419 -0.565781 
49.9118 -46.3486 -0.56952 
49.8627 -46.2782 -0.573258 
49.8136 -46.2077 -0.576996 
49.7645 -46.1373 -0.580735 
49.7154 -46.0669 -0.584473 
49.6663 -45.9964 -0.588212 
49.6172 -45.926 -0.59195 
49.5681 -45.8556 -0.595688 
49.519 -45.7852 -0.599427 
49.4699 -45.7147 -0.603165 
49.4208 -45.6443 -0.606903 
49.3717 -45.5739 -0.610642 
49.3226 -45.5034 -0.61438 
49.2736 -45.433 -0.618118 
49.2245 -45.3626 -0.621857 
49.1754 -45.2922 -0.625595 
49.1263 -45.2217 -0.629333 
49.0772 -45.1513 -0.633072 
49.0281 -45.0809 -0.63681 
48.979 -45.0104 -0.640548 
48.9299 -44.94 -0.644287 
48.8808 -44.8696 -0.648025 
48.8317 -44.7992 -0.651764 
48.7826 -44.7287 -0.655502 
48.7335 -44.6583 -0.65924 
48.6844 -44.5879 -0.662979 
48.6353 -44.5174 -0.666717 
48.5863 -44.447 -0.670455 
48.5372 -44.3766 -0.674194 
48.4881 -44.3062 -0.677932 
48.439 -44.2357 -0.68167 
48.3899 -44.1653 -0.685409 
48.3408 -44.0949 -0.689147 
48.2917 -44.0244 -0.692885 
48.2426 -43.954 -0.696624 
48.1935 -43.8836 -0.700362 
48.1444 -43.8132 -0.7041 
48.0953 -43.7427 -0.707839 
48.0462 -43.6723 -0.711577 
47.9971 -43.6019 -0.715315 
47.948 -43.5314 -0.719054 
47.899 -43.461 -0.722792 
47.8499 -43.3906 -0.726531 
47.8008 -43.3202 -0.730269 
47.7517 -43.2497 -0.734007 
47.7026 -43.1793 -0.737746 
47.6535 -43.1089 -0.741484 
47.6044 -43.0384 -0.745222 
47.5553 -42.968 -0.748961 
47.5062 -42.8976 -0.752699 
47.4571 -42.8272 -0.756437 
47.408 -42.7567 -0.760176 
47.3589 -42.6863 -0.763914 
47.3098 -42.6159 -0.767652 
47.2607 -42.5454 -0.771391 
47.2117 -42.475 -0.775129 
47.1626 -42.4046 -0.778867 
47.1135 -42.3342 -0.782606 
47.0644 -42.2637 -0.786344 
47.0153 -42.1933 -0.790083 
46.9662 -42.1229 -0.793821 
46.9171 -42.0524 -0.797559 
46.868 -41.982 -0.801298 
46.8189 -41.9116 -0.805036 
46.7698 -41.8412 -0.808774 
46.7207 -41.7707 -0.812513 
46.6716 -41.7003 -0.816251 
46.6225 -41.6299 -0.819989 
46.5734 -41.5595 -0.823728 
46.5244 -41.489 -0.827466 
46.4753 -41.4186 -0.831204 
46.4262 -41.3482 -0.834943 
46.3771 -41.2777 -0.838681 
46.328 -41.2073 -0.842419 
46.2789 -41.1369 -0.846158 
46.2298 -41.0665 -0.849896 
46.1807 -40.996 -0.853635 
46.1316 -40.9256 -0.857373 
46.0825 -40.8552 -0.861111 
46.0334 -40.7847 -0.86485 
45.9843 -40.7143 -0.868588 
45.9352 -40.6439 -0.872326 
45.8861 -40.5735 -0.876065 
45.8371 -40.503 -0.879803 
45.788 -40.4326 -0.883541 
45.7389 -40.3622 -0.88728 
45.6898 -40.2917 -0.891018 
45.6407 -40.2213 -0.894756 
45.5916 -40.1509 -0.898495 
45.5425 -40.0805 -0.902233 
45.4934 -40.01 -0.905971 
45.4443 -39.9396 -0.90971 
45.3952 -39.8692 -0.913448 
45.3461 -39.7987 -0.917186 
45.297 -39.7283 -0.920925 
45.2479 -39.6579 -0.924663 
45.1988 -39.5875 -0.928402 
45.1498 -39.517 -0.93214 
45.1007 -39.4466 -0.935878 
45.0516 -39.3762 -0.939617 
45.0025 -39.3057 -0.943355 
44.9534 -39.2353 -0.947093 
44.9043 -39.1649 -0.950832 
44.8552 -39.0945 -0.95457 
44.8061 -39.024 -0.958308 
44.757 -38.9536 -0.962047 
44.7079 -38.8832 -0.965785 
44.6588 -38.8127 -0.969523 
44.6097 -38.7423 -0.973262 
44.5606 -38.6719 -0.977 
44.5116 -38.6015 -0.980738 
44.4625 -38.531 -0.984477 
44.4134 -38.4606 -0.988215 
44.3643 -38.3902 -0.991954 
44.3152 -38.3197 -0.995692 
44.2661 -38.2493 -0.99943 
44.217 -38.1789 -1.00317 
44.1679 -38.1085 -1.00691 
44.1188 -38.038 -1.01065 
44.0697 -37.9676 -1.01438 
44.0206 -37.8972 -1.01812 
43.9715 -37.8267 -1.02186 
43.9224 -37.7563 -1.0256 
43.8733 -37.6859 -1.02934 
43.8243 -37.6155 -1.03308 
43.7752 -37.545 -1.03681 
43.7261 -37.4746 -1.04055 
43.677 -37.4042 -1.04429 
43.6279 -37.3337 -1.04803 
43.5788 -37.2633 -1.05177 
43.5297 -37.1929 -1.05551 
43.4806 -37.1225 -1.05924 
43.4315 -37.052 -1.06298 
43.3824 -36.9816 -1.06672 
43.3333 -36.9112 -1.07046 
43.2842 -36.8407 -1.0742 
43.2351 -36.7703 -1.07794 
43.186 -36.6999 -1.08167 
43.137 -36.6295 -1.08541 
43.0879 -36.559 -1.08915 
43.0388 -36.4886 -1.09289 
42.9897 -36.4182 -1.09663 
42.9406 -36.3477 -1.10037 
42.8915 -36.2773 -1.1041 
42.8424 -36.2069 -1.10784 
42.7933 -36.1365 -1.11158 
42.7442 -36.066 -1.11532 
42.6951 -35.9956 -1.11906 
42.646 -35.9252 -1.1228 
42.5969 -35.8547 -1.12653 
42.5478 -35.7843 -1.13027 
42.4987 -35.7139 -1.13401 
42.4497 -35.6435 -1.13775 
42.4006 -35.573 -1.14149 
42.3515 -35.5026 -1.14523 
42.3024 -35.4322 -1.14896 
42.2533 -35.3617 -1.1527 
42.2042 -35.2913 -1.15644 
42.1551 -35.2209 -1.16018 
42.106 -35.1505 -1.16392 
42.0569 -35.08 -1.16766 
42.0078 -35.0096 -1.17139 
41.9587 -34.9392 -1.17513 
41.9096 -34.8687 -1.17887 
41.8605 -34.7983 -1.18261 
41.8114 -34.7279 -1.18635 
41.7624 -34.6575 -1.19009 
41.7133 -34.587 -1.19382 
41.6642 -34.5166 -1.19756 
41.6151 -34.4462 -1.2013 
41.566 -34.3758 -1.20504 
41.5169 -34.3053 -1.20878 
41.4678 -34.2349 -1.21252 
41.4187 -34.1645 -1.21625 
41.3696 -34.094 -1.21999 
41.3205 -34.0236 -1.22373 
41.2714 -33.9532 -1.22747 
41.2223 -33.8828 -1.23121 
41.1732 -33.8123 -1.23495 
41.1241 -33.7419 -1.23868 
41.0751 -33.6715 -1.24242 
41.026 -33.601 -1.24616 
40.9769 -33.5306 -1.2499 
40.9278 -33.4602 -1.25364 
40.8787 -33.3898 -1.25738 
40.8296 -33.3193 -1.26111 
40.7805 -33.2489 -1.26485 
40.7314 -33.1785 -1.26859 
40.6823 -33.108 -1.27233 
40.6332 -33.0376 -1.27607 
40.5841 -32.9672 -1.27981 
40.535 -32.8968 -1.28354 
40.4859 -32.8263 -1.28728 
40.4368 -32.7559 -1.29102 
40.3878 -32.6855 -1.29476 
40.3387 -32.615 -1.2985 
40.2896 -32.5446 -1.30224 
40.2405 -32.4742 -1.30598 
40.1914 -32.4038 -1.30971 
40.1423 -32.3333 -1.31345 
40.0932 -32.2629 -1.31719 
40.0441 -32.1925 -1.32093 
39.995 -32.122 -1.32467 
39.9459 -32.0516 -1.32841 
39.8968 -31.9812 -1.33214 
39.8477 -31.9108 -1.33588 
39.7986 -31.8403 -1.33962 
39.7495 -31.7699 -1.34336 
39.7005 -31.6995 -1.3471 
39.6514 -31.629 -1.35084 
39.6023 -31.5586 -1.35457 
39.5532 -31.4882 -1.35831 
39.5041 -31.4178 -1.36205 
39.455 -31.3473 -1.36579 
39.4059 -31.2769 -1.36953 
39.3568 -31.2065 -1.37327 
39.3077 -31.136 -1.377 
39.2586 -31.0656 -1.38074 
39.2095 -30.9952 -1.38448 
39.2317 -31.0791 -1.38212 
39.2538 -31.163 -1.37976 
39.276 -31.2468 -1.37741 
39.2982 -31.3307 -1.37505 
39.3203 -31.4146 -1.37269 
39.3425 -31.4985 -1.37033 
39.3646 -31.5824 -1.36797 
39.3868 -31.6663 -1.36562 
39.4089 -31.7502 -1.36326 
39.4311 -31.8341 -1.3609 
39.4533 -31.9179 -1.35854 
39.4754 -32.0018 -1.35618 
39.4976 -32.0857 -1.35383 
39.5197 -32.1696 -1.35147 
39.5419 -32.2535 -1.34911 
39.564 -32.3374 -1.34675 
39.5862 -32.4213 -1.34439 
39.6084 -32.5052 -1.34204 
39.6305 -32.589 -1.33968 
39.6527 -32.6729 -1.33732 
39.6748 -32.7568 -1.33496 
39.697 -32.8407 -1.3326 
39.7191 -32.9246 -1.33025 
39.7413 -33.0085 -1.32789 
39.7635 -33.0924 -1.32553 
39.7856 -33.1762 -1.32317 
39.8078 -33.2601 -1.32081 
39.8299 -33.344 -1.31845 
39.8521 -33.4279 -1.3161 
39.8743 -33.5118 -1.31374 
39.8964 -33.5957 -1.31138 
39.9186 -33.6796 -1.30902 
39.9407 -33.7635 -1.30666 
39.9629 -33.8473 -1.30431 
39.985 -33.9312 -1.30195 
40.0072 -34.0151 -1.29959 
40.0294 -34.099 -1.29723 
40.0515 -34.1829 -1.29487 
40.0737 -34.2668 -1.29252 
40.0958 -34.3507 -1.29016 
40.118 -34.4345 -1.2878 
40.1401 -34.5184 -1.28544 
40.1623 -34.6023 -1.28308 
40.1845 -34.6862 -1.28073 
40.2066 -34.7701 -1.27837 
40.2288 -34.854 -1.27601 
40.2509 -34.9379 -1.27365 
40.2731 -35.0218 -1.27129 
40.2952 -35.1056 -1.26894 
40.3174 -35.1895 -1.26658 
40.3396 -35.2734 -1.26422 
40.3617 -35.3573 -1.26186 
40.3839 -35.4412 -1.2595 
40.406 -35.5251 -1.25715 
40.4282 -35.609 -1.25479 
40.4503 -35.6929 -1.25243 
40.4725 -35.7767 -1.25007 
40.4947 -35.8606 -1.24771 
40.5168 -35.9445 -1.24536 
40.539 -36.0284 -1.243 
40.5611 -36.1123 -1.24064 
40.5951 -36.1921 -1.23828 
40.629 -36.272 -1.23592 
40.663 -36.3518 -1.23356 
40.6969 -36.4317 -1.23121 
40.7309 -36.5115 -1.22885 
40.7649 -36.5914 -1.22649 
40.7988 -36.6712 -1.22413 
40.8328 -36.751 -1.22177 
40.8667 -36.8309 -1.21942 
40.9007 -36.9107 -1.21706 
40.9346 -36.9906 -1.2147 
40.9686 -37.0704 -1.21234 
41.0025 -37.1503 -1.20998 
41.0365 -37.2301 -1.20763 
41.0704 -37.31 -1.20527 
41.1044 -37.3898 -1.20291 
41.1383 -37.4696 -1.20055 
41.1723 -37.5495 -1.19819 
41.2062 -37.6293 -1.19584 
41.2402 -37.7092 -1.19348 
41.2742 -37.789 -1.19112 
41.3081 -37.8689 -1.18876 
41.3421 -37.9487 -1.1864 
41.376 -38.0286 -1.18405 
41.41 -38.1084 -1.18169 
41.4439 -38.1882 -1.17933 
41.4779 -38.2681 -1.17697 
41.5118 -38.3479 -1.17461 
41.5458 -38.4278 -1.17226 
41.5797 -38.5076 -1.1699 
41.6137 -38.5875 -1.16754 
41.6476 -38.6673 -1.16518 
41.6816 -38.7472 -1.16282 
41.7155 -38.827 -1.16047 
41.7495 -38.9068 -1.15811 
41.7835 -38.9867 -1.15575 
41.8174 -39.0665 -1.15339 
41.8514 -39.1464 -1.15103 
41.8853 -39.2262 -1.14867 
41.9193 -39.3061 -1.14632 
41.9532 -39.3859 -1.14396 
41.9872 -39.4658 -1.1416 
42.0211 -39.5456 -1.13924 
42.0551 -39.6254 -1.13688 
42.089 -39.7053 -1.13453 
42.123 -39.7851 -1.13217 
42.1569 -39.865 -1.12981 
42.1909 -39.9448 -1.12745 
42.2248 -40.0247 -1.12509 
42.2588 -40.1045 -1.12274 
42.2928 -40.1844 -1.12038 
42.3267 -40.2642 -1.11802 
42.3607 -40.344 -1.11566 
42.3946 -40.4239 -1.1133 
42.4286 -40.5037 -1.11095 
42.4625 -40.5836 -1.10859 
42.4965 -40.6634 -1.10623 
42.5304 -40.7433 -1.10387 
42.5644 -40.8231 -1.10151 
42.5983 -40.903 -1.09916 
42.6323 -40.9828 -1.0968 
42.6773 -41.0569 -1.09444 
42.7224 -41.1311 -1.09208 
42.7674 -41.2053 -1.08972 
42.8125 -41.2794 -1.08737 
42.8575 -41.3536 -1.08501 
42.9026 -41.4277 -1.08265 
42.9476 -41.5019 -1.08029 
42.9927 -41.576 -1.07793 
43.0377 -41.6502 -1.07558 
43.0828 -41.7243 -1.07322 
43.1278 -41.7985 -1.07086 
43.1729 -41.8726 -1.0685 
43.2179 -41.9468 -1.06614 
43.263 -42.0209 -1.06378 
43.308 -42.0951 -1.06143 
43.3531 -42.1692 -1.05907 
43.3981 -42.2434 -1.05671 
43.4432 -42.3175 -1.05435 
43.4882 -42.3917 -1.05199 
43.5333 -42.4658 -1.04964 
43.5783 -42.54 -1.04728 
43.6233 -42.6142 -1.04492 
43.6684 -42.6883 -1.04256 
43.7134 -42.7625 -1.0402 
43.7585 -42.8366 -1.03785 
43.8035 -42.9108 -1.03549 
43.8486 -42.9849 -1.03313 
43.8936 -43.0591 -1.03077 
43.9387 -43.1332 -1.02841 
43.9837 -43.2074 -1.02606 
44.0288 -43.2815 -1.0237 
44.0738 -43.3557 -1.02134 
44.1189 -43.4298 -1.01898 
44.1639 -43.504 -1.01662 
44.209 -43.5781 -1.01427 
44.254 -43.6523 -1.01191 
44.2991 -43.7264 -1.00955 
44.3441 -43.8006 -1.00719 
44.3892 -43.8748 -1.00483 
44.4342 -43.9489 -1.00248 
44.4793 -44.0231 -1.00012 
44.5243 -44.0972 -0.997759 
44.5694 -44.1714 -0.995401 
44.6144 -44.2455 -0.993043 
44.6595 -44.3197 -0.990685 
44.7045 -44.3938 -0.988327 
44.7496 -44.468 -0.985969 
44.7946 -44.5421 -0.983611 
44.8396 -44.6163 -0.981253 
44.8847 -44.6904 -0.978895 
44.9297 -44.7646 -0.976537 
44.9748 -44.8387 -0.974179 
45.0198 -44.9129 -0.971821 
45.0649 -44.987 -0.969463 
45.1099 -45.0612 -0.967104 
45.155 -45.1353 -0.964746 
45.2 -45.2095 -0.962388 
45.2451 -45.2837 -0.96003 
45.2901 -45.3578 -0.957672 
45.3352 -45.432 -0.955314 
45.3802 -45.5061 -0.952956 
45.4354 -45.573 -0.950598 
45.4906 -45.64 -0.94824 
45.5459 -45.7069 -0.945882 
45.6011 -45.7738 -0.943524 
45.6563 -45.8408 -0.941166 
45.7115 -45.9077 -0.938808 
45.7667 -45.9746 -0.93645 
45.8219 -46.0415 -0.934092 
45.8771 -46.1085 -0.931734 
45.9323 -46.1754 -0.929376 
45.9876 -46.2423 -0.927018 
46.0428 -46.3093 -0.924659 
46.098 -46.3762 -0.922301 
46.1532 -46.4431 -0.919943 
46.2084 -46.5101 -0.917585 
46.2636 -46.577 -0.915227 
46.3188 -46.6439 -0.912869 
46.374 -46.7108 -0.910511 
46.4293 -46.7778 -0.908153 
46.4845 -46.8447 -0.905795 
46.5397 -46.9116 -0.903437 
46.5949 -46.9786 -0.901079 
46.6501 -47.0455 -0.898721 
46.7053 -47.1124 -0.896363 
46.7605 -47.1793 -0.894005 
46.8157 -47.2463 -0.891647 
46.871 -47.3132 -0.889289 
46.9262 -47.3801 -0.886931 
46.9814 -47.4471 -0.884573 
47.0366 -47.514 -0.882214 
47.0918 -47.5809 -0.879856 
47.147 -47.6479 -0.877498 
47.2022 -47.7148 -0.87514 
47.2574 -47.7817 -0.872782 
47.3127 -47.8486 -0.870424 
47.3679 -47.9156 -0.868066 
47.4231 -47.9825 -0.865708 
47.4783 -48.0494 -0.86335 
47.5335 -48.1164 -0.860992 
47.5887 -48.1833 -0.858634 
47.6439 -48.2502 -0.856276 
47.6991 -48.3171 -0.853918 
47.7544 -48.3841 -0.85156 
47.8096 -48.451 -0.849202 
47.8648 -48.5179 -0.846844 
47.92 -48.5849 -0.844486 
47.9752 -48.6518 -0.842128 
48.0304 -48.7187 -0.839769 
48.0856 -48.7857 -0.837411 
48.1408 -48.8526 -0.835053 
48.1961 -48.9195 -0.832695 
48.2513 -48.9864 -0.830337 
48.3065 -49.0534 -0.827979 
48.3617 -49.1203 -0.825621 
48.4169 -49.1872 -0.823263 
48.4721 -49.2542 -0.820905 
48.5273 -49.3211 -0.818547 
48.5825 -49.388 -0.816189 
48.6378 -49.4549 -0.813831 
48.693 -49.5219 -0.811473 
48.7482 -49.5888 -0.809115 
48.8124 -49.6471 -0.806757 
48.8767 -49.7055 -0.804399 
48.9409 -49.7638 -0.802041 
49.0051 -49.8221 -0.799682 
49.0694 -49.8804 -0.797324 
49.1336 -49.9388 -0.794966 
49.1978 -49.9971 -0.792608 
49.2621 -50.0554 -0.79025 
49.3263 -50.1137 -0.787892 
49.3905 -50.172 -0.785534 
49.4548 -50.2304 -0.783176 
49.519 -50.2887 -0.780818 
49.5833 -50.347 -0.77846 
49.6475 -50.4053 -0.776102 
49.7117 -50.4637 -0.773744 
49.776 -50.522 -0.771386 
49.8402 -50.5803 -0.769028 
49.9044 -50.6386 -0.76667 
49.9687 -50.697 -0.764312 
50.0329 -50.7553 -0.761954 
50.0971 -50.8136 -0.759596 
50.1614 -50.8719 -0.757237 
50.2256 -50.9303 -0.754879 
50.2899 -50.9886 -0.752521 
50.3541 -51.0469 -0.750163 
50.4183 -51.1052 -0.747805 
50.4826 -51.1635 -0.745447 
50.5468 -51.2219 -0.743089 
50.611 -51.2802 -0.740731 
50.6753 -51.3385 -0.738373 
50.7395 -51.3968 -0.736015 
50.8037 -51.4552 -0.733657 
50.868 -51.5135 -0.731299 
50.9322 -51.5718 -0.728941 
50.9965 -51.6301 -0.726583 
51.0607 -51.6885 -0.724225 
51.1249 -51.7468 -0.721867 
51.1892 -51.8051 -0.719509 
51.2534 -51.8634 -0.717151 
51.3176 -51.9218 -0.714792 
51.3819 -51.9801 -0.712434 
51.4461 -52.0384 -0.710076 
51.5103 -52.0967 -0.707718 
51.5746 -52.1551 -0.70536 
51.6388 -52.2134 -0.703002 
51.703 -52.2717 -0.700644 
51.7673 -52.33 -0.698286 
51.8315 -52.3883 -0.695928 
51.8958 -52.4467 -0.69357 
51.96 -52.505 -0.691212 
52.0242 -52.5633 -0.688854 
52.0885 -52.6216 -0.686496 
52.1527 -52.68 -0.684138 
52.2169 -52.7383 -0.68178 
52.2812 -52.7966 -0.679422 
52.3454 -52.8549 -0.677064 
52.4096 -52.9133 -0.674705 
52.4739 -52.9716 -0.672347 
52.5381 -53.0299 -0.669989 
52.6024 -53.0882 -0.667631 
52.6666 -53.1466 -0.665273 
52.7431 -53.1878 -0.664043 
52.8197 -53.2291 -0.662813 
52.8962 -53.2703 -0.661583 
52.9728 -53.3116 -0.660353 
53.0493 -53.3528 -0.659123 
53.1259 -53.3941 -0.657893 
53.2024 -53.4353 -0.656662 
53.2789 -53.4766 -0.655432 
53.3555 -53.5178 -0.654202 
53.432 -53.5591 -0.652972 
53.5086 -53.6003 -0.651742 
53.5851 -53.6416 -0.650512 
53.6617 -53.6828 -0.649282 
53.7382 -53.7241 -0.648052 
53.8147 -53.7653 -0.646822 
53.8913 -53.8066 -0.645591 
53.9678 -53.8478 -0.644361 
54.0444 -53.8891 -0.643131 
54.1209 -53.9303 -0.641901 
54.1975 -53.9716 -0.640671 
54.274 -54.0128 -0.639441 
54.3506 -54.0541 -0.638211 
54.4271 -54.0953 -0.636981 
54.5036 -54.1366 -0.635751 
54.5802 -54.1778 -0.63452 
54.6567 -54.2191 -0.63329 
54.7333 -54.2603 -0.63206 
54.8098 -54.3016 -0.63083 
54.8864 -54.3428 -0.6296 
54.9629 -54.3841 -0.62837 
55.0394 -54.4253 -0.62714 
55.116 -54.4666 -0.62591 
55.1925 -54.5078 -0.624679 
55.2691 -54.5491 -0.623449 
55.3456 -54.5903 -0.622219 
55.4222 -54.6316 -0.620989 
55.4987 -54.6728 -0.619759 
55.5752 -54.7141 -0.618529 
55.6518 -54.7553 -0.617299 
55.7283 -54.7966 -0.616069 
55.8049 -54.8378 -0.614839 
55.8814 -54.8791 -0.613608 
55.958 -54.9203 -0.612378 
56.0345 -54.9616 -0.611148 
56.1111 -55.0028 -0.609918 
56.1876 -55.0441 -0.608688 
56.2641 -55.0853 -0.607458 
56.3407 -55.1266 -0.606228 
56.4172 -55.1678 -0.604998 
56.4938 -55.2091 -0.603768 
56.5703 -55.2503 -0.602537 
56.6469 -55.2916 -0.601307 
56.7234 -55.3328 -0.600077 
56.7999 -55.3741 -0.598847 
56.8765 -55.4153 -0.597617 
56.953 -55.4566 -0.596387 
57.0296 -55.4978 -0.595157 
57.1061 -55.5391 -0.593927 
57.1827 -55.5803 -0.592696 
57.2592 -55.6216 -0.591466 
57.3357 -55.6628 -0.590236 
57.4123 -55.7041 -0.589006 
57.4888 -55.7453 -0.587776 
57.5654 -55.7866 -0.586546 
57.6419 -55.8278 -0.585316 
57.7185 -55.8691 -0.584086 
57.795 -55.9103 -0.582856 
57.8716 -55.9516 -0.581625 
57.9481 -55.9928 -0.580395 
58.0246 -56.0341 -0.579165 
58.1012 -56.0753 -0.577935 
58.1777 -56.1166 -0.576705 
58.2543 -56.1578 -0.575475 
58.3308 -56.1991 -0.574245 
58.4074 -56.2403 -0.573015 
58.4839 -56.2816 -0.571784 
58.5604 -56.3228 -0.570554 
58.637 -56.3641 -0.569324 
58.7135 -56.4053 -0.568094 
58.7901 -56.4466 -0.566864 
58.8666 -56.4878 -0.565634 
58.9432 -56.5291 -0.564404 
59.0197 -56.5703 -0.563174 
59.0963 -56.6116 -0.561944 
59.1728 -56.6528 -0.560713 
59.2493 -56.6941 -0.559483 
59.3259 -56.7353 -0.558253 
59.4024 -56.7765 -0.557023 
59.479 -56.8178 -0.555793 
59.5555 -56.859 -0.554563 
59.6321 -56.9003 -0.553333 
59.7086 -56.9415 -0.552103 
59.7851 -56.9828 -0.550873 
59.8617 -57.024 -0.549642 
59.9382 -57.0653 -0.548412 
60.0148 -57.1065 -0.547182 
60.0913 -57.1478 -0.545952 
60.1679 -57.189 -0.544722 
60.2444 -57.2303 -0.543492 
60.3209 -57.2715 -0.542262 
60.3975 -57.3128 -0.541032 
60.474 -57.354 -0.539801 
60.5506 -57.3953 -0.538571 
60.6271 -57.4365 -0.537341 
60.7037 -57.4778 -0.536111 
60.7802 -57.519 -0.534881 
60.8568 -57.5603 -0.533651 
60.9333 -57.6015 -0.532421 
61.0098 -57.6428 -0.531191 
61.0864 -57.684 -0.529961 
61.1629 -57.7253 -0.52873 
61.2395 -57.7665 -0.5275 
61.316 -57.8078 -0.52627 
61.3926 -57.849 -0.52504 
61.4691 -57.8903 -0.52381 
61.5456 -57.9315 -0.52258 
61.6222 -57.9728 -0.52135 
61.6987 -58.014 -0.52012 
61.7753 -58.0553 -0.51889 
61.8518 -58.0965 -0.517659 
61.9284 -58.1378 -0.516429 
62.0049 -58.179 -0.515199 
62.0814 -58.2203 -0.513969 
62.158 -58.2615 -0.512739 
62.2345 -58.3028 -0.511509 
62.3111 -58.344 -0.510279 
62.3876 -58.3853 -0.509049 
62.4642 -58.4265 -0.507818 
62.5407 -58.4678 -0.506588 
62.6173 -58.509 -0.505358 
62.6938 -58.5503 -0.504128 
62.7703 -58.5915 -0.502898 
62.8469 -58.6328 -0.501668 
62.9234 -58.674 -0.500438 
63 -58.7153 -0.499208 
63.0765 -58.7565 -0.497978 
63.1531 -58.7978 -0.496747 
63.2296 -58.839 -0.495517 
63.3061 -58.8803 -0.494287 
63.3827 -58.9215 -0.493057 
63.4592 -58.9628 -0.491827 
63.5358 -59.004 -0.490597 
63.6123 -59.0453 -0.489367 
63.6889 -59.0865 -0.488137 
63.7654 -59.1278 -0.486907 
63.8419 -59.169 -0.485676 
63.9185 -59.2103 -0.484446 
63.995 -59.2515 -0.483216 
64.0716 -59.2928 -0.481986 
64.1481 -59.334 -0.480756 
64.2247 -59.3753 -0.479526 
64.3012 -59.4165 -0.478296 
64.3778 -59.4578 -0.477066 
64.4543 -59.499 -0.475835 
64.5308 -59.5403 -0.474605 
64.6074 -59.5815 -0.473375 
64.6839 -59.6228 -0.472145 
64.7605 -59.664 -0.470915 
64.837 -59.7053 -0.469685 
64.9136 -59.7465 -0.468455 
64.9901 -59.7878 -0.467225 
65.0666 -59.829 -0.465995 
65.1432 -59.8703 -0.464764 
65.2197 -59.9115 -0.463534 
65.2963 -59.9528 -0.462304 
65.3728 -59.994 -0.461074 
65.4494 -60.0353 -0.459844 
65.5259 -60.0765 -0.458614 
65.6025 -60.1178 -0.457384 
65.679 -60.159 -0.456154 
65.7555 -60.2003 -0.454924 
65.8321 -60.2415 -0.453693 
65.9086 -60.2828 -0.452463 
65.9852 -60.324 -0.451233 
66.0617 -60.3653 -0.450003 
66.1383 -60.4065 -0.448773 
66.2148 -60.4478 -0.447543 
66.2913 -60.489 -0.446313 
66.3679 -60.5303 -0.445083 
66.4444 -60.5715 -0.443852 
66.521 -60.6128 -0.442622 
66.5975 -60.654 -0.441392 
66.6741 -60.6953 -0.440162 
66.7506 -60.7365 -0.438932 
66.8271 -60.7778 -0.437702 
66.9037 -60.819 -0.436472 
66.9802 -60.8603 -0.435242 
67.0568 -60.9015 -0.434012 
67.1333 -60.9428 -0.432781 
67.2099 -60.984 -0.431551 
67.2864 -61.0253 -0.430321 
67.363 -61.0665 -0.429091 
67.4395 -61.1078 -0.427861 
67.516 -61.149 -0.426631 
67.5926 -61.1903 -0.425401 
67.6691 -61.2315 -0.424171 
67.7457 -61.2728 -0.422941 
67.8222 -61.314 -0.42171 
67.8988 -61.3553 -0.42048 
67.9753 -61.3965 -0.41925 
68.0518 -61.4378 -0.41802 
68.1284 -61.479 -0.41679 
68.2049 -61.5203 -0.41556 
68.2815 -61.5615 -0.41433 
68.358 -61.6028 -0.4131 
68.4346 -61.644 -0.411869 
68.5111 -61.6853 -0.410639 
68.5876 -61.7265 -0.409409 
68.6642 -61.7678 -0.408179 
68.7407 -61.809 -0.406949 
68.8173 -61.8503 -0.405719 
68.8938 -61.8915 -0.404489 
68.9704 -61.9328 -0.403259 
69.0469 -61.974 -0.402029 
69.1235 -62.0153 -0.400798 
69.2 -62.0565 -0.399568 
69.2765 -62.0978 -0.398338 
69.3531 -62.139 -0.397108 
69.4296 -62.1803 -0.395878 
69.5062 -62.2215 -0.394648 
69.5827 -62.2628 -0.393418 
69.6593 -62.304 -0.392188 
69.7358 -62.3453 -0.390958 
69.8123 -62.3865 -0.389727 
69.8889 -62.4278 -0.388497 
69.9654 -62.469 -0.387267 
70.042 -62.5103 -0.386037 
70.1185 -62.5515 -0.384807 
70.1951 -62.5928 -0.383577 
70.2716 -62.634 -0.382347 
70.3481 -62.6753 -0.381117 
70.4247 -62.7165 -0.379886 
70.5012 -62.7578 -0.378656 
70.5778 -62.799 -0.377426 
70.6543 -62.8403 -0.376196 
70.7309 -62.8815 -0.374966 
70.8074 -62.9228 -0.373736 
70.884 -62.964 -0.372506 
70.9605 -63.0053 -0.371276 
71.037 -63.0465 -0.370046 
71.1136 -63.0878 -0.368815 
71.1901 -63.129 -0.367585 
71.2667 -63.1703 -0.366355 
71.3432 -63.2115 -0.365125 
71.4198 -63.2528 -0.363895 
71.4963 -63.294 -0.362665 
71.5728 -63.3353 -0.361435 
71.6494 -63.3765 -0.360205 
71.7259 -63.4178 -0.358975 
71.8025 -63.459 -0.357744 
71.879 -63.5003 -0.356514 
71.9556 -63.5415 -0.355284 
72.0321 -63.5828 -0.354054 
72.1087 -63.624 -0.352824 
72.1852 -63.6653 -0.351594 
72.2617 -63.7065 -0.350364 
72.3383 -63.7478 -0.349134 
72.4148 -63.789 -0.347903 
72.4914 -63.8303 -0.346673 
72.5679 -63.8715 -0.345443 
72.6445 -63.9128 -0.344213 
72.721 -63.954 -0.342983 
72.7975 -63.9953 -0.341753 
72.8741 -64.0365 -0.340523 
72.9506 -64.0778 -0.339293 
73.0272 -64.119 -0.338063 
73.1037 -64.1603 -0.336832 
73.1803 -64.2015 -0.335602 
73.2568 -64.2428 -0.334372 
73.3333 -64.284 -0.333142 
73.4099 -64.3253 -0.331912 
73.4864 -64.3665 -0.330682 
73.563 -64.4078 -0.329452 
73.6395 -64.449 -0.328222 
73.7161 -64.4903 -0.326992 
73.7926 -64.5315 -0.325761 
73.8692 -64.5728 -0.324531 
73.9457 -64.614 -0.323301 
74.0291 -64.6412 -0.323068 
74.1126 -64.6685 -0.322835 
74.196 -64.6957 -0.322603 
74.2795 -64.7229 -0.32237 
74.3629 -64.7501 -0.322137 
74.4464 -64.7773 -0.321904 
74.5298 -64.8045 -0.321671 
74.6133 -64.8318 -0.321438 
74.6967 -64.859 -0.321205 
74.7802 -64.8862 -0.320973 
74.8636 -64.9134 -0.32074 
74.9471 -64.9406 -0.320507 
75.0305 -64.9678 -0.320274 
75.114 -64.9951 -0.320041 
75.1974 -65.0223 -0.319808 
75.2809 -65.0495 -0.319576 
75.3643 -65.0767 -0.319343 
75.4478 -65.1039 -0.31911 
75.5312 -65.1311 -0.318877 
75.6147 -65.1584 -0.318644 
75.6981 -65.1856 -0.318411 
75.7816 -65.2128 -0.318178 
75.865 -65.24 -0.317946 
75.9485 -65.2672 -0.317713 
76.0319 -65.2944 -0.31748 
76.1154 -65.3217 -0.317247 
76.1988 -65.3489 -0.317014 
76.2823 -65.3761 -0.316781 
76.3657 -65.4033 -0.316548 
76.4492 -65.4305 -0.316316 
76.5326 -65.4577 -0.316083 
76.6161 -65.485 -0.31585 
76.6995 -65.5122 -0.315617 
76.783 -65.5394 -0.315384 
76.8664 -65.5666 -0.315151 
76.9499 -65.5938 -0.314918 
77.0333 -65.621 -0.314686 
77.1168 -65.6483 -0.314453 
77.2002 -65.6755 -0.31422 
77.2837 -65.7027 -0.313987 
77.3671 -65.7299 -0.313754 
77.4506 -65.7571 -0.313521 
77.534 -65.7843 -0.313288 
77.6175 -65.8116 -0.313056 
77.7009 -65.8388 -0.312823 
77.7844 -65.866 -0.31259 
77.8678 -65.8932 -0.312357 
77.9513 -65.9204 -0.312124 
78.0347 -65.9476 -0.311891 
78.1182 -65.9749 -0.311658 
78.2016 -66.0021 -0.311426 
78.2851 -66.0293 -0.311193 
78.3685 -66.0565 -0.31096 
78.452 -66.0837 -0.310727 
78.5354 -66.1109 -0.310494 
78.6189 -66.1382 -0.310261 
78.7023 -66.1654 -0.310028 
78.7858 -66.1926 -0.309796 
78.8692 -66.2198 -0.309563 
78.9527 -66.247 -0.30933 
79.0361 -66.2742 -0.309097 
79.1196 -66.3015 -0.308864 
79.203 -66.3287 -0.308631 
79.2864 -66.3559 -0.308399 
79.3699 -66.3831 -0.308166 
79.4533 -66.4103 -0.307933 
79.5368 -66.4375 -0.3077 
79.6202 -66.4648 -0.307467 
79.7037 -66.492 -0.307234 
79.7876 -66.5179 -0.307001 
79.8714 -66.5437 -0.306769 
79.9553 -66.5696 -0.306536 
80.0392 -66.5955 -0.306303 
80.1231 -66.6213 -0.30607 
80.207 -66.6472 -0.305837 
80.2908 -66.6731 -0.305604 
80.3747 -66.699 -0.305371 
80.4586 -66.7248 -0.305139 
80.5425 -66.7507 -0.304906 
80.6263 -66.7766 -0.304673 
80.7102 -66.8024 -0.30444 
80.7941 -66.8283 -0.304207 
80.878 -66.8542 -0.303974 
80.9618 -66.8801 -0.303741 
81.0457 -66.9059 -0.303509 
81.1296 -66.9318 -0.303276 
81.2135 -66.9577 -0.303043 
81.2973 -66.9836 -0.30281 
81.3812 -67.0094 -0.302577 
81.4651 -67.0353 -0.302344 
81.549 -67.0612 -0.302111 
81.6328 -67.087 -0.301879 
81.7167 -67.1129 -0.301646 
81.8006 -67.1388 -0.301413 
81.8845 -67.1647 -0.30118 
81.9683 -67.1905 -0.300947 
82.0522 -67.2164 -0.300714 
82.1361 -67.2423 -0.300481 
82.22 -67.2681 -0.300249 
82.3038 -67.294 -0.300016 
82.3877 -67.3199 -0.299783 
82.4716 -67.3458 -0.29955 
82.5555 -67.3716 -0.299317 
82.6393 -67.3975 -0.299084 
82.7232 -67.4234 -0.298851 
82.8071 -67.4493 -0.298619 
82.891 -67.4751 -0.298386 
82.9749 -67.501 -0.298153 
83.0587 -67.5269 -0.29792 
83.1426 -67.5527 -0.297687 
83.2265 -67.5786 -0.297454 
83.3104 -67.6045 -0.297221 
83.3942 -67.6304 -0.296989 
83.4781 -67.6562 -0.296756 
83.562 -67.6821 -0.296523 
83.6459 -67.708 -0.29629 
83.7297 -67.7339 -0.296057 
83.8136 -67.7597 -0.295824 
83.8975 -67.7856 -0.295592 
83.9814 -67.8115 -0.295359 
84.0652 -67.8373 -0.295126 
84.1491 -67.8632 -0.294893 
84.233 -67.8891 -0.29466 
84.3169 -67.915 -0.294427 
84.4007 -67.9408 -0.294194 
84.4846 -67.9667 -0.293962 
84.5685 -67.9926 -0.293729 
84.6524 -68.0184 -0.293496 
84.7362 -68.0443 -0.293263 
84.8201 -68.0702 -0.29303 
84.904 -68.0961 -0.292797 
84.9879 -68.1219 -0.292564 
85.0717 -68.1478 -0.292332 
85.1556 -68.1737 -0.292099 
85.2395 -68.1996 -0.291866 
85.3234 -68.2254 -0.291633 
85.4073 -68.2513 -0.2914 
85.4911 -68.2772 -0.291167 
85.5754 -68.3017 -0.290934 
85.6597 -68.3262 -0.290702 
85.744 -68.3507 -0.290469 
85.8282 -68.3753 -0.290236 
85.9125 -68.3998 -0.290003 
85.9968 -68.4243 -0.28977 
86.0811 -68.4488 -0.289537 
86.1654 -68.4733 -0.289304 
86.2497 -68.4979 -0.289072 
86.3339 -68.5224 -0.288839 
86.4182 -68.5469 -0.288606 
86.5025 -68.5714 -0.288373 
86.5868 -68.596 -0.28814 
86.6711 -68.6205 -0.287907 
86.7553 -68.645 -0.287674 
86.8396 -68.6695 -0.287442 
86.9239 -68.694 -0.287209 
87.0082 -68.7186 -0.286976 
87.0925 -68.7431 -0.286743 
87.1767 -68.7676 -0.28651 
87.261 -68.7921 -0.286277 
87.3453 -68.8166 -0.286044 
87.4296 -68.8412 -0.285812 
87.5139 -68.8657 -0.285579 
87.5981 -68.8902 -0.285346 
87.6824 -68.9147 -0.285113 
87.7667 -68.9393 -0.28488 
87.851 -68.9638 -0.284647 
87.9353 -68.9883 -0.284415 
88.0195 -69.0128 -0.284182 
88.1038 -69.0373 -0.283949 
88.1881 -69.0619 -0.283716 
88.2724 -69.0864 -0.283483 
88.3567 -69.1109 -0.28325 
88.4409 -69.1354 -0.283017 
88.5252 -69.1599 -0.282785 
88.6095 -69.1845 -0.282552 
88.6938 -69.209 -0.282319 
88.7781 -69.2335 -0.282086 
88.8624 -69.258 -0.281853 
88.9466 -69.2826 -0.28162 
89.0309 -69.3071 -0.281387 
89.1152 -69.3316 -0.281155 
89.1995 -69.3561 -0.280922 
89.2838 -69.3806 -0.280689 
89.368 -69.4052 -0.280456 
89.4523 -69.4297 -0.280223 
89.5366 -69.4542 -0.27999 
89.6209 -69.4787 -0.279757 
89.7052 -69.5032 -0.279525 
89.7894 -69.5278 -0.279292 
89.8737 -69.5523 -0.279059 
89.958 -69.5768 -0.278826 
90.0423 -69.6013 -0.278593 
90.1266 -69.6259 -0.27836 
90.2108 -69.6504 -0.278127 
90.2951 -69.6749 -0.277895 
90.3794 -69.6994 -0.277662 
90.4637 -69.7239 -0.277429 
90.548 -69.7485 -0.277196 
90.6322 -69.773 -0.276963 
90.7165 -69.7975 -0.27673 
90.8008 -69.822 -0.276497 
90.8851 -69.8465 -0.276265 
90.9694 -69.8711 -0.276032 
91.0536 -69.8956 -0.275799 
91.1379 -69.9201 -0.275566 
91.2222 -69.9446 -0.275333 
91.3065 -69.9692 -0.2751 
91.3735 -69.9164 -0.270306 
91.4404 -69.8637 -0.265512 
91.5074 -69.811 -0.260718 
91.5744 -69.7582 -0.255923 
91.6414 -69.7055 -0.251129 
91.7083 -69.6528 -0.246335 
91.7753 -69.6 -0.241541 
91.8423 -69.5473 -0.236747 
91.9093 -69.4946 -0.231952 
91.9762 -69.4418 -0.227158 
92.0432 -69.3891 -0.222364 
92.1102 -69.3364 -0.21757 
92.1772 -69.2837 -0.212775 
92.2441 -69.2309 -0.207981 
92.3111 -69.1782 -0.203187 
92.3781 -69.1255 -0.198393 
92.4451 -69.0727 -0.193599 
92.512 -69.02 -0.188804 
92.579 -68.9673 -0.18401 
92.646 -68.9145 -0.179216 
92.713 -68.8618 -0.174422 
92.7799 -68.8091 -0.169627 
92.8469 -68.7563 -0.164833 
92.9139 -68.7036 -0.160039 
92.9809 -68.6509 -0.155245 
93.0478 -68.5982 -0.150451 
93.1148 -68.5454 -0.145656 
93.1818 -68.4927 -0.140862 
93.2488 -68.44 -0.136068 
93.3157 -68.3872 -0.131274 
93.3827 -68.3345 -0.126479 
93.4497 -68.2818 -0.121685 
93.5167 -68.229 -0.116891 
93.5836 -68.1763 -0.112097 
93.6506 -68.1236 -0.107303 
93.7176 -68.0708 -0.102508 
93.7846 -68.0181 -0.0977142 
93.8515 -67.9654 -0.0929199 
93.9185 -67.9127 -0.0881257 
93.9855 -67.8599 -0.0833315 
94.0525 -67.8072 -0.0785373 
94.1194 -67.7545 -0.0737431 
94.1864 -67.7017 -0.0689488 
94.2534 -67.649 -0.0641546 
94.3204 -67.5963 -0.0593604 
94.3873 -67.5435 -0.0545662 
94.4543 -67.4908 -0.049772 
94.5213 -67.4381 -0.0449777 
94.5883 -67.3853 -0.0401835 
94.6552 -67.3326 -0.0353893 
94.7222 -67.2799 -0.0305951 
94.7892 -67.2272 -0.0258009 
94.8562 -67.1744 -0.0210066 
94.9231 -67.1217 -0.0162124 
94.9901 -67.069 -0.0114182 
95.0571 -67.0162 -0.00662398 
95.124 -66.9635 -0.00182976 
95.191 -66.9108 0.00296446 
95.258 -66.858 0.00775868 
95.325 -66.8053 0.0125529 
95.3919 -66.7526 0.0173471 
95.4589 -66.6998 0.0221413 
95.5259 -66.6471 0.0269356 
95.5929 -66.5944 0.0317298 
95.6598 -66.5417 0.036524 
95.7268 -66.4889 0.0413182 
95.7938 -66.4362 0.0461124 
95.8608 -66.3835 0.0509067 
95.9277 -66.3307 0.0557009 
95.9947 -66.278 0.0604951 
96.0617 -66.2253 0.0652893 
96.1287 -66.1725 0.0700836 
96.1956 -66.1198 0.0748778 
96.2626 -66.0671 0.079672 
96.3296 -66.0143 0.0844662 
96.3966 -65.9616 0.0892604 
96.4635 -65.9089 0.0940547 
96.5305 -65.8561 0.0988489 
96.5975 -65.8034 0.103643 
96.6645 -65.7507 0.108437 
96.7314 -65.698 0.113232 
96.7984 -65.6452 0.118026 
96.8654 -65.5925 0.12282 
96.9324 -65.5398 0.127614 
96.9993 -65.487 0.132408 
97.0663 -65.4343 0.137203 
97.1333 -65.3816 0.141997 
97.2003 -65.3288 0.146791 
97.2672 -65.2761 0.151585 
97.3342 -65.2234 0.15638 
97.4012 -65.1706 0.161174 
97.4682 -65.1179 0.165968 
97.5351 -65.0652 0.170762 
97.6021 -65.0125 0.175556 
97.6691 -64.9597 0.180351 
97.7361 -64.907 0.185145 
97.803 -64.8543 0.189939 
97.87 -64.8015 0.194733 
97.937 -64.7488 0.199528 
98.004 -64.6961 0.204322 
98.0709 -64.6433 0.209116 
98.1379 -64.5906 0.21391 
98.2049 -64.5379 0.218704 
98.2719 -64.4851 0.223499 
98.3388 -64.4324 0.228293 
98.4058 -64.3797 0.233087 
98.4728 -64.327 0.237881 
98.5398 -64.2742 0.242675 
98.6067 -64.2215 0.24747 
98.6737 -64.1688 0.252264 
98.7407 -64.116 0.257058 
98.8077 -64.0633 0.261852 
98.8746 -64.0106 0.266647 
98.9416 -63.9578 0.271441 
99.0086 -63.9051 0.276235 
99.0756 -63.8524 0.281029 
99.1425 -63.7996 0.285823 
99.2095 -63.7469 0.290618 
99.2765 -63.6942 0.295412 
99.3435 -63.6415 0.300206 
99.4104 -63.5887 0.305 
99.4774 -63.536 0.309795 
99.5444 -63.4833 0.314589 
99.6114 -63.4305 0.319383 
99.6783 -63.3778 0.324177 
99.7453 -63.3251 0.328971 
99.8123 -63.2723 0.333766 
99.8793 -63.2196 0.33856 
99.9462 -63.1669 0.343354 
100.013 -63.1141 0.348148 
100.08 -63.0614 0.352943 
100.147 -63.0087 0.357737 
100.214 -62.956 0.362531 
100.281 -62.9032 0.367325 
100.348 -62.8505 0.372119 
100.415 -62.7978 0.376914 
100.482 -62.745 0.381708 
100.549 -62.6923 0.386502 
100.616 -62.6396 0.391296 
100.683 -62.5868 0.396091 
100.75 -62.5341 0.400885 
100.817 -62.4814 0.405679 
100.884 -62.4286 0.410473 
100.951 -62.3759 0.415267 
101.018 -62.3232 0.420062 
101.085 -62.2705 0.424856 
101.152 -62.2177 0.42965 
101.219 -62.165 0.434444 
101.286 -62.1123 0.439239 
101.353 -62.0595 0.444033 
101.42 -62.0068 0.448827 
101.487 -61.9541 0.453621 
101.554 -61.9013 0.458415 
101.621 -61.8486 0.46321 
101.688 -61.7959 0.468004 
101.755 -61.7431 0.472798 
101.822 -61.6904 0.477592 
101.888 -61.6377 0.482387 
101.955 -61.585 0.487181 
102.022 -61.5322 0.491975 
102.089 -61.4795 0.496769 
102.156 -61.4268 0.501563 
102.223 -61.374 0.506358 
102.29 -61.3213 0.511152 
102.357 -61.2686 0.515946 
102.424 -61.2158 0.52074 
102.491 -61.1631 0.525535 
102.558 -61.1104 0.530329 
102.625 -61.0576 0.535123 
102.692 -61.0049 0.539917 
102.759 -60.9522 0.544711 
102.826 -60.8994 0.549506 
102.893 -60.8467 0.5543 
102.96 -60.794 0.559094 
103.027 -60.7413 0.563888 
103.094 -60.6885 0.568682 
103.161 -60.6358 0.573477 
103.228 -60.5831 0.578271 
103.295 -60.5303 0.583065 
103.362 -60.4776 0.587859 
103.429 -60.4249 0.592654 
103.496 -60.3721 0.597448 
103.563 -60.3194 0.602242 
103.63 -60.2667 0.607036 
103.697 -60.2139 0.61183 
103.764 -60.1612 0.616625 
103.831 -60.1085 0.621419 
103.898 -60.0558 0.626213 
103.965 -60.003 0.631007 
104.032 -59.9503 0.635802 
104.099 -59.8976 0.640596 
104.166 -59.8448 0.64539 
104.233 -59.7921 0.650184 
104.3 -59.7394 0.654978 
104.367 -59.6866 0.659773 
104.434 -59.6339 0.664567 
104.501 -59.5812 0.669361 
104.567 -59.5284 0.674155 
104.634 -59.4757 0.67895 
104.701 -59.423 0.683744 
104.768 -59.3703 0.688538 
104.835 -59.3175 0.693332 
104.902 -59.2648 0.698126 
104.969 -59.2121 0.702921 
105.036 -59.1593 0.707715 
105.103 -59.1066 0.712509 
105.17 -59.0539 0.717303 
105.237 -59.0011 0.722098 
105.304 -58.9484 0.726892 
105.371 -58.8957 0.731686 
105.438 -58.8429 0.73648 
105.505 -58.7902 0.741274 
105.572 -58.7375 0.746069 
105.639 -58.6848 0.750863 
105.706 -58.632 0.755657 
105.773 -58.5793 0.760451 
105.84 -58.5266 0.765246 
105.907 -58.4738 0.77004 
105.974 -58.4211 0.774834 
106.041 -58.3684 0.779628 
106.108 -58.3156 0.784422 
106.175 -58.2629 0.789217 
106.242 -58.2102 0.794011 
106.309 -58.1574 0.798805 
106.376 -58.1047 0.803599 
106.443 -58.052 0.808394 
106.51 -57.9993 0.813188 
106.577 -57.9465 0.817982 
106.644 -57.8938 0.822776 
106.711 -57.8411 0.82757 
106.778 -57.7883 0.832365 
106.845 -57.7356 0.837159 
106.912 -57.6829 0.841953 
106.979 -57.6301 0.846747 
107.046 -57.5774 0.851542 
107.113 -57.5247 0.856336 
107.18 -57.4719 0.86113 
107.246 -57.4192 0.865924 
107.313 -57.3665 0.870718 
107.38 -57.3138 0.875513 
107.447 -57.261 0.880307 
107.514 -57.2083 0.885101 
107.581 -57.1556 0.889895 
107.648 -57.1028 0.894689 
107.715 -57.0501 0.899484 
107.782 -56.9974 0.904278 
107.849 -56.9446 0.909072 
107.916 -56.8919 0.913866 
107.983 -56.8392 0.918661 
108.05 -56.7864 0.923455 
108.117 -56.7337 0.928249 
108.184 -56.681 0.933043 
108.251 -56.6283 0.937837 
108.318 -56.5755 0.942632 
108.385 -56.5228 0.947426 
108.452 -56.4701 0.95222 
108.519 -56.4173 0.957014 
108.586 -56.3646 0.961809 
108.653 -56.3119 0.966603 
108.72 -56.2591 0.971397 
108.787 -56.2064 0.976191 
108.854 -56.1537 0.980985 
108.921 -56.1009 0.98578 
108.988 -56.0482 0.990574 
109.055 -55.9955 0.995368 
109.122 -55.9428 1.00016 
109.189 -55.89 1.00496 
109.256 -55.8373 1.00975 
109.323 -55.7846 1.01455 
109.39 -55.7318 1.01934 
109.457 -55.6791 1.02413 
109.524 -55.6264 1.02893 
109.591 -55.5736 1.03372 
109.658 -55.5209 1.03852 
109.725 -55.4682 1.04331 
109.792 -55.4154 1.0481 
109.858 -55.3627 1.0529 
109.925 -55.31 1.05769 
109.992 -55.2572 1.06249 
110.059 -55.2045 1.06728 
110.126 -55.1518 1.07208 
110.193 -55.0991 1.07687 
110.26 -55.0463 1.08166 
110.327 -54.9936 1.08646 
110.394 -54.9409 1.09125 
110.461 -54.8881 1.09605 
110.528 -54.8354 1.10084 
110.595 -54.7827 1.10564 
110.662 -54.7299 1.11043 
110.729 -54.6772 1.11522 
110.796 -54.6245 1.12002 
110.863 -54.5717 1.12481 
110.93 -54.519 1.12961 
110.997 -54.4663 1.1344 
111.064 -54.4136 1.13919 
111.131 -54.3608 1.14399 
111.198 -54.3081 1.14878 
111.265 -54.2554 1.15358 
111.332 -54.2026 1.15837 
111.399 -54.1499 1.16317 
111.466 -54.0972 1.16796 
111.533 -54.0444 1.17275 
111.6 -53.9917 1.17755 
111.667 -53.939 1.18234 
111.734 -53.8862 1.18714 
111.801 -53.8335 1.19193 
111.868 -53.7808 1.19673 
111.935 -53.7281 1.20152 
112.002 -53.6753 1.20631 
112.069 -53.6226 1.21111 
112.136 -53.5699 1.2159 
112.203 -53.5171 1.2207 
112.27 -53.4644 1.22549 
112.337 -53.4117 1.23028 
112.404 -53.3589 1.23508 
112.471 -53.3062 1.23987 
112.537 -53.2535 1.24467 
112.604 -53.2007 1.24946 
112.671 -53.148 1.25426 
112.738 -53.0953 1.25905 
112.805 -53.0426 1.26384 
112.872 -52.9898 1.26864 
112.939 -52.9371 1.27343 
113.006 -52.8844 1.27823 
113.073 -52.8316 1.28302 
113.14 -52.7789 1.28782 
113.207 -52.7262 1.29261 
113.274 -52.6734 1.2974 
113.341 -52.6207 1.3022 
113.408 -52.568 1.30699 
113.475 -52.5152 1.31179 
113.542 -52.4625 1.31658 
113.609 -52.4098 1.32138 
113.676 -52.3571 1.32617 
113.743 -52.3043 1.33096 
113.81 -52.2516 1.33576 
113.877 -52.1989 1.34055 
113.944 -52.1461 1.34535 
114.011 -52.0934 1.35014 
114.078 -52.0407 1.35493 
114.145 -51.9879 1.35973 
114.212 -51.9352 1.36452 
114.279 -51.8825 1.36932 
114.346 -51.8297 1.37411 
114.413 -51.777 1.37891 
114.48 -51.7243 1.3837 
114.547 -51.6716 1.38849 
114.614 -51.6188 1.39329 
114.681 -51.5661 1.39808 
114.748 -51.5134 1.40288 
114.815 -51.4606 1.40767 
114.882 -51.4079 1.41247 
114.949 -51.3552 1.41726 
115.016 -51.3024 1.42205 
115.083 -51.2497 1.42685 
115.149 -51.197 1.43164 
115.216 -51.1442 1.43644 
115.283 -51.0915 1.44123 
115.35 -51.0388 1.44602 
115.417 -50.9861 1.45082 
115.484 -50.9333 1.45561 
115.551 -50.8806 1.46041 
115.618 -50.8279 1.4652 
115.685 -50.7751 1.47 
115.752 -50.7224 1.47479 
115.819 -50.6697 1.47958 
115.886 -50.6169 1.48438 
115.953 -50.5642 1.48917 
116.02 -50.5115 1.49397 
116.087 -50.4587 1.49876 
116.154 -50.406 1.50356 
116.221 -50.3533 1.50835 
116.288 -50.3005 1.51314 
116.355 -50.2478 1.51794 
116.422 -50.1951 1.52273 
116.489 -50.1424 1.52753 
116.556 -50.0896 1.53232 
116.623 -50.0369 1.53712 
116.69 -49.9842 1.54191 
116.757 -49.9314 1.5467 
116.824 -49.8787 1.5515 
116.891 -49.826 1.55629 
116.958 -49.7732 1.56109 
117.025 -49.7205 1.56588 
117.092 -49.6678 1.57067 
117.159 -49.615 1.57547 
117.226 -49.5623 1.58026 
117.293 -49.5096 1.58506 
117.36 -49.4569 1.58985 
117.427 -49.4041 1.59465 
117.494 -49.3514 1.59944 
117.561 -49.2987 1.60423 
117.628 -49.2459 1.60903 
117.557 -49.1985 1.61382 
117.486 -49.151 1.61862 
117.415 -49.1036 1.62341 
117.344 -49.0561 1.62821 
117.274 -49.0086 1.633 
117.203 -48.9612 1.63779 
117.132 -48.9137 1.64259 
117.061 -48.8662 1.64738 
116.99 -48.8188 1.65218 
116.919 -48.7713 1.65697 
116.849 -48.7239 1.66176 
116.778 -48.6764 1.66656 
116.707 -48.6289 1.67135 
116.636 -48.5815 1.67615 
116.565 -48.534 1.68094 
116.495 -48.4866 1.68574 
116.424 -48.4391 1.69053 
116.353 -48.3916 1.69532 
116.282 -48.3442 1.70012 
116.211 -48.2967 1.70491 
116.141 -48.2493 1.70971 
116.07 -48.2018 1.7145 
115.999 -48.1543 1.7193 
115.928 -48.1069 1.72409 
115.857 -48.0594 1.72888 
115.787 -48.012 1.73368 
115.716 -47.9645 1.73847 
115.645 -47.917 1.74327 
115.574 -47.8696 1.74806 
115.503 -47.8221 1.75285 
115.433 -47.7747 1.75765 
115.362 -47.7272 1.76244 
115.291 -47.6797 1.76724 
115.22 -47.6323 1.77203 
115.149 -47.5848 1.77683 
115.079 -47.5374 1.78162 
115.008 -47.4899 1.78641 
114.937 -47.4424 1.79121 
114.866 -47.395 1.796 
114.795 -47.3475 1.8008 
114.724 -47.3 1.80559 
114.654 -47.2526 1.81039 
114.583 -47.2051 1.81518 
114.512 -47.1577 1.81997 
114.441 -47.1102 1.82477 
114.37 -47.0627 1.82956 
114.3 -47.0153 1.83436 
114.229 -46.9678 1.83915 
114.158 -46.9204 1.84395 
114.087 -46.8729 1.84874 
114.016 -46.8254 1.85353 
113.946 -46.778 1.85833 
113.875 -46.7305 1.86312 
113.804 -46.6831 1.86792 
113.733 -46.6356 1.87271 
113.662 -46.5881 1.8775 
113.592 -46.5407 1.8823 
113.521 -46.4932 1.88709 
113.45 -46.4458 1.89189 
113.379 -46.3983 1.89668 
113.308 -46.3508 1.90148 
113.238 -46.3034 1.90627 
113.167 -46.2559 1.91106 
113.096 -46.2085 1.91586 
113.025 -46.161 1.92065 
112.954 -46.1135 1.92545 
112.883 -46.0661 1.93024 
112.813 -46.0186 1.93504 
112.742 -45.9712 1.93983 
112.671 -45.9237 1.94462 
112.6 -45.8762 1.94942 
112.529 -45.8288 1.95421 
112.459 -45.7813 1.95901 
112.388 -45.7338 1.9638 
112.317 -45.6864 1.96859 
112.246 -45.6389 1.97339 
112.175 -45.5915 1.97818 
112.105 -45.544 1.98298 
112.034 -45.4965 1.98777 
111.963 -45.4491 1.99257 
111.892 -45.4016 1.99736 
111.821 -45.3542 2.00215 
111.751 -45.3067 2.00695 
111.68 -45.2592 2.01174 
111.609 -45.2118 2.01654 
111.538 -45.1643 2.02133 
111.467 -45.1169 2.02613 
111.397 -45.0694 2.03092 
111.326 -45.0219 2.03571 
111.255 -44.9745 2.04051 
111.184 -44.927 2.0453 
111.113 -44.8796 2.0501 
111.042 -44.8321 2.05489 
110.972 -44.7846 2.05969 
110.901 -44.7372 2.06448 
110.83 -44.6897 2.06927 
110.759 -44.6423 2.07407 
110.688 -44.5948 2.07886 
110.618 -44.5473 2.08366 
110.547 -44.4999 2.08845 
110.476 -44.4524 2.09324 
110.405 -44.405 2.09804 
110.334 -44.3575 2.10283 
110.264 -44.31 2.10763 
110.193 -44.2626 2.11242 
110.122 -44.2151 2.11722 
110.051 -44.1676 2.12201 
109.98 -44.1202 2.1268 
109.91 -44.0727 2.1316 
109.839 -44.0253 2.13639 
109.768 -43.9778 2.14119 
109.697 -43.9303 2.14598 
109.626 -43.8829 2.15078 
109.556 -43.8354 2.15557 
109.485 -43.788 2.16036 
109.414 -43.7405 2.16516 
109.343 -43.693 2.16995 
109.272 -43.6456 2.17475 
109.202 -43.5981 2.17954 
109.131 -43.5507 2.18433 
109.06 -43.5032 2.18913 
108.989 -43.4557 2.19392 
108.918 -43.4083 2.19872 
108.847 -43.3608 2.20351 
108.777 -43.3134 2.20831 
108.706 -43.2659 2.2131 
108.635 -43.2184 2.21789 
108.564 -43.171 2.22269 
108.493 -43.1235 2.22748 
108.423 -43.0761 2.23228 
108.352 -43.0286 2.23707 
108.281 -42.9811 2.24187 
108.21 -42.9337 2.24666 
108.139 -42.8862 2.25145 
108.069 -42.8388 2.25625 
107.998 -42.7913 2.26104 
107.927 -42.7438 2.26584 
107.856 -42.6964 2.27063 
107.785 -42.6489 2.27543 
107.715 -42.6014 2.28022 
107.644 -42.554 2.28501 
107.573 -42.5065 2.28981 
107.502 -42.4591 2.2946 
107.431 -42.4116 2.2994 
107.361 -42.3641 2.30419 
107.29 -42.3167 2.30898 
107.219 -42.2692 2.31378 
107.148 -42.2218 2.31857 
107.077 -42.1743 2.32337 
107.006 -42.1268 2.32816 
106.936 -42.0794 2.33296 
106.865 -42.0319 2.33775 
106.794 -41.9845 2.34254 
106.723 -41.937 2.34734 
106.652 -41.8895 2.35213 
106.582 -41.8421 2.35693 
106.511 -41.7946 2.36172 
106.44 -41.7472 2.36652 
106.369 -41.6997 2.37131 
106.298 -41.6522 2.3761 
106.228 -41.6048 2.3809 
106.157 -41.5573 2.38569 
106.086 -41.5099 2.39049 
106.015 -41.4624 2.39528 
105.944 -41.4149 2.40007 
105.874 -41.3675 2.40487 
105.803 -41.32 2.40966 
105.732 -41.2726 2.41446 
105.661 -41.2251 2.41925 
105.59 -41.1776 2.42405 
105.52 -41.1302 2.42884 
105.449 -41.0827 2.43363 
105.378 -41.0353 2.43843 
105.307 -40.9878 2.44322 
105.236 -40.9403 2.44802 
105.166 -40.8929 2.45281 
105.095 -40.8454 2.45761 
105.024 -40.7979 2.4624 
104.953 -40.7505 2.46719 
104.882 -40.703 2.47199 
104.811 -40.6556 2.47678 
104.741 -40.6081 2.48158 
104.67 -40.5606 2.48637 
104.599 -40.5132 2.49116 
104.528 -40.4657 2.49596 
104.457 -40.4183 2.50075 
104.387 -40.3708 2.50555 
104.316 -40.3233 2.51034 
104.245 -40.2759 2.51514 
104.174 -40.2284 2.51993 
104.103 -40.181 2.52472 
104.033 -40.1335 2.52952 
103.962 -40.086 2.53431 
103.891 -40.0386 2.53911 
103.82 -39.9911 2.5439 
103.749 -39.9437 2.5487 
103.679 -39.8962 2.55349 
103.608 -39.8487 2.55828 
103.537 -39.8013 2.56308 
103.466 -39.7538 2.56787 
103.395 -39.7064 2.57267 
103.325 -39.6589 2.57746 
103.254 -39.6114 2.58226 
103.183 -39.564 2.58705 
103.112 -39.5165 2.59184 
103.041 -39.4691 2.59664 
102.97 -39.4216 2.60143 
102.9 -39.3741 2.60623 
102.829 -39.3267 2.61102 
102.758 -39.2792 2.61581 
102.687 -39.2317 2.62061 
102.616 -39.1843 2.6254 
102.546 -39.1368 2.6302 
102.475 -39.0894 2.63499 
102.404 -39.0419 2.63979 
102.333 -38.9944 2.64458 
102.262 -38.947 2.64937 
102.192 -38.8995 2.65417 
102.121 -38.8521 2.65896 
102.05 -38.8046 2.66376 
101.979 -38.7571 2.66855 
101.908 -38.7097 2.67335 
101.838 -38.6622 2.67814 
101.767 -38.6148 2.68293 
101.696 -38.5673 2.68773 
101.625 -38.5198 2.69252 
101.554 -38.4724 2.69732 
101.484 -38.4249 2.70211 
101.413 -38.3775 2.7069 
101.342 -38.33 2.7117 
101.271 -38.2825 2.71649 
101.2 -38.2351 2.72129 
101.13 -38.1876 2.72608 
101.059 -38.1402 2.73088 
100.988 -38.0927 2.73567 
100.917 -38.0452 2.74046 
100.846 -37.9978 2.74526 
100.775 -37.9503 2.75005 
100.705 -37.9029 2.75485 
100.634 -37.8554 2.75964 
100.563 -37.8079 2.76444 
100.492 -37.7605 2.76923 
100.421 -37.713 2.77402 
100.351 -37.6655 2.77882 
100.28 -37.6181 2.78361 
100.209 -37.5706 2.78841 
100.138 -37.5232 2.7932 
100.067 -37.4757 2.798 
99.9966 -37.4282 2.80279 
99.9258 -37.3808 2.80758 
99.855 -37.3333 2.81238 
99.7842 -37.2859 2.81717 
99.7134 -37.2384 2.82197 
99.6426 -37.1909 2.82676 
99.5717 -37.1435 2.83155 
99.5009 -37.096 2.83635 
99.4301 -37.0486 2.84114 
99.3593 -37.0011 2.84594 
99.2885 -36.9536 2.85073 
99.2177 -36.9062 2.85553 
99.1469 -36.8587 2.86032 
99.0761 -36.8113 2.86511 
99.0053 -36.7638 2.86991 
98.9345 -36.7163 2.8747 
98.8637 -36.6689 2.8795 
98.7929 -36.6214 2.88429 
98.7221 -36.574 2.88909 
98.6513 -36.5265 2.89388 
98.5804 -36.479 2.89867 
98.5096 -36.4316 2.90347 
98.4388 -36.3841 2.90826 
98.368 -36.3367 2.91306 
98.2972 -36.2892 2.91785 
98.2264 -36.2417 2.92264 
98.1556 -36.1943 2.92744 
98.0848 -36.1468 2.93223 
98.014 -36.0993 2.93703 
97.9432 -36.0519 2.94182 
97.8724 -36.0044 2.94662 
97.8016 -35.957 2.95141 
97.7308 -35.9095 2.9562 
97.66 -35.862 2.961 
97.5891 -35.8146 2.96579 
97.5183 -35.7671 2.97059 
97.4475 -35.7197 2.97538 
97.3767 -35.6722 2.98018 
97.3059 -35.6247 2.98497 
97.2351 -35.5773 2.98976 
97.1643 -35.5298 2.99456 
97.0935 -35.4824 2.99935 
97.0227 -35.4349 3.00415 
96.9519 -35.3874 3.00894 
96.8811 -35.34 3.01374 
96.8103 -35.2925 3.01853 
96.7395 -35.2451 3.02332 
96.6687 -35.1976 3.02812 
96.5978 -35.1501 3.03291 
96.527 -35.1027 3.03771 
96.4562 -35.0552 3.0425 
96.3854 -35.0078 3.04729 
96.3146 -34.9603 3.05209 
96.2438 -34.9128 3.05688 
96.173 -34.8654 3.06168 
96.1022 -34.8179 3.06647 
96.0314 -34.7705 3.07127 
95.9606 -34.723 3.07606 
95.8898 -34.6755 3.08085 
95.819 -34.6281 3.08565 
95.7482 -34.5806 3.09044 
95.6774 -34.5331 3.09524 
95.6065 -34.4857 3.10003 
95.5357 -34.4382 3.10483 
95.4649 -34.3908 3.10962 
95.3941 -34.3433 3.11441 
95.3233 -34.2958 3.11921 
95.2525 -34.2484 3.124 
95.1817 -34.2009 3.1288 
95.1109 -34.1535 3.13359 
95.0401 -34.106 3.13838 
94.9693 -34.0585 -3.14001 
94.8985 -34.0111 -3.13521 
94.8277 -33.9636 -3.13042 
94.7569 -33.9162 -3.12562 
94.6861 -33.8687 -3.12083 
94.6152 -33.8212 -3.11604 
94.5444 -33.7738 -3.11124 
94.4736 -33.7263 -3.10645 
94.4028 -33.6789 -3.10165 
94.332 -33.6314 -3.09686 
94.2612 -33.5839 -3.09206 
94.1904 -33.5365 -3.08727 
94.1196 -33.489 -3.08248 
94.0488 -33.4416 -3.07768 
93.978 -33.3941 -3.07289 
93.9072 -33.3466 -3.06809 
93.8364 -33.2992 -3.0633 
93.7656 -33.2517 -3.0585 
93.6948 -33.2043 -3.05371 
93.6239 -33.1568 -3.04892 
93.5531 -33.1093 -3.04412 
93.4823 -33.0619 -3.03933 
93.4115 -33.0144 -3.03453 
93.3407 -32.9669 -3.02974 
93.2699 -32.9195 -3.02495 
93.1991 -32.872 -3.02015 
93.1283 -32.8246 -3.01536 
93.0575 -32.7771 -3.01056 
92.9867 -32.7296 -3.00577 
92.9159 -32.6822 -3.00097 
92.8451 -32.6347 -2.99618 
92.7743 -32.5873 -2.99139 
92.7035 -32.5398 -2.98659 
92.6326 -32.4923 -2.9818 
92.5618 -32.4449 -2.977 
92.491 -32.3974 -2.97221 
92.4202 -32.35 -2.96741 
92.3494 -32.3025 -2.96262 
92.2786 -32.255 -2.95783 
92.2078 -32.2076 -2.95303 
92.137 -32.1601 -2.94824 
92.0662 -32.1127 -2.94344 
91.9954 -32.0652 -2.93865 
91.9246 -32.0177 -2.93385 
91.8538 -31.9703 -2.92906 
91.783 -31.9228 -2.92427 
91.7122 -31.8754 -2.91947 
91.6413 -31.8279 -2.91468 
91.5705 -31.7804 -2.90988 
91.4997 -31.733 -2.90509 
91.4289 -31.6855 -2.9003 
91.3581 -31.6381 -2.8955 
91.2873 -31.5906 -2.89071 
91.2165 -31.5431 -2.88591 
91.1457 -31.4957 -2.88112 
91.0749 -31.4482 -2.87632 
91.0041 -31.4007 -2.87153 
90.9333 -31.3533 -2.86674 
90.8625 -31.3058 -2.86194 
90.7917 -31.2584 -2.85715 
90.7209 -31.2109 -2.85235 
90.65 -31.1634 -2.84756 
90.5792 -31.116 -2.84276 
90.5084 -31.0685 -2.83797 
90.4376 -31.0211 -2.83318 
90.3668 -30.9736 -2.82838 
90.296 -30.9261 -2.82359 
90.2252 -30.8787 -2.81879 
90.1544 -30.8312 -2.814 
90.0836 -30.7838 -2.80921 
90.0128 -30.7363 -2.80441 
89.942 -30.6888 -2.79962 
89.8712 -30.6414 -2.79482 
89.8004 -30.5939 -2.79003 
89.777 -30.6759 -2.78523 
89.7537 -30.7579 -2.78044 
89.7304 -30.8399 -2.77565 
89.7071 -30.9219 -2.77085 
89.6837 -31.0039 -2.76606 
89.6604 -31.0859 -2.76126 
89.6371 -31.1678 -2.75647 
89.6138 -31.2498 -2.75167 
89.5904 -31.3318 -2.74688 
89.5671 -31.4138 -2.74209 
89.5438 -31.4958 -2.73729 
89.5205 -31.5778 -2.7325 
89.4971 -31.6598 -2.7277 
89.4738 -31.7418 -2.72291 
89.4505 -31.8237 -2.71811 
89.4272 -31.9057 -2.71332 
89.4038 -31.9877 -2.70853 
89.3805 -32.0697 -2.70373 
89.3572 -32.1517 -2.69894 
89.3339 -32.2337 -2.69414 
89.3105 -32.3157 -2.68935 
89.2872 -32.3977 -2.68456 
89.2639 -32.4797 -2.67976 
89.2406 -32.5616 -2.67497 
89.2172 -32.6436 -2.67017 
89.1939 -32.7256 -2.66538 
89.1706 -32.8076 -2.66058 
89.1473 -32.8896 -2.65579 
89.1239 -32.9716 -2.651 
89.1006 -33.0536 -2.6462 
89.0773 -33.1356 -2.64141 
89.054 -33.2175 -2.63661 
89.0306 -33.2995 -2.63182 
89.0073 -33.3815 -2.62702 
88.984 -33.4635 -2.62223 
88.9607 -33.5455 -2.61744 
88.9373 -33.6275 -2.61264 
88.914 -33.7095 -2.60785 
88.8907 -33.7915 -2.60305 
88.8674 -33.8735 -2.59826 
88.844 -33.9554 -2.59347 
88.8207 -34.0374 -2.58867 
88.7974 -34.1194 -2.58388 
88.7741 -34.2014 -2.57908 
88.7507 -34.2834 -2.57429 
88.7274 -34.3654 -2.56949 
88.7041 -34.4474 -2.5647 
88.6808 -34.5294 -2.55991 
88.6574 -34.6114 -2.55511 
88.6341 -34.6933 -2.55032 
88.6108 -34.7753 -2.54552 
88.5875 -34.8573 -2.54073 
88.5641 -34.9393 -2.53593 
88.5408 -35.0213 -2.53114 
88.5175 -35.1033 -2.52635 
88.4942 -35.1853 -2.52155 
88.4708 -35.2673 -2.51676 
88.4475 -35.3492 -2.51196 
88.4242 -35.4312 -2.50717 
88.4009 -35.5132 -2.50237 
88.3775 -35.5952 -2.49758 
88.3542 -35.6772 -2.49279 
88.3309 -35.7592 -2.48799 
88.3076 -35.8412 -2.4832 
88.2842 -35.9232 -2.4784 
88.2609 -36.0052 -2.47361 
88.2376 -36.0871 -2.46882 
88.2143 -36.1691 -2.46402 
88.1909 -36.2511 -2.45923 
88.1676 -36.3331 -2.45443 
88.1443 -36.4151 -2.44964 
88.121 -36.4971 -2.44484 
88.0976 -36.5791 -2.44005 
88.0743 -36.6611 -2.43526 
88.051 -36.7431 -2.43046 
88.0277 -36.825 -2.42567 
88.0043 -36.907 -2.42087 
87.981 -36.989 -2.41608 
87.9577 -37.071 -2.41128 
87.9344 -37.153 -2.40649 
87.911 -37.235 -2.4017 
87.8877 -37.317 -2.3969 
87.8644 -37.399 -2.39211 
87.8411 -37.4809 -2.38731 
87.8177 -37.5629 -2.38252 
87.7944 -37.6449 -2.37773 
87.7711 -37.7269 -2.37293 
87.7478 -37.8089 -2.36814 
87.7244 -37.8909 -2.36334 
87.7011 -37.9729 -2.35855 
87.6778 -38.0549 -2.35375 
87.6545 -38.1369 -2.34896 
87.6311 -38.2188 -2.34417 
87.6078 -38.3008 -2.33937 
87.5845 -38.3828 -2.33458 
87.5612 -38.4648 -2.32978 
87.5378 -38.5468 -2.32499 
87.5145 -38.6288 -2.32019 
87.4912 -38.7108 -2.3154 
87.4679 -38.7928 -2.31061 
87.4445 -38.8748 -2.30581 
87.4212 -38.9567 -2.30102 
87.3979 -39.0387 -2.29622 
87.3746 -39.1207 -2.29143 
87.3512 -39.2027 -2.28664 
87.3279 -39.2847 -2.28184 
87.3046 -39.3667 -2.27705 
87.2813 -39.4487 -2.27225 
87.2579 -39.5307 -2.26746 
87.2346 -39.6126 -2.26266 
87.2113 -39.6946 -2.25787 
87.188 -39.7766 -2.25308 
87.1646 -39.8586 -2.24828 
87.1413 -39.9406 -2.24349 
87.118 -40.0226 -2.23869 
87.0947 -40.1046 -2.2339 
87.0713 -40.1866 -2.2291 
87.048 -40.2686 -2.22431 
87.0247 -40.3505 -2.21952 
87.0014 -40.4325 -2.21472 
86.978 -40.5145 -2.20993 
86.9547 -40.5965 -2.20513 
86.9314 -40.6785 -2.20034 
86.9081 -40.7605 -2.19554 
86.8847 -40.8425 -2.19075 
86.8614 -40.9245 -2.18596 
86.8381 -41.0065 -2.18116 
86.8148 -41.0884 -2.17637 
86.7914 -41.1704 -2.17157 
86.7681 -41.2524 -2.16678 
86.7448 -41.3344 -2.16199 
86.7215 -41.4164 -2.15719 
86.6981 -41.4984 -2.1524 
86.6748 -41.5804 -2.1476 
86.6515 -41.6624 -2.14281 
86.6282 -41.7443 -2.13801 
86.6048 -41.8263 -2.13322 
86.5815 -41.9083 -2.12843 
86.5582 -41.9903 -2.12363 
86.5349 -42.0723 -2.11884 
86.5115 -42.1543 -2.11404 
86.4882 -42.2363 -2.10925 
86.4649 -42.3183 -2.10445 
86.4416 -42.4003 -2.09966 
86.4182 -42.4822 -2.09487 
86.3949 -42.5642 -2.09007 
86.3716 -42.6462 -2.08528 
86.3483 -42.7282 -2.08048 
86.3249 -42.8102 -2.07569 
86.3016 -42.8922 -2.0709 
86.2783 -42.9742 -2.0661 
86.255 -43.0562 -2.06131 
86.2316 -43.1382 -2.05651 
86.2083 -43.2201 -2.05172 
86.185 -43.3021 -2.04692 
86.1617 -43.3841 -2.04213 
86.1384 -43.4661 -2.03734 
86.115 -43.5481 -2.03254 
86.0917 -43.6301 -2.02775 
86.0684 -43.7121 -2.02295 
86.0451 -43.7941 -2.01816 
86.0217 -43.876 -2.01336 
85.9984 -43.958 -2.00857 
85.9751 -44.04 -2.00378 
85.9518 -44.122 -1.99898 
85.9284 -44.204 -1.99419 
85.9051 -44.286 -1.98939 
85.8818 -44.368 -1.9846 
85.8585 -44.45 -1.9798 
85.8351 -44.532 -1.97501 
85.8118 -44.6139 -1.97022 
85.7885 -44.6959 -1.96542 
85.7652 -44.7779 -1.96063 
85.7418 -44.8599 -1.95583 
85.7185 -44.9419 -1.95104 
85.6952 -45.0239 -1.94625 
85.6719 -45.1059 -1.94145 
85.6485 -45.1879 -1.93666 
85.6252 -45.2699 -1.93186 
85.6019 -45.3518 -1.92707 
85.5786 -45.4338 -1.92227 
85.5552 -45.5158 -1.91748 
85.5319 -45.5978 -1.91269 
85.5086 -45.6798 -1.90789 
85.4853 -45.7618 -1.9031 
85.4619 -45.8438 -1.8983 
85.4386 -45.9258 -1.89351 
85.4153 -46.0077 -1.88871 
85.392 -46.0897 -1.88392 
85.3686 -46.1717 -1.87913 
85.3453 -46.2537 -1.87433 
85.322 -46.3357 -1.86954 
85.2987 -46.4177 -1.86474 
85.2753 -46.4997 -1.85995 
85.252 -46.5817 -1.85516 
85.2287 -46.6637 -1.85036 
85.2054 -46.7456 -1.84557 
85.182 -46.8276 -1.84077 
85.1587 -46.9096 -1.83598 
85.1354 -46.9916 -1.83118 
85.1121 -47.0736 -1.82639 
85.0887 -47.1556 -1.8216 
85.0654 -47.2376 -1.8168 
85.0421 -47.3196 -1.81201 
85.0188 -47.4016 -1.80721 
84.9954 -47.4835 -1.80242 
84.9721 -47.5655 -1.79762 
84.9488 -47.6475 -1.79283 
84.9255 -47.7295 -1.78804 
84.9021 -47.8115 -1.78324 
84.8788 -47.8935 -1.77845 
84.8555 -47.9755 -1.77365 
84.8322 -48.0575 -1.76886 
84.8088 -48.1394 -1.76407 
84.7855 -48.2214 -1.75927 
84.7622 -48.3034 -1.75448 
84.7389 -48.3854 -1.74968 
84.7155 -48.4674 -1.74489 
84.6922 -48.5494 -1.74009 
84.6689 -48.6314 -1.7353 
84.6456 -48.7134 -1.73051 
84.6222 -48.7954 -1.72571 
84.5989 -48.8773 -1.72092 
84.5756 -48.9593 -1.71612 
84.5523 -49.0413 -1.71133 
84.5289 -49.1233 -1.70653 
84.5056 -49.2053 -1.70174 
84.4823 -49.2873 -1.69695 
84.459 -49.3693 -1.69215 
84.4356 -49.4513 -1.68736 
84.4123 -49.5333 -1.68256 
84.389 -49.6152 -1.67777 
84.3657 -49.6972 -1.67297 
84.3423 -49.7792 -1.66818 
84.319 -49.8612 -1.66339 
84.2957 -49.9432 -1.65859 
84.2724 -50.0252 -1.6538 
84.249 -50.1072 -1.649 
84.2257 -50.1892 -1.64421 
84.2024 -50.2711 -1.63942 
84.1791 -50.3531 -1.63462 
84.1557 -50.4351 -1.62983 
84.1324 -50.5171 -1.62503 
84.1091 -50.5991 -1.62024 
84.0858 -50.6811 -1.61544 
84.0624 -50.7631 -1.61065 
84.0391 -50.8451 -1.60586 
84.0158 -50.9271 -1.60106 
83.9925 -51.009 -1.59627 
83.9691 -51.091 -1.59147 
83.9458 -51.173 -1.58668 
83.9225 -51.255 -1.58188 
83.8992 -51.337 -1.57709 
83.8758 -51.419 -1.5723 
83.8525 -51.501 -1.5675 
83.8292 -51.583 -1.56271 
83.8059 -51.665 -1.55791 
83.7825 -51.7469 -1.55312 
83.7592 -51.8289 -1.54833 
83.7359 -51.9109 -1.54353 
83.7126 -51.9929 -1.53874 
83.6892 -52.0749 -1.53394 
83.6659 -52.1569 -1.52915 
83.6426 -52.2389 -1.52435 
83.6193 -52.3209 -1.51956 
83.5959 -52.4028 -1.51477 
83.5726 -52.4848 -1.50997 
83.5493 -52.5668 -1.50518 
83.526 -52.6488 -1.50038 
83.5026 -52.7308 -1.49559 
83.4793 -52.8128 -1.49079 
83.456 -52.8948 -1.486 
83.4327 -52.9768 -1.48121 
83.4093 -53.0588 -1.47641 
83.386 -53.1407 -1.47162 
83.3627 -53.2227 -1.46682 
83.3394 -53.3047 -1.46203 
83.316 -53.3867 -1.45723 
83.2927 -53.4687 -1.45244 
83.2694 -53.5507 -1.44765 
83.2461 -53.6327 -1.44285 
83.2227 -53.7147 -1.43806 
83.1994 -53.7967 -1.43326 
83.1761 -53.8786 -1.42847 
83.1528 -53.9606 -1.42368 
83.1294 -54.0426 -1.41888 
83.1061 -54.1246 -1.41409 
83.0828 -54.2066 -1.40929 
83.0595 -54.2886 -1.4045 
83.0361 -54.3706 -1.3997 
83.0128 -54.4526 -1.39491 
82.9895 -54.5345 -1.39012 
82.9662 -54.6165 -1.38532 
82.9428 -54.6985 -1.38053 
82.9195 -54.7805 -1.37573 
82.8962 -54.8625 -1.37094 
82.8729 -54.9445 -1.36614 
82.8495 -55.0265 -1.36135 
82.8262 -55.1085 -1.35656 
82.8029 -55.1905 -1.35176 
82.7796 -55.2724 -1.34697 
82.7562 -55.3544 -1.34217 
82.7329 -55.4364 -1.33738 
82.7096 -55.5184 -1.33259 
82.6863 -55.6004 -1.32779 
82.6629 -55.6824 -1.323 
82.6396 -55.7644 -1.3182 
82.6163 -55.8464 -1.31341 
82.593 -55.9283 -1.30861 
82.5696 -56.0103 -1.30382 
82.5463 -56.0923 -1.29903 
82.523 -56.1743 -1.29423 
82.4997 -56.2563 -1.28944 
82.4763 -56.3383 -1.28464 
82.453 -56.4203 -1.27985 
82.4297 -56.5023 -1.27505 
82.4064 -56.5843 -1.27026 
82.383 -56.6662 -1.26547 
82.3597 -56.7482 -1.26067 
82.3364 -56.8302 -1.25588 
82.3131 -56.9122 -1.25108 
82.2897 -56.9942 -1.24629 
82.2664 -57.0762 -1.24149 
82.2431 -57.1582 -1.2367 
82.2198 -57.2402 -1.23191 
82.1964 -57.3222 -1.22711 
82.1731 -57.4041 -1.22232 
82.1498 -57.4861 -1.21752 
82.1265 -57.5681 -1.21273 
82.1031 -57.6501 -1.20794 
82.0798 -57.7321 -1.20314 
82.0565 -57.8141 -1.19835 
82.0332 -57.8961 -1.19355 
82.0098 -57.9781 -1.18876 
81.9865 -58.06 -1.18396 
81.9632 -58.142 -1.17917 
81.9399 -58.224 -1.17438 
81.9165 -58.306 -1.16958 
81.8932 -58.388 -1.16479 
81.8699 -58.47 -1.15999 
81.8466 -58.552 -1.1552 
81.8232 -58.634 -1.1504 
81.7999 -58.716 -1.14561 
81.7766 -58.7979 -1.14082 
81.7533 -58.8799 -1.13602 
81.7299 -58.9619 -1.13123 
81.7066 -59.0439 -1.12643 
81.6833 -59.1259 -1.12164 
81.66 -59.2079 -1.11685 
81.6366 -59.2899 -1.11205 
81.6133 -59.3719 -1.10726 
81.59 -59.4539 -1.10246 
81.5667 -59.5358 -1.09767 
81.5433 -59.6178 -1.09287 
81.52 -59.6998 -1.08808 
81.4967 -59.7818 -1.08329 
81.4734 -59.8638 -1.07849 
81.45 -59.9458 -1.0737 
81.4267 -60.0278 -1.0689 
81.4034 -60.1098 -1.06411 
81.3801 -60.1917 -1.05931 
81.3567 -60.2737 -1.05452 
81.3334 -60.3557 -1.04973 
81.3101 -60.4377 -1.04493 
81.2868 -60.5197 -1.04014 
81.2634 -60.6017 -1.03534 
81.2401 -60.6837 -1.03055 
81.2168 -60.7657 -1.02576 
81.1935 -60.8477 -1.02096 
81.1701 -60.9296 -1.01617 
81.1468 -61.0116 -1.01137 
81.1235 -61.0936 -1.00658 
81.1002 -61.1756 -1.00178 
81.0768 -61.2576 -0.99699 
81.0535 -61.3396 -0.992195 
81.0302 -61.4216 -0.987401 
81.0069 -61.5036 -0.982607 
80.9835 -61.5856 -0.977813 
80.9602 -61.6675 -0.973019 
80.9369 -61.7495 -0.968224 
80.9136 -61.8315 -0.96343 
80.8902 -61.9135 -0.958636 
80.8669 -61.9955 -0.953842 
80.8436 -62.0775 -0.949048 
80.8203 -62.1595 -0.944253 
80.7969 -62.2415 -0.939459 
80.7736 -62.3234 -0.934665 
80.7503 -62.4054 -0.929871 
80.727 -62.4874 -0.925076 
80.7036 -62.5694 -0.920282 
80.6803 -62.6514 -0.915488 
80.657 -62.7334 -0.910694 
80.6337 -62.8154 -0.9059 
80.7189 -62.8123 -0.901105 
80.804 -62.8092 -0.896311 
80.8892 -62.8061 -0.891517 
80.9744 -62.8031 -0.886723 
81.0596 -62.8 -0.881928 
81.1448 -62.7969 -0.877134 
81.23 -62.7938 -0.87234 
81.3152 -62.7907 -0.867546 
81.4003 -62.7876 -0.862752 
81.4855 -62.7846 -0.857957 
81.5707 -62.7815 -0.853163 
81.6559 -62.7784 -0.848369 
81.7411 -62.7753 -0.843575 
81.8263 -62.7722 -0.83878 
81.9115 -62.7691 -0.833986 
81.9966 -62.7661 -0.829192 
82.0818 -62.763 -0.824398 
82.167 -62.7599 -0.819604 
82.2522 -62.7568 -0.814809 
82.3374 -62.7537 -0.810015 
82.4226 -62.7507 -0.805221 
82.5078 -62.7476 -0.800427 
82.593 -62.7445 -0.795632 
82.6781 -62.7414 -0.790838 
82.7633 -62.7383 -0.786044 
82.8485 -62.7352 -0.78125 
82.9337 -62.7322 -0.776456 
83.0189 -62.7291 -0.771661 
83.1041 -62.726 -0.766867 
83.1893 -62.7229 -0.762073 
83.2744 -62.7198 -0.757279 
83.3596 -62.7168 -0.752484 
83.4448 -62.7137 -0.74769 
83.53 -62.7106 -0.742896 
83.6152 -62.7075 -0.738102 
83.7004 -62.7044 -0.733308 
83.7856 -62.7013 -0.728513 
83.8707 -62.6983 -0.723719 
83.9559 -62.6952 -0.718925 
84.0411 -62.6921 -0.714131 
84.1263 -62.689 -0.709336 
84.2115 -62.6859 -0.704542 
84.2967 -62.6828 -0.699748 
84.3819 -62.6798 -0.694954 
84.467 -62.6767 -0.69016 
84.5522 -62.6736 -0.685365 
84.6374 -62.6705 -0.680571 
84.7226 -62.6674 -0.675777 
84.8078 -62.6644 -0.670983 
84.893 -62.6613 -0.666188 
84.9782 -62.6582 -0.661394 
85.0633 -62.6551 -0.6566 
85.1485 -62.652 -0.651806 
85.2337 -62.6489 -0.647012 
85.3189 -62.6459 -0.642217 
85.4041 -62.6428 -0.637423 
85.4893 -62.6397 -0.632629 
85.5745 -62.6366 -0.627835 
85.6596 -62.6335 -0.623041 
85.7448 -62.6305 -0.618246 
85.83 -62.6274 -0.613452 
85.9152 -62.6243 -0.608658 
86.0004 -62.6212 -0.603864 
86.0856 -62.6181 -0.599069 
86.1708 -62.615 -0.594275 
86.2559 -62.612 -0.589481 
86.3411 -62.6089 -0.584687 
86.4263 -62.6058 -0.579893 
86.5115 -62.6027 -0.575098 
86.5967 -62.5996 -0.570304 
86.6819 -62.5966 -0.56551 
86.7671 -62.5935 -0.560716 
86.8523 -62.5904 -0.555921 
86.9374 -62.5873 -0.551127 
87.0226 -62.5842 -0.546333 
87.1078 -62.5811 -0.541539 
87.193 -62.5781 -0.536745 
87.2782 -62.575 -0.53195 
87.3634 -62.5719 -0.527156 
87.4486 -62.5688 -0.522362 
87.5337 -62.5657 -0.517568 
87.6189 -62.5626 -0.512773 
87.7041 -62.5596 -0.507979 
87.7893 -62.5565 -0.503185 
87.8745 -62.5534 -0.498391 
87.9597 -62.5503 -0.493597 
88.0449 -62.5472 -0.488802 
88.13 -62.5442 -0.484008 
88.2152 -62.5411 -0.479214 
88.3004 -62.538 -0.47442 
88.3856 -62.5349 -0.469625 
88.4708 -62.5318 -0.464831 
88.556 -62.5287 -0.460037 
88.6412 -62.5257 -0.455243 
88.7263 -62.5226 -0.450449 
88.8115 -62.5195 -0.445654 
88.8967 -62.5164 -0.44086 
88.9819 -62.5133 -0.436066 
89.0671 -62.5103 -0.431272 
89.1523 -62.5072 -0.426477 
89.2375 -62.5041 -0.421683 
89.3226 -62.501 -0.416889 
89.4078 -62.4979 -0.412095 
89.493 -62.4948 -0.407301 
89.5782 -62.4918 -0.402506 
89.6634 -62.4887 -0.397712 
89.7486 -62.4856 -0.392918 
89.8338 -62.4825 -0.388124 
89.9189 -62.4794 -0.383329 
90.0041 -62.4764 -0.378535 
90.0893 -62.4733 -0.373741 
90.1745 -62.4702 -0.368947 
90.2597 -62.4671 -0.364153 
90.3449 -62.464 -0.359358 
90.4301 -62.4609 -0.354564 
90.5153 -62.4579 -0.34977 
90.6004 -62.4548 -0.344976 
90.6856 -62.4517 -0.340181 
90.7708 -62.4486 -0.335387 
90.856 -62.4455 -0.330593 
90.9412 -62.4424 -0.325799 
91.0264 -62.4394 -0.321005 
91.1116 -62.4363 -0.31621 
91.1967 -62.4332 -0.311416 
91.2819 -62.4301 -0.306622 
91.3671 -62.427 -0.301828 
91.4523 -62.424 -0.297034 
91.5375 -62.4209 -0.292239 
91.6227 -62.4178 -0.287445 
91.7079 -62.4147 -0.282651 
91.793 -62.4116 -0.277857 
91.8782 -62.4085 -0.273062 
91.9634 -62.4055 -0.268268 
92.0486 -62.4024 -0.263474 
92.1338 -62.3993 -0.25868 
92.219 -62.3962 -0.253886 
92.3042 -62.3931 -0.249091 
92.3893 -62.3901 -0.244297 
92.4745 -62.387 -0.239503 
92.5597 -62.3839 -0.234709 
92.6449 -62.3808 -0.229914 
92.7301 -62.3777 -0.22512 
92.8153 -62.3746 -0.220326 
92.9005 -62.3716 -0.215532 
92.9856 -62.3685 -0.210738 
93.0708 -62.3654 -0.205943 
93.156 -62.3623 -0.201149 
93.2412 -62.3592 -0.196355 
93.3264 -62.3561 -0.191561 
93.4116 -62.3531 -0.186766 
93.4968 -62.35 -0.181972 
93.5819 -62.3469 -0.177178 
93.6671 -62.3438 -0.172384 
93.7523 -62.3407 -0.16759 
93.8375 -62.3377 -0.162795 
93.9227 -62.3346 -0.158001 
94.0079 -62.3315 -0.153207 
94.0931 -62.3284 -0.148413 
94.1782 -62.3253 -0.143618 
94.2634 -62.3222 -0.138824 
94.3486 -62.3192 -0.13403 
94.4338 -62.3161 -0.129236 
94.519 -62.313 -0.124442 
94.6042 -62.3099 -0.119647 
94.6894 -62.3068 -0.114853 
94.7746 -62.3038 -0.110059 
94.8597 -62.3007 -0.105265 
94.9449 -62.2976 -0.10047 
95.0301 -62.2945 -0.0956762 
95.1153 -62.2914 -0.090882 
95.2005 -62.2883 -0.0860878 
95.2857 -62.2853 -0.0812936 
95.3709 -62.2822 -0.0764994 
95.456 -62.2791 -0.0717051 
95.5412 -62.276 -0.0669109 
95.6264 -62.2729 -0.0621167 
95.7116 -62.2699 -0.0573225 
95.7968 -62.2668 -0.0525283 
95.882 -62.2637 -0.047734 
95.9672 -62.2606 -0.0429398 
96.0523 -62.2575 -0.0381456 
96.1375 -62.2544 -0.0333514 
96.2227 -62.2514 -0.0285572 
96.3079 -62.2483 -0.0237629 
96.3931 -62.2452 -0.0189687 
96.4783 -62.2421 -0.0141745 
96.5635 -62.239 -0.00938027 
96.6486 -62.2359 -0.00458605 
96.7338 -62.2329 0.000208171 
96.819 -62.2298 0.00500239 
96.9042 -62.2267 0.00979661 
96.9894 -62.2236 0.0145908 
97.0746 -62.2205 0.0193851 
97.1598 -62.2175 0.0241793 
97.2449 -62.2144 0.0289735 
97.3301 -62.2113 0.0337677 
97.4153 -62.2082 0.0385619 
97.5005 -62.2051 0.0433562 
97.5857 -62.202 0.0481504 
97.6709 -62.199 0.0529446 
97.7561 -62.1959 0.0577388 
97.8412 -62.1928 0.062533 
97.9264 -62.1897 0.0673273 
98.0116 -62.1866 0.0721215 
98.0968 -62.1836 0.0769157 
98.182 -62.1805 0.0817099 
98.2672 -62.1774 0.0865041 
98.3524 -62.1743 0.0912984 
98.4375 -62.1712 0.0960926 
98.5227 -62.1681 0.100887 
98.6079 -62.1651 0.105681 
98.6931 -62.162 0.110475 
98.7783 -62.1589 0.115269 
98.8635 -62.1558 0.120064 
98.9487 -62.1527 0.124858 
99.0339 -62.1496 0.129652 
99.119 -62.1466 0.134446 
99.2042 -62.1435 0.139241 
99.2894 -62.1404 0.144035 
99.3746 -62.1373 0.148829 
99.4598 -62.1342 0.153623 
99.545 -62.1312 0.158417 
99.6302 -62.1281 0.163212 
99.7153 -62.125 0.168006 
99.8005 -62.1219 0.1728 
99.8857 -62.1188 0.177594 
99.9709 -62.1157 0.182389 
100.056 -62.1127 0.187183 
100.141 -62.1096 0.191977 
100.226 -62.1065 0.196771 
100.312 -62.1034 0.201565 
100.397 -62.1003 0.20636 
100.482 -62.0973 0.211154 
100.567 -62.0942 0.215948 
100.652 -62.0911 0.220742 
100.738 -62.088 0.225537 
100.823 -62.0849 0.230331 
100.908 -62.0818 0.235125 
100.993 -62.0788 0.239919 
101.078 -62.0757 0.244713 
101.164 -62.0726 0.249508 
101.249 -62.0695 0.254302 
101.334 -62.0664 0.259096 
101.419 -62.0634 0.26389 
101.504 -62.0603 0.268685 
101.589 -62.0572 0.273479 
101.675 -62.0541 0.278273 
101.76 -62.051 0.283067 
101.845 -62.0479 0.287861 
101.93 -62.0449 0.292656 
102.015 -62.0418 0.29745 
102.101 -62.0387 0.302244 
102.186 -62.0356 0.307038 
102.271 -62.0325 0.311833 
102.356 -62.0294 0.316627 
102.441 -62.0264 0.321421 
102.526 -62.0233 0.326215 
102.612 -62.0202 0.331009 
102.697 -62.0171 0.335804 
102.782 -62.014 0.340598 
102.867 -62.011 0.345392 
102.952 -62.0079 0.350186 
103.038 -62.0048 0.35498 
103.123 -62.0017 0.359775 
103.208 -61.9986 0.364569 
103.293 -61.9955 0.369363 
103.378 -61.9925 0.374157 
103.464 -61.9894 0.378952 
103.549 -61.9863 0.383746 
103.634 -61.9832 0.38854 
103.719 -61.9801 0.393334 
103.804 -61.9771 0.398128 
103.889 -61.974 0.402923 
103.975 -61.9709 0.407717 
104.06 -61.9678 0.412511 
104.145 -61.9647 0.417305 
104.23 -61.9616 0.4221 
104.315 -61.9586 0.426894 
104.401 -61.9555 0.431688 
104.486 -61.9524 0.436482 
104.571 -61.9493 0.441276 
104.656 -61.9462 0.446071 
104.741 -61.9432 0.450865 
104.827 -61.9401 0.455659 
104.912 -61.937 0.460453 
104.997 -61.9339 0.465248 
105.082 -61.9308 0.470042 
105.167 -61.9277 0.474836 
105.252 -61.9247 0.47963 
105.338 -61.9216 0.484424 
105.423 -61.9185 0.489219 
105.508 -61.9154 0.494013 
105.593 -61.9123 0.498807 
105.678 -61.9092 0.503601 
105.764 -61.9062 0.508396 
105.849 -61.9031 0.51319 
105.934 -61.9 0.517984 
106.019 -61.8969 0.522778 
106.104 -61.8938 0.527572 
106.189 -61.8908 0.532367 
106.275 -61.8877 0.537161 
106.36 -61.8846 0.541955 
106.445 -61.8815 0.546749 
106.53 -61.8784 0.551544 
106.615 -61.8753 0.556338 
106.701 -61.8723 0.561132 
106.786 -61.8692 0.565926 
106.871 -61.8661 0.57072 
106.956 -61.863 0.575515 
107.041 -61.8599 0.580309 
107.127 -61.8569 0.585103 
107.212 -61.8538 0.589897 
107.297 -61.8507 0.594692 
107.382 -61.8476 0.599486 
107.467 -61.8445 0.60428 
107.552 -61.8414 0.609074 
107.638 -61.8384 0.613868 
107.723 -61.8353 0.618663 
107.808 -61.8322 0.623457 
107.893 -61.8291 0.628251 
107.978 -61.826 0.633045 
108.064 -61.8229 0.63784 
108.149 -61.8199 0.642634 
108.234 -61.8168 0.647428 
108.319 -61.8137 0.652222 
108.404 -61.8106 0.657016 
108.49 -61.8075 0.661811 
108.575 -61.8045 0.666605 
108.66 -61.8014 0.671399 
108.745 -61.7983 0.676193 
108.83 -61.7952 0.680987 
108.915 -61.7921 0.685782 
109.001 -61.789 0.690576 
109.086 -61.786 0.69537 
109.171 -61.7829 0.700164 
109.256 -61.7798 0.704959 
109.341 -61.7767 0.709753 
109.427 -61.7736 0.714547 
109.512 -61.7706 0.719341 
109.597 -61.7675 0.724135 
109.682 -61.7644 0.72893 
109.767 -61.7613 0.733724 
109.852 -61.7582 0.738518 
109.938 -61.7551 0.743312 
110.023 -61.7521 0.748107 
110.108 -61.749 0.752901 
110.193 -61.7459 0.757695 
110.278 -61.7428 0.762489 
110.364 -61.7397 0.767283 
110.449 -61.7367 0.772078 
110.534 -61.7336 0.776872 
110.619 -61.7305 0.781666 
110.704 -61.7274 0.78646 
110.79 -61.7243 0.791255 
110.875 -61.7212 0.796049 
110.96 -61.7182 0.800843 
111.045 -61.7151 0.805637 
111.13 -61.712 0.810431 
111.215 -61.7089 0.815226 
111.301 -61.7058 0.82002 
111.386 -61.7027 0.824814 
111.471 -61.6997 0.829608 
111.556 -61.6966 0.834403 
111.641 -61.6935 0.839197 
111.727 -61.6904 0.843991 
111.812 -61.6873 0.848785 
111.897 -61.6843 0.853579 
111.982 -61.6812 0.858374 
112.067 -61.6781 0.863168 
112.152 -61.675 0.867962 
112.238 -61.6719 0.872756 
112.323 -61.6688 0.877551 
112.408 -61.6658 0.882345 
112.493 -61.6627 0.887139 
112.578 -61.6596 0.891933 
112.664 -61.6565 0.896727 
112.749 -61.6534 0.901522 
112.834 -61.6504 0.906316 
112.919 -61.6473 0.91111 
113.004 -61.6442 0.915904 
113.09 -61.6411 0.920699 
113.175 -61.638 0.925493 
113.26 -61.6349 0.930287 
113.345 -61.6319 0.935081 
113.43 -61.6288 0.939875 
113.515 -61.6257 0.94467 
113.601 -61.6226 0.949464 
113.686 -61.6195 0.954258 
113.771 -61.6164 0.959052 
113.856 -61.6134 0.963847 
113.941 -61.6103 0.968641 
114.027 -61.6072 0.973435 
114.112 -61.6041 0.978229 
114.083 -61.524 0.983023 
114.053 -61.4439 0.987818 
114.024 -61.3639 0.992612 
113.995 -61.2838 0.997406 
113.966 -61.2037 1.0022 
113.937 -61.1236 1.00699 
113.907 -61.0435 1.01179 
113.878 -60.9634 1.01658 
113.849 -60.8833 1.02138 
113.82 -60.8032 1.02617 
113.791 -60.7231 1.03097 
113.762 -60.6431 1.03576 
113.732 -60.563 1.04055 
113.703 -60.4829 1.04535 
113.674 -60.4028 1.05014 
113.645 -60.3227 1.05494 
113.616 -60.2426 1.05973 
113.586 -60.1625 1.06453 
113.557 -60.0824 1.06932 
113.528 -60.0024 1.07411 
113.499 -59.9223 1.07891 
113.47 -59.8422 1.0837 
113.44 -59.7621 1.0885 
113.411 -59.682 1.09329 
113.382 -59.6019 1.09808 
113.353 -59.5218 1.10288 
113.324 -59.4417 1.10767 
113.294 -59.3616 1.11247 
113.265 -59.2816 1.11726 
113.236 -59.2015 1.12206 
113.207 -59.1214 1.12685 
113.178 -59.0413 1.13164 
113.149 -58.9612 1.13644 
113.119 -58.8811 1.14123 
113.09 -58.801 1.14603 
113.061 -58.7209 1.15082 
113.032 -58.6408 1.15562 
113.003 -58.5608 1.16041 
112.973 -58.4807 1.1652 
112.944 -58.4006 1.17 
112.915 -58.3205 1.17479 
112.886 -58.2404 1.17959 
112.857 -58.1603 1.18438 
112.827 -58.0802 1.18917 
112.798 -58.0001 1.19397 
112.769 -57.9201 1.19876 
112.74 -57.84 1.20356 
112.711 -57.7599 1.20835 
112.682 -57.6798 1.21315 
112.652 -57.5997 1.21794 
112.623 -57.5196 1.22273 
112.594 -57.4395 1.22753 
112.565 -57.3594 1.23232 
112.536 -57.2793 1.23712 
112.506 -57.1993 1.24191 
112.477 -57.1192 1.24671 
112.448 -57.0391 1.2515 
112.419 -56.959 1.25629 
112.39 -56.8789 1.26109 
112.36 -56.7988 1.26588 
112.331 -56.7187 1.27068 
112.302 -56.6386 1.27547 
112.273 -56.5585 1.28027 
112.244 -56.4785 1.28506 
112.214 -56.3984 1.28985 
112.185 -56.3183 1.29465 
112.156 -56.2382 1.29944 
112.127 -56.1581 1.30424 
112.098 -56.078 1.30903 
112.069 -55.9979 1.31382 
112.039 -55.9178 1.31862 
112.01 -55.8378 1.32341 
111.981 -55.7577 1.32821 
111.952 -55.6776 1.333 
111.923 -55.5975 1.3378 
111.893 -55.5174 1.34259 
111.864 -55.4373 1.34738 
111.835 -55.3572 1.35218 
111.806 -55.2771 1.35697 
111.777 -55.197 1.36177 
111.747 -55.117 1.36656 
111.718 -55.0369 1.37136 
111.689 -54.9568 1.37615 
111.66 -54.8767 1.38094 
111.631 -54.7966 1.38574 
111.602 -54.7165 1.39053 
111.572 -54.6364 1.39533 
111.543 -54.5563 1.40012 
111.514 -54.4762 1.40491 
111.485 -54.3962 1.40971 
111.456 -54.3161 1.4145 
111.426 -54.236 1.4193 
111.397 -54.1559 1.42409 
111.368 -54.0758 1.42889 
111.339 -53.9957 1.43368 
111.31 -53.9156 1.43847 
111.28 -53.8355 1.44327 
111.251 -53.7555 1.44806 
111.222 -53.6754 1.45286 
111.193 -53.5953 1.45765 
111.164 -53.5152 1.46245 
111.135 -53.4351 1.46724 
111.105 -53.355 1.47203 
111.076 -53.2749 1.47683 
111.047 -53.1948 1.48162 
111.018 -53.1147 1.48642 
110.989 -53.0347 1.49121 
110.959 -52.9546 1.49601 
110.93 -52.8745 1.5008 
110.901 -52.7944 1.50559 
110.872 -52.7143 1.51039 
110.843 -52.6342 1.51518 
110.813 -52.5541 1.51998 
110.784 -52.474 1.52477 
110.755 -52.3939 1.52956 
110.726 -52.3139 1.53436 
110.697 -52.2338 1.53915 
110.667 -52.1537 1.54395 
110.638 -52.0736 1.54874 
110.609 -51.9935 1.55354 
110.58 -51.9134 1.55833 
110.551 -51.8333 1.56312 
110.522 -51.7532 1.56792 
110.492 -51.6732 1.57271 
110.463 -51.5931 1.57751 
110.434 -51.513 1.5823 
110.405 -51.4329 1.5871 
110.376 -51.3528 1.59189 
110.346 -51.2727 1.59668 
110.317 -51.1926 1.60148 
110.288 -51.1125 1.60627 
110.259 -51.0324 1.61107 
110.23 -50.9524 1.61586 
110.2 -50.8723 1.62065 
110.171 -50.7922 1.62545 
110.142 -50.7121 1.63024 
110.113 -50.632 1.63504 
110.084 -50.5519 1.63983 
110.055 -50.4718 1.64463 
110.025 -50.3917 1.64942 
109.996 -50.3116 1.65421 
109.967 -50.2316 1.65901 
109.938 -50.1515 1.6638 
109.909 -50.0714 1.6686 
109.879 -49.9913 1.67339 
109.85 -49.9112 1.67819 
109.821 -49.8311 1.68298 
109.792 -49.751 1.68777 
109.763 -49.6709 1.69257 
109.733 -49.5909 1.69736 
109.704 -49.5108 1.70216 
109.675 -49.4307 1.70695 
109.646 -49.3506 1.71174 
109.617 -49.2705 1.71654 
109.587 -49.1904 1.72133 
109.558 -49.1103 1.72613 
109.529 -49.0302 1.73092 
109.5 -48.9501 1.73572 
109.471 -48.8701 1.74051 
109.442 -48.79 1.7453 
109.412 -48.7099 1.7501 
109.383 -48.6298 1.75489 
109.354 -48.5497 1.75969 
109.325 -48.4696 1.76448 
109.296 -48.3895 1.76928 
109.266 -48.3094 1.77407 
109.237 -48.2293 1.77886 
109.208 -48.1493 1.78366 
109.179 -48.0692 1.78845 
109.15 -47.9891 1.79325 
109.12 -47.909 1.79804 
109.091 -47.8289 1.80284 
109.062 -47.7488 1.80763 
109.033 -47.6687 1.81242 
109.004 -47.5886 1.81722 
108.975 -47.5086 1.82201 
108.945 -47.4285 1.82681 
108.916 -47.3484 1.8316 
108.887 -47.2683 1.83639 
108.858 -47.1882 1.84119 
108.829 -47.1081 1.84598 
108.799 -47.028 1.85078 
108.77 -46.9479 1.85557 
108.741 -46.8678 1.86037 
108.712 -46.7878 1.86516 
108.683 -46.7077 1.86995 
108.653 -46.6276 1.87475 
108.624 -46.5475 1.87954 
108.595 -46.4674 1.88434 
108.566 -46.3873 1.88913 
108.537 -46.3072 1.89393 
108.507 -46.2271 1.89872 
108.478 -46.147 1.90351 
108.449 -46.067 1.90831 
108.42 -45.9869 1.9131 
108.391 -45.9068 1.9179 
108.362 -45.8267 1.92269 
108.332 -45.7466 1.92748 
108.303 -45.6665 1.93228 
108.274 -45.5864 1.93707 
108.245 -45.5063 1.94187 
108.216 -45.4263 1.94666 
108.186 -45.3462 1.95146 
108.157 -45.2661 1.95625 
108.128 -45.186 1.96104 
108.099 -45.1059 1.96584 
108.07 -45.0258 1.97063 
108.04 -44.9457 1.97543 
108.011 -44.8656 1.98022 
107.982 -44.7855 1.98502 
107.953 -44.7055 1.98981 
107.924 -44.6254 1.9946 
107.895 -44.5453 1.9994 
107.865 -44.4652 2.00419 
107.836 -44.3851 2.00899 
107.807 -44.305 2.01378 
107.778 -44.2249 2.01858 
107.749 -44.1448 2.02337 
107.719 -44.0647 2.02816 
107.69 -43.9847 2.03296 
107.661 -43.9046 2.03775 
107.632 -43.8245 2.04255 
107.603 -43.7444 2.04734 
107.573 -43.6643 2.05213 
107.544 -43.5842 2.05693 
107.515 -43.5041 2.06172 
107.486 -43.424 2.06652 
107.457 -43.344 2.07131 
107.428 -43.2639 2.07611 
107.398 -43.1838 2.0809 
107.369 -43.1037 2.08569 
107.34 -43.0236 2.09049 
107.311 -42.9435 2.09528 
