50 -50 0 
50.0988 -49.9968 5.02371e-05 
50.1976 -49.9936 0.000100474 
50.2964 -49.9903 0.000150711 
50.3952 -49.9871 0.000200948 
50.494 -49.9839 0.000251186 
50.5928 -49.9807 0.000301423 
50.6917 -49.9774 0.00035166 
50.7905 -49.9742 0.000401897 
50.8893 -49.971 0.000452134 
50.9881 -49.9678 0.000502371 
51.0869 -49.9646 0.000552608 
51.1857 -49.9613 0.000602845 
51.2845 -49.9581 0.000653083 
51.3833 -49.9549 0.00070332 
51.4821 -49.9517 0.000753557 
51.5809 -49.9484 0.000803794 
51.6797 -49.9452 0.000854031 
51.7785 -49.942 0.000904268 
51.8773 -49.9388 0.000954505 
51.9762 -49.9355 0.00100474 
52.075 -49.9323 0.00105498 
52.1738 -49.9291 0.00110522 
52.2726 -49.9259 0.00115545 
52.3714 -49.9227 0.00120569 
52.4702 -49.9194 0.00125593 
52.569 -49.9162 0.00130617 
52.6678 -49.913 0.0013564 
52.7666 -49.9098 0.00140664 
52.8654 -49.9065 0.00145688 
52.9642 -49.9033 0.00150711 
53.063 -49.9001 0.00155735 
53.1618 -49.8969 0.00160759 
53.2607 -49.8937 0.00165783 
53.3595 -49.8904 0.00170806 
53.4583 -49.8872 0.0017583 
53.5571 -49.884 0.00180854 
53.6559 -49.8808 0.00185877 
53.7547 -49.8775 0.00190901 
53.8535 -49.8743 0.00195925 
53.9523 -49.8711 0.00200948 
54.0511 -49.8679 0.00205972 
54.1499 -49.8646 0.00210996 
54.2487 -49.8614 0.0021602 
54.3475 -49.8582 0.00221043 
54.4463 -49.855 0.00226067 
54.5452 -49.8518 0.00231091 
54.644 -49.8485 0.00236114 
54.7428 -49.8453 0.00241138 
54.8416 -49.8421 0.00246162 
54.9404 -49.8389 0.00251186 
55.0392 -49.8356 0.00256209 
55.138 -49.8324 0.00261233 
55.2368 -49.8292 0.00266257 
55.3356 -49.826 0.0027128 
55.4344 -49.8228 0.00276304 
55.5332 -49.8195 0.00281328 
55.632 -49.8163 0.00286352 
55.7309 -49.8131 0.00291375 
55.8297 -49.8099 0.00296399 
55.9285 -49.8066 0.00301423 
56.0273 -49.8034 0.00306446 
56.1261 -49.8002 0.0031147 
56.2249 -49.797 0.00316494 
56.3237 -49.7937 0.00321518 
56.4225 -49.7905 0.00326541 
56.5213 -49.7873 0.00331565 
56.6201 -49.7841 0.00336589 
56.7189 -49.7809 0.00341612 
56.8177 -49.7776 0.00346636 
56.9165 -49.7744 0.0035166 
57.0154 -49.7712 0.00356684 
57.1142 -49.768 0.00361707 
57.213 -49.7647 0.00366731 
57.3118 -49.7615 0.00371755 
57.4106 -49.7583 0.00376778 
57.5094 -49.7551 0.00381802 
57.6082 -49.7519 0.00386826 
57.707 -49.7486 0.0039185 
57.8058 -49.7454 0.00396873 
57.9046 -49.7422 0.00401897 
58.0034 -49.739 0.00406921 
58.1022 -49.7357 0.00411944 
58.201 -49.7325 0.00416968 
58.2999 -49.7293 0.00421992 
58.3987 -49.7261 0.00427016 
58.4975 -49.7229 0.00432039 
58.5963 -49.7196 0.00437063 
58.6951 -49.7164 0.00442087 
58.7939 -49.7132 0.0044711 
58.8927 -49.71 0.00452134 
58.9915 -49.7067 0.00457158 
59.0903 -49.7035 0.00462182 
59.1891 -49.7003 0.00467205 
59.2879 -49.6971 0.00472229 
59.3867 -49.6938 0.00477253 
59.4855 -49.6906 0.00482276 
59.5844 -49.6874 0.004873 
59.6832 -49.6842 0.00492324 
59.782 -49.681 0.00497348 
59.8808 -49.6777 0.00502371 
59.9796 -49.6745 0.00507395 
60.0784 -49.6713 0.00512419 
60.1772 -49.6681 0.00517442 
60.276 -49.6648 0.00522466 
60.3748 -49.6616 0.0052749 
60.4736 -49.6584 0.00532514 
60.5724 -49.6552 0.00537537 
60.6712 -49.652 0.00542561 
60.77 -49.6487 0.00547585 
60.8689 -49.6455 0.00552608 
60.9677 -49.6423 0.00557632 
61.0665 -49.6391 0.00562656 
61.1653 -49.6358 0.0056768 
61.2641 -49.6326 0.00572703 
61.3629 -49.6294 0.00577727 
61.4617 -49.6262 0.00582751 
61.5605 -49.6229 0.00587774 
61.6593 -49.6197 0.00592798 
61.7581 -49.6165 0.00597822 
61.8569 -49.6133 0.00602845 
61.9557 -49.6101 0.00607869 
62.0545 -49.6068 0.00612893 
62.1534 -49.6036 0.00617917 
62.2522 -49.6004 0.0062294 
62.351 -49.5972 0.00627964 
62.4498 -49.5939 0.00632988 
62.5486 -49.5907 0.00638011 
62.6474 -49.5875 0.00643035 
62.7462 -49.5843 0.00648059 
62.845 -49.5811 0.00653083 
62.9438 -49.5778 0.00658106 
63.0426 -49.5746 0.0066313 
63.1414 -49.5714 0.00668154 
63.2402 -49.5682 0.00673177 
63.339 -49.5649 0.00678201 
63.4379 -49.5617 0.00683225 
63.5367 -49.5585 0.00688249 
63.6355 -49.5553 0.00693272 
63.7343 -49.5521 0.00698296 
63.8331 -49.5488 0.0070332 
63.9319 -49.5456 0.00708343 
64.0307 -49.5424 0.00713367 
64.1295 -49.5392 0.00718391 
64.2283 -49.5359 0.00723415 
64.3271 -49.5327 0.00728438 
64.4259 -49.5295 0.00733462 
64.5247 -49.5263 0.00738486 
64.6235 -49.523 0.00743509 
64.7224 -49.5198 0.00748533 
64.8212 -49.5166 0.00753557 
64.92 -49.5134 0.00758581 
65.0188 -49.5102 0.00763604 
65.1176 -49.5069 0.00768628 
65.2164 -49.5037 0.00773652 
65.3152 -49.5005 0.00778675 
65.414 -49.4973 0.00783699 
65.5128 -49.494 0.00788723 
65.6116 -49.4908 0.00793747 
65.7104 -49.4876 0.0079877 
65.8092 -49.4844 0.00803794 
65.908 -49.4812 0.00808818 
66.0069 -49.4779 0.00813841 
66.1057 -49.4747 0.00818865 
66.2045 -49.4715 0.00823889 
66.3033 -49.4683 0.00828913 
66.4021 -49.465 0.00833936 
66.5009 -49.4618 0.0083896 
66.5997 -49.4586 0.00843984 
66.6985 -49.4554 0.00849007 
66.7973 -49.4521 0.00854031 
66.8961 -49.4489 0.00859055 
66.9949 -49.4457 0.00864079 
67.0937 -49.4425 0.00869102 
67.1926 -49.4393 0.00874126 
67.2914 -49.436 0.0087915 
67.3902 -49.4328 0.00884173 
67.489 -49.4296 0.00889197 
67.5878 -49.4264 0.00894221 
67.6866 -49.4231 0.00899245 
67.7854 -49.4199 0.00904268 
67.8842 -49.4167 0.00909292 
67.983 -49.4135 0.00914316 
68.0818 -49.4103 0.00919339 
68.1806 -49.407 0.00924363 
68.2794 -49.4038 0.00929387 
68.3782 -49.4006 0.00934411 
68.4771 -49.3974 0.00939434 
68.5759 -49.3941 0.00944458 
68.6747 -49.3909 0.00949482 
68.7735 -49.3877 0.00954505 
68.8723 -49.3845 0.00959529 
68.9711 -49.3812 0.00964553 
69.0699 -49.378 0.00969577 
69.1687 -49.3748 0.009746 
69.2675 -49.3716 0.00979624 
69.3663 -49.3684 0.00984648 
69.4651 -49.3651 0.00989671 
69.5639 -49.3619 0.00994695 
69.6627 -49.3587 0.00999719 
69.7616 -49.3555 0.0100474 
69.8604 -49.3522 0.0100977 
69.9592 -49.349 0.0101479 
70.058 -49.3458 0.0101981 
70.1568 -49.3426 0.0102484 
70.2556 -49.3394 0.0102986 
70.3544 -49.3361 0.0103488 
70.4532 -49.3329 0.0103991 
70.552 -49.3297 0.0104493 
70.6508 -49.3265 0.0104996 
70.7496 -49.3232 0.0105498 
70.8484 -49.32 0.0106 
70.9472 -49.3168 0.0106503 
71.0461 -49.3136 0.0107005 
71.1449 -49.3104 0.0107507 
71.2437 -49.3071 0.010801 
71.3425 -49.3039 0.0108512 
71.4413 -49.3007 0.0109015 
71.5401 -49.2975 0.0109517 
71.6389 -49.2942 0.0110019 
71.7377 -49.291 0.0110522 
71.8365 -49.2878 0.0111024 
71.9353 -49.2846 0.0111526 
72.0341 -49.2813 0.0112029 
72.1329 -49.2781 0.0112531 
72.2317 -49.2749 0.0113034 
72.3306 -49.2717 0.0113536 
72.4294 -49.2685 0.0114038 
72.5282 -49.2652 0.0114541 
72.627 -49.262 0.0115043 
72.7258 -49.2588 0.0115545 
72.8246 -49.2556 0.0116048 
72.9234 -49.2523 0.011655 
73.0222 -49.2491 0.0117053 
73.121 -49.2459 0.0117555 
73.2198 -49.2427 0.0118057 
73.3186 -49.2395 0.011856 
73.4174 -49.2362 0.0119062 
73.5162 -49.233 0.0119564 
73.6151 -49.2298 0.0120067 
73.7139 -49.2266 0.0120569 
73.8127 -49.2233 0.0121071 
73.9115 -49.2201 0.0121574 
74.0103 -49.2169 0.0122076 
74.1091 -49.2137 0.0122579 
74.2079 -49.2104 0.0123081 
74.3067 -49.2072 0.0123583 
74.4055 -49.204 0.0124086 
74.5043 -49.2008 0.0124588 
74.6031 -49.1976 0.012509 
74.7019 -49.1943 0.0125593 
74.8007 -49.1911 0.0126095 
74.8996 -49.1879 0.0126598 
74.9984 -49.1847 0.01271 
75.0972 -49.1814 0.0127602 
75.196 -49.1782 0.0128105 
75.2948 -49.175 0.0128607 
75.3936 -49.1718 0.0129109 
75.4924 -49.1686 0.0129612 
75.5912 -49.1653 0.0130114 
75.69 -49.1621 0.0130617 
75.7888 -49.1589 0.0131119 
75.8876 -49.1557 0.0131621 
75.9864 -49.1524 0.0132124 
76.0852 -49.1492 0.0132626 
76.1841 -49.146 0.0133128 
76.2829 -49.1428 0.0133631 
76.3817 -49.1395 0.0134133 
76.4805 -49.1363 0.0134635 
76.5793 -49.1331 0.0135138 
76.6781 -49.1299 0.013564 
76.7769 -49.1267 0.0136143 
76.8757 -49.1234 0.0136645 
76.9745 -49.1202 0.0137147 
77.0733 -49.117 0.013765 
77.1721 -49.1138 0.0138152 
77.2709 -49.1105 0.0138654 
77.3697 -49.1073 0.0139157 
77.4686 -49.1041 0.0139659 
77.5674 -49.1009 0.0140162 
77.6662 -49.0977 0.0140664 
77.765 -49.0944 0.0141166 
77.8638 -49.0912 0.0141669 
77.9626 -49.088 0.0142171 
78.0614 -49.0848 0.0142673 
78.1602 -49.0815 0.0143176 
78.259 -49.0783 0.0143678 
78.3578 -49.0751 0.0144181 
78.4566 -49.0719 0.0144683 
78.5554 -49.0687 0.0145185 
78.6543 -49.0654 0.0145688 
78.7531 -49.0622 0.014619 
78.8519 -49.059 0.0146692 
78.9507 -49.0558 0.0147195 
79.0495 -49.0525 0.0147697 
79.1483 -49.0493 0.01482 
79.2471 -49.0461 0.0148702 
79.3459 -49.0429 0.0149204 
79.4447 -49.0396 0.0149707 
79.5435 -49.0364 0.0150209 
79.6423 -49.0332 0.0150711 
79.7411 -49.03 0.0151214 
79.8399 -49.0268 0.0151716 
79.9388 -49.0235 0.0152218 
80.0376 -49.0203 0.0152721 
80.1364 -49.0171 0.0153223 
80.2352 -49.0139 0.0153726 
80.334 -49.0106 0.0154228 
80.4328 -49.0074 0.015473 
80.5316 -49.0042 0.0155233 
80.6304 -49.001 0.0155735 
80.7292 -48.9978 0.0156237 
80.828 -48.9945 0.015674 
80.9268 -48.9913 0.0157242 
81.0256 -48.9881 0.0157745 
81.1244 -48.9849 0.0158247 
81.2233 -48.9816 0.0158749 
81.3221 -48.9784 0.0159252 
81.4209 -48.9752 0.0159754 
81.5197 -48.972 0.0160256 
81.6185 -48.9687 0.0160759 
81.7173 -48.9655 0.0161261 
81.8161 -48.9623 0.0161764 
81.9149 -48.9591 0.0162266 
82.0137 -48.9559 0.0162768 
82.1125 -48.9526 0.0163271 
82.2113 -48.9494 0.0163773 
82.3101 -48.9462 0.0164275 
82.4089 -48.943 0.0164778 
82.5078 -48.9397 0.016528 
82.6066 -48.9365 0.0165783 
82.7054 -48.9333 0.0166285 
82.8042 -48.9301 0.0166787 
82.903 -48.9269 0.016729 
83.0018 -48.9236 0.0167792 
83.1006 -48.9204 0.0168294 
83.1994 -48.9172 0.0168797 
83.2982 -48.914 0.0169299 
83.397 -48.9107 0.0169801 
83.4958 -48.9075 0.0170304 
83.5946 -48.9043 0.0170806 
83.6934 -48.9011 0.0171309 
83.7923 -48.8979 0.0171811 
83.8911 -48.8946 0.0172313 
83.9899 -48.8914 0.0172816 
84.0887 -48.8882 0.0173318 
84.1875 -48.885 0.017382 
84.2863 -48.8817 0.0174323 
84.3851 -48.8785 0.0174825 
84.4839 -48.8753 0.0175328 
84.5827 -48.8721 0.017583 
84.6815 -48.8688 0.0176332 
84.7803 -48.8656 0.0176835 
84.8791 -48.8624 0.0177337 
84.9779 -48.8592 0.0177839 
85.0768 -48.856 0.0178342 
85.1756 -48.8527 0.0178844 
85.2744 -48.8495 0.0179347 
85.3732 -48.8463 0.0179849 
85.472 -48.8431 0.0180351 
85.5708 -48.8398 0.0180854 
85.6696 -48.8366 0.0181356 
85.7684 -48.8334 0.0181858 
85.8672 -48.8302 0.0182361 
85.966 -48.827 0.0182863 
86.0648 -48.8237 0.0183366 
86.1636 -48.8205 0.0183868 
86.2624 -48.8173 0.018437 
86.3613 -48.8141 0.0184873 
86.4601 -48.8108 0.0185375 
86.5589 -48.8076 0.0185877 
86.6577 -48.8044 0.018638 
86.7565 -48.8012 0.0186882 
86.8553 -48.7979 0.0187384 
86.9541 -48.7947 0.0187887 
87.0529 -48.7915 0.0188389 
87.1517 -48.7883 0.0188892 
87.2505 -48.7851 0.0189394 
87.3493 -48.7818 0.0189896 
87.4481 -48.7786 0.0190399 
87.5469 -48.7754 0.0190901 
87.6458 -48.7722 0.0191403 
87.7446 -48.7689 0.0191906 
87.8434 -48.7657 0.0192408 
87.9422 -48.7625 0.0192911 
88.041 -48.7593 0.0193413 
88.1398 -48.7561 0.0193915 
88.2386 -48.7528 0.0194418 
88.3374 -48.7496 0.019492 
88.4362 -48.7464 0.0195422 
88.535 -48.7432 0.0195925 
88.6338 -48.7399 0.0196427 
88.7326 -48.7367 0.019693 
88.8315 -48.7335 0.0197432 
88.9303 -48.7303 0.0197934 
89.0291 -48.727 0.0198437 
89.1279 -48.7238 0.0198939 
89.2267 -48.7206 0.0199441 
89.3255 -48.7174 0.0199944 
89.4243 -48.7142 0.0200446 
89.5231 -48.7109 0.0200948 
89.6219 -48.7077 0.0201451 
89.7207 -48.7045 0.0201953 
89.8195 -48.7013 0.0202456 
89.9183 -48.698 0.0202958 
90.0171 -48.6948 0.020346 
90.116 -48.6916 0.0203963 
90.2148 -48.6884 0.0204465 
90.3136 -48.6852 0.0204967 
90.4124 -48.6819 0.020547 
90.5112 -48.6787 0.0205972 
90.61 -48.6755 0.0206475 
90.7088 -48.6723 0.0206977 
90.8076 -48.669 0.0207479 
90.9064 -48.6658 0.0207982 
91.0052 -48.6626 0.0208484 
91.104 -48.6594 0.0208986 
91.2028 -48.6562 0.0209489 
91.3016 -48.6529 0.0209991 
91.4005 -48.6497 0.0210494 
91.4993 -48.6465 0.0210996 
91.5981 -48.6433 0.0211498 
91.6969 -48.64 0.0212001 
91.7957 -48.6368 0.0212503 
91.8945 -48.6336 0.0213005 
91.9933 -48.6304 0.0213508 
92.0921 -48.6271 0.021401 
92.1909 -48.6239 0.0214513 
92.2897 -48.6207 0.0215015 
92.3885 -48.6175 0.0215517 
92.4873 -48.6143 0.021602 
92.5861 -48.611 0.0216522 
92.685 -48.6078 0.0217024 
92.7838 -48.6046 0.0217527 
92.8826 -48.6014 0.0218029 
92.9814 -48.5981 0.0218531 
93.0802 -48.5949 0.0219034 
93.179 -48.5917 0.0219536 
93.2778 -48.5885 0.0220039 
93.3766 -48.5853 0.0220541 
93.4754 -48.582 0.0221043 
93.5742 -48.5788 0.0221546 
93.673 -48.5756 0.0222048 
93.7718 -48.5724 0.022255 
93.8706 -48.5691 0.0223053 
93.9695 -48.5659 0.0223555 
94.0683 -48.5627 0.0224058 
94.1671 -48.5595 0.022456 
94.2659 -48.5562 0.0225062 
94.3647 -48.553 0.0225565 
94.4635 -48.5498 0.0226067 
94.5623 -48.5466 0.0226569 
94.6611 -48.5434 0.0227072 
94.7599 -48.5401 0.0227574 
94.8587 -48.5369 0.0228077 
94.9575 -48.5337 0.0228579 
95.0563 -48.5305 0.0229081 
95.1551 -48.5272 0.0229584 
95.254 -48.524 0.0230086 
95.3528 -48.5208 0.0230588 
95.4516 -48.5176 0.0231091 
95.5504 -48.5144 0.0231593 
95.6492 -48.5111 0.0232096 
95.748 -48.5079 0.0232598 
95.8468 -48.5047 0.02331 
95.9456 -48.5015 0.0233603 
96.0444 -48.4982 0.0234105 
96.1432 -48.495 0.0234607 
96.242 -48.4918 0.023511 
96.3408 -48.4886 0.0235612 
96.4396 -48.4853 0.0236114 
96.5385 -48.4821 0.0236617 
96.6373 -48.4789 0.0237119 
96.7361 -48.4757 0.0237622 
96.8349 -48.4725 0.0238124 
96.9337 -48.4692 0.0238626 
97.0325 -48.466 0.0239129 
97.1313 -48.4628 0.0239631 
97.2301 -48.4596 0.0240133 
97.3289 -48.4563 0.0240636 
97.4277 -48.4531 0.0241138 
97.5265 -48.4499 0.0241641 
97.6253 -48.4467 0.0242143 
97.7241 -48.4435 0.0242645 
97.823 -48.4402 0.0243148 
97.9218 -48.437 0.024365 
98.0206 -48.4338 0.0244152 
98.1194 -48.4306 0.0244655 
98.2182 -48.4273 0.0245157 
98.317 -48.4241 0.024566 
98.4158 -48.4209 0.0246162 
98.5146 -48.4177 0.0246664 
98.6134 -48.4145 0.0247167 
98.7122 -48.4112 0.0247669 
98.811 -48.408 0.0248171 
98.9098 -48.4048 0.0248674 
99.0086 -48.4016 0.0249176 
99.1075 -48.3983 0.0249679 
99.2063 -48.3951 0.0250181 
99.3051 -48.3919 0.0250683 
99.4039 -48.3887 0.0251186 
99.5027 -48.3854 0.0251688 
99.6015 -48.3822 0.025219 
99.7003 -48.379 0.0252693 
99.7991 -48.3758 0.0253195 
99.8979 -48.3726 0.0253697 
99.9967 -48.3693 0.02542 
100.096 -48.3661 0.0254702 
100.194 -48.3629 0.0255205 
100.293 -48.3597 0.0255707 
100.392 -48.3564 0.0256209 
100.491 -48.3532 0.0256712 
100.59 -48.35 0.0257214 
100.688 -48.3468 0.0257716 
100.787 -48.3436 0.0258219 
100.886 -48.3403 0.0258721 
100.985 -48.3371 0.0259224 
101.084 -48.3339 0.0259726 
101.182 -48.3307 0.0260228 
101.281 -48.3274 0.0260731 
101.38 -48.3242 0.0261233 
101.479 -48.321 0.0261735 
101.578 -48.3178 0.0262238 
101.676 -48.3145 0.026274 
101.775 -48.3113 0.0263243 
101.874 -48.3081 0.0263745 
101.973 -48.3049 0.0264247 
102.072 -48.3017 0.026475 
102.17 -48.2984 0.0265252 
102.269 -48.2952 0.0265754 
102.368 -48.292 0.0266257 
102.467 -48.2888 0.0266759 
102.566 -48.2855 0.0267262 
102.665 -48.2823 0.0267764 
102.763 -48.2791 0.0268266 
102.862 -48.2759 0.0268769 
102.961 -48.2727 0.0269271 
103.06 -48.2694 0.0269773 
103.159 -48.2662 0.0270276 
103.257 -48.263 0.0270778 
103.356 -48.2598 0.027128 
103.455 -48.2565 0.0271783 
103.554 -48.2533 0.0272285 
103.653 -48.2501 0.0272788 
103.751 -48.2469 0.027329 
103.85 -48.2437 0.0273792 
103.949 -48.2404 0.0274295 
104.048 -48.2372 0.0274797 
104.147 -48.234 0.0275299 
104.245 -48.2308 0.0275802 
104.344 -48.2275 0.0276304 
104.443 -48.2243 0.0276807 
104.542 -48.2211 0.0277309 
104.641 -48.2179 0.0277811 
104.739 -48.2146 0.0278314 
104.838 -48.2114 0.0278816 
104.937 -48.2082 0.0279318 
105.036 -48.205 0.0279821 
105.135 -48.2018 0.0280323 
105.234 -48.1985 0.0280826 
105.332 -48.1953 0.0281328 
105.431 -48.1921 0.028183 
105.53 -48.1889 0.0282333 
105.629 -48.1856 0.0282835 
105.728 -48.1824 0.0283337 
105.826 -48.1792 0.028384 
105.925 -48.176 0.0284342 
106.024 -48.1728 0.0284844 
106.123 -48.1695 0.0285347 
106.222 -48.1663 0.0285849 
106.32 -48.1631 0.0286352 
106.419 -48.1599 0.0286854 
106.518 -48.1566 0.0287356 
106.617 -48.1534 0.0287859 
106.716 -48.1502 0.0288361 
106.814 -48.147 0.0288863 
106.913 -48.1437 0.0289366 
107.012 -48.1405 0.0289868 
107.111 -48.1373 0.0290371 
107.21 -48.1341 0.0290873 
107.309 -48.1309 0.0291375 
107.407 -48.1276 0.0291878 
107.506 -48.1244 0.029238 
107.605 -48.1212 0.0292882 
107.704 -48.118 0.0293385 
107.803 -48.1147 0.0293887 
107.901 -48.1115 0.029439 
108 -48.1083 0.0294892 
108.099 -48.1051 0.0295394 
108.198 -48.1019 0.0295897 
108.297 -48.0986 0.0296399 
108.395 -48.0954 0.0296901 
108.494 -48.0922 0.0297404 
108.593 -48.089 0.0297906 
108.692 -48.0857 0.0298409 
108.791 -48.0825 0.0298911 
108.889 -48.0793 0.0299413 
108.988 -48.0761 0.0299916 
109.087 -48.0728 0.0300418 
109.186 -48.0696 0.030092 
109.285 -48.0664 0.0301423 
109.383 -48.0632 0.0301925 
109.482 -48.06 0.0302427 
109.581 -48.0567 0.030293 
109.68 -48.0535 0.0303432 
109.779 -48.0503 0.0303935 
109.878 -48.0471 0.0304437 
109.976 -48.0438 0.0304939 
110.075 -48.0406 0.0305442 
110.174 -48.0374 0.0305944 
110.273 -48.0342 0.0306446 
110.372 -48.031 0.0306949 
110.47 -48.0277 0.0307451 
110.569 -48.0245 0.0307954 
110.668 -48.0213 0.0308456 
110.767 -48.0181 0.0308958 
110.866 -48.0148 0.0309461 
110.964 -48.0116 0.0309963 
111.063 -48.0084 0.0310465 
111.162 -48.0052 0.0310968 
111.261 -48.002 0.031147 
111.36 -47.9987 0.0311973 
111.458 -47.9955 0.0312475 
111.557 -47.9923 0.0312977 
111.656 -47.9891 0.031348 
111.755 -47.9858 0.0313982 
111.854 -47.9826 0.0314484 
111.952 -47.9794 0.0314987 
112.051 -47.9762 0.0315489 
112.15 -47.9729 0.0315992 
112.249 -47.9697 0.0316494 
112.348 -47.9665 0.0316996 
112.447 -47.9633 0.0317499 
112.545 -47.9601 0.0318001 
112.644 -47.9568 0.0318503 
112.743 -47.9536 0.0319006 
112.842 -47.9504 0.0319508 
112.941 -47.9472 0.032001 
113.039 -47.9439 0.0320513 
113.138 -47.9407 0.0321015 
113.237 -47.9375 0.0321518 
113.336 -47.9343 0.032202 
113.435 -47.9311 0.0322522 
113.533 -47.9278 0.0323025 
113.632 -47.9246 0.0323527 
113.731 -47.9214 0.0324029 
113.83 -47.9182 0.0324532 
113.929 -47.9149 0.0325034 
114.027 -47.9117 0.0325537 
114.126 -47.9085 0.0326039 
114.225 -47.9053 0.0326541 
114.324 -47.902 0.0327044 
114.423 -47.8988 0.0327546 
114.521 -47.8956 0.0328048 
114.62 -47.8924 0.0328551 
114.719 -47.8892 0.0329053 
114.818 -47.8859 0.0329556 
114.917 -47.8827 0.0330058 
115.016 -47.8795 0.033056 
115.114 -47.8763 0.0331063 
115.213 -47.873 0.0331565 
115.312 -47.8698 0.0332067 
115.411 -47.8666 0.033257 
115.51 -47.8634 0.0333072 
115.608 -47.8602 0.0333575 
115.707 -47.8569 0.0334077 
115.806 -47.8537 0.0334579 
115.905 -47.8505 0.0335082 
116.004 -47.8473 0.0335584 
116.102 -47.844 0.0336086 
116.201 -47.8408 0.0336589 
116.3 -47.8376 0.0337091 
116.399 -47.8344 0.0337593 
116.498 -47.8311 0.0338096 
116.596 -47.8279 0.0338598 
116.695 -47.8247 0.0339101 
116.794 -47.8215 0.0339603 
116.893 -47.8183 0.0340105 
116.992 -47.815 0.0340608 
117.09 -47.8118 0.034111 
117.189 -47.8086 0.0341612 
117.288 -47.8054 0.0342115 
117.387 -47.8021 0.0342617 
117.486 -47.7989 0.034312 
117.585 -47.7957 0.0343622 
117.683 -47.7925 0.0344124 
117.782 -47.7893 0.0344627 
117.881 -47.786 0.0345129 
117.98 -47.7828 0.0345631 
118.079 -47.7796 0.0346134 
118.177 -47.7764 0.0346636 
118.276 -47.7731 0.0347139 
118.375 -47.7699 0.0347641 
118.474 -47.7667 0.0348143 
118.573 -47.7635 0.0348646 
118.671 -47.7603 0.0349148 
118.77 -47.757 0.034965 
118.869 -47.7538 0.0350153 
118.968 -47.7506 0.0350655 
119.067 -47.7474 0.0351158 
119.165 -47.7441 0.035166 
119.264 -47.7409 0.0352162 
119.363 -47.7377 0.0352665 
119.462 -47.7345 0.0353167 
119.561 -47.7312 0.0353669 
119.659 -47.728 0.0354172 
119.758 -47.7248 0.0354674 
119.857 -47.7216 0.0355176 
119.956 -47.7184 0.0355679 
120.055 -47.7151 0.0356181 
120.154 -47.7119 0.0356684 
120.252 -47.7087 0.0357186 
120.351 -47.7055 0.0357688 
120.45 -47.7022 0.0358191 
120.549 -47.699 0.0358693 
120.648 -47.6958 0.0359195 
120.746 -47.6926 0.0359698 
120.845 -47.6894 0.03602 
120.944 -47.6861 0.0360703 
121.043 -47.6829 0.0361205 
121.142 -47.6797 0.0361707 
121.24 -47.6765 0.036221 
121.339 -47.6732 0.0362712 
121.438 -47.67 0.0363214 
121.537 -47.6668 0.0363717 
121.636 -47.6636 0.0364219 
121.734 -47.6603 0.0364722 
121.833 -47.6571 0.0365224 
121.932 -47.6539 0.0365726 
122.031 -47.6507 0.0366229 
122.13 -47.6475 0.0366731 
122.228 -47.6442 0.0367233 
122.327 -47.641 0.0367736 
122.426 -47.6378 0.0368238 
122.525 -47.6346 0.036874 
122.624 -47.6313 0.0369243 
122.723 -47.6281 0.0369745 
122.821 -47.6249 0.0370248 
122.92 -47.6217 0.037075 
123.019 -47.6185 0.0371252 
123.118 -47.6152 0.0371755 
123.217 -47.612 0.0372257 
123.315 -47.6088 0.0372759 
123.414 -47.6056 0.0373262 
123.513 -47.6023 0.0373764 
123.612 -47.5991 0.0374267 
123.711 -47.5959 0.0374769 
123.809 -47.5927 0.0375271 
123.908 -47.5895 0.0375774 
124.007 -47.5862 0.0376276 
124.106 -47.583 0.0376778 
124.205 -47.5798 0.0377281 
124.303 -47.5766 0.0377783 
124.402 -47.5733 0.0378286 
124.501 -47.5701 0.0378788 
124.6 -47.5669 0.037929 
124.699 -47.5637 0.0379793 
124.797 -47.5604 0.0380295 
124.896 -47.5572 0.0380797 
124.995 -47.554 0.03813 
125.094 -47.5508 0.0381802 
125.193 -47.5476 0.0382305 
125.292 -47.5443 0.0382807 
125.39 -47.5411 0.0383309 
125.489 -47.5379 0.0383812 
125.588 -47.5347 0.0384314 
125.687 -47.5314 0.0384816 
125.786 -47.5282 0.0385319 
125.884 -47.525 0.0385821 
125.983 -47.5218 0.0386323 
126.082 -47.5186 0.0386826 
126.181 -47.5153 0.0387328 
126.28 -47.5121 0.0387831 
126.378 -47.5089 0.0388333 
126.477 -47.5057 0.0388835 
126.576 -47.5024 0.0389338 
126.675 -47.4992 0.038984 
126.774 -47.496 0.0390342 
126.872 -47.4928 0.0390845 
126.971 -47.4895 0.0391347 
127.07 -47.4863 0.039185 
127.169 -47.4831 0.0392352 
127.268 -47.4799 0.0392854 
127.366 -47.4767 0.0393357 
127.465 -47.4734 0.0393859 
127.564 -47.4702 0.0394361 
127.663 -47.467 0.0394864 
127.762 -47.4638 0.0395366 
127.861 -47.4605 0.0395869 
127.959 -47.4573 0.0396371 
128.058 -47.4541 0.0396873 
128.157 -47.4509 0.0397376 
128.256 -47.4477 0.0397878 
128.355 -47.4444 0.039838 
128.453 -47.4412 0.0398883 
128.552 -47.438 0.0399385 
128.651 -47.4348 0.0399888 
128.75 -47.4315 0.040039 
128.849 -47.4283 0.0400892 
128.947 -47.4251 0.0401395 
129.046 -47.4219 0.0401897 
129.145 -47.4186 0.0402399 
129.244 -47.4154 0.0402902 
129.343 -47.4122 0.0403404 
129.441 -47.409 0.0403906 
129.54 -47.4058 0.0404409 
129.639 -47.4025 0.0404911 
129.738 -47.3993 0.0405414 
129.837 -47.3961 0.0405916 
129.935 -47.3929 0.0406418 
130.034 -47.3896 0.0406921 
130.133 -47.3864 0.0407423 
130.232 -47.3832 0.0407925 
130.331 -47.38 0.0408428 
130.43 -47.3768 0.040893 
130.528 -47.3735 0.0409433 
130.627 -47.3703 0.0409935 
130.726 -47.3671 0.0410437 
130.825 -47.3639 0.041094 
130.924 -47.3606 0.0411442 
131.022 -47.3574 0.0411944 
131.121 -47.3542 0.0412447 
131.22 -47.351 0.0412949 
131.319 -47.3478 0.0413452 
131.418 -47.3445 0.0413954 
131.516 -47.3413 0.0414456 
131.615 -47.3381 0.0414959 
131.714 -47.3349 0.0415461 
131.813 -47.3316 0.0415963 
131.912 -47.3284 0.0416466 
132.01 -47.3252 0.0416968 
132.109 -47.322 0.0417471 
132.208 -47.3187 0.0417973 
132.307 -47.3155 0.0418475 
132.406 -47.3123 0.0418978 
132.504 -47.3091 0.041948 
132.603 -47.3059 0.0419982 
132.702 -47.3026 0.0420485 
132.801 -47.2994 0.0420987 
132.9 -47.2962 0.0421489 
132.999 -47.293 0.0421992 
133.097 -47.2897 0.0422494 
133.196 -47.2865 0.0422997 
133.295 -47.2833 0.0423499 
133.394 -47.2801 0.0424001 
133.493 -47.2769 0.0424504 
133.591 -47.2736 0.0425006 
133.69 -47.2704 0.0425508 
133.789 -47.2672 0.0426011 
133.888 -47.264 0.0426513 
133.987 -47.2607 0.0427016 
134.085 -47.2575 0.0427518 
134.184 -47.2543 0.042802 
134.283 -47.2511 0.0428523 
134.382 -47.2478 0.0429025 
134.481 -47.2446 0.0429527 
134.579 -47.2414 0.043003 
134.678 -47.2382 0.0430532 
134.777 -47.235 0.0431035 
134.876 -47.2317 0.0431537 
134.975 -47.2285 0.0432039 
135.073 -47.2253 0.0432542 
135.172 -47.2221 0.0433044 
135.271 -47.2188 0.0433546 
135.37 -47.2156 0.0434049 
135.469 -47.2124 0.0434551 
135.568 -47.2092 0.0435053 
135.666 -47.206 0.0435556 
135.765 -47.2027 0.0436058 
135.864 -47.1995 0.0436561 
135.963 -47.1963 0.0437063 
136.062 -47.1931 0.0437565 
136.16 -47.1898 0.0438068 
136.259 -47.1866 0.043857 
136.358 -47.1834 0.0439072 
136.457 -47.1802 0.0439575 
136.556 -47.177 0.0440077 
136.654 -47.1737 0.044058 
136.753 -47.1705 0.0441082 
136.852 -47.1673 0.0441584 
136.951 -47.1641 0.0442087 
137.05 -47.1608 0.0442589 
137.148 -47.1576 0.0443091 
137.247 -47.1544 0.0443594 
137.346 -47.1512 0.0444096 
137.445 -47.1479 0.0444599 
137.544 -47.1447 0.0445101 
137.642 -47.1415 0.0445603 
137.741 -47.1383 0.0446106 
137.84 -47.1351 0.0446608 
137.939 -47.1318 0.044711 
138.038 -47.1286 0.0447613 
138.137 -47.1254 0.0448115 
138.235 -47.1222 0.0448618 
138.334 -47.1189 0.044912 
138.433 -47.1157 0.0449622 
138.532 -47.1125 0.0450125 
138.631 -47.1093 0.0450627 
138.729 -47.1061 0.0451129 
138.828 -47.1028 0.0451632 
138.927 -47.0996 0.0452134 
139.026 -47.0964 0.0452636 
139.125 -47.0932 0.0453139 
139.223 -47.0899 0.0453641 
139.322 -47.0867 0.0454144 
139.421 -47.0835 0.0454646 
139.52 -47.0803 0.0455148 
139.619 -47.077 0.0455651 
139.717 -47.0738 0.0456153 
139.816 -47.0706 0.0456655 
139.915 -47.0674 0.0457158 
140.014 -47.0642 0.045766 
140.113 -47.0609 0.0458163 
140.211 -47.0577 0.0458665 
140.31 -47.0545 0.0459167 
140.409 -47.0513 0.045967 
140.508 -47.048 0.0460172 
140.607 -47.0448 0.0460674 
140.706 -47.0416 0.0461177 
140.804 -47.0384 0.0461679 
140.903 -47.0352 0.0462182 
141.002 -47.0319 0.0462684 
141.101 -47.0287 0.0463186 
141.2 -47.0255 0.0463689 
141.298 -47.0223 0.0464191 
141.397 -47.019 0.0464693 
141.496 -47.0158 0.0465196 
141.595 -47.0126 0.0465698 
141.694 -47.0094 0.0466201 
141.792 -47.0061 0.0466703 
141.891 -47.0029 0.0467205 
141.99 -46.9997 0.0467708 
142.089 -46.9965 0.046821 
142.188 -46.9933 0.0468712 
142.286 -46.99 0.0469215 
142.385 -46.9868 0.0469717 
142.484 -46.9836 0.0470219 
142.583 -46.9804 0.0470722 
142.682 -46.9771 0.0471224 
142.78 -46.9739 0.0471727 
142.879 -46.9707 0.0472229 
142.978 -46.9675 0.0472731 
143.077 -46.9643 0.0473234 
143.176 -46.961 0.0473736 
143.275 -46.9578 0.0474238 
143.373 -46.9546 0.0474741 
143.472 -46.9514 0.0475243 
143.571 -46.9481 0.0475746 
143.67 -46.9449 0.0476248 
143.769 -46.9417 0.047675 
143.867 -46.9385 0.0477253 
143.966 -46.9353 0.0477755 
144.065 -46.932 0.0478257 
144.164 -46.9288 0.047876 
144.263 -46.9256 0.0479262 
144.361 -46.9224 0.0479765 
144.46 -46.9191 0.0480267 
144.559 -46.9159 0.0480769 
144.658 -46.9127 0.0481272 
144.757 -46.9095 0.0481774 
144.855 -46.9062 0.0482276 
144.954 -46.903 0.0482779 
145.053 -46.8998 0.0483281 
145.152 -46.8966 0.0483784 
145.251 -46.8934 0.0484286 
145.349 -46.8901 0.0484788 
145.448 -46.8869 0.0485291 
145.547 -46.8837 0.0485793 
145.646 -46.8805 0.0486295 
145.745 -46.8772 0.0486798 
145.844 -46.874 0.04873 
145.942 -46.8708 0.0487802 
146.041 -46.8676 0.0488305 
146.14 -46.8644 0.0488807 
146.239 -46.8611 0.048931 
146.338 -46.8579 0.0489812 
146.436 -46.8547 0.0490314 
146.535 -46.8515 0.0490817 
146.634 -46.8482 0.0491319 
146.733 -46.845 0.0491821 
146.832 -46.8418 0.0492324 
146.93 -46.8386 0.0492826 
147.029 -46.8353 0.0493329 
147.128 -46.8321 0.0493831 
147.227 -46.8289 0.0494333 
147.326 -46.8257 0.0494836 
147.424 -46.8225 0.0495338 
147.523 -46.8192 0.049584 
147.622 -46.816 0.0496343 
147.721 -46.8128 0.0496845 
147.82 -46.8096 0.0497348 
147.918 -46.8063 0.049785 
148.017 -46.8031 0.0498352 
148.116 -46.7999 0.0498855 
148.215 -46.7967 0.0499357 
148.314 -46.7935 0.0499859 
148.413 -46.7902 0.0500362 
148.511 -46.787 0.0500864 
148.61 -46.7838 0.0501367 
148.709 -46.7806 0.0501869 
148.808 -46.7773 0.0502371 
148.907 -46.7741 0.0502874 
149.005 -46.7709 0.0503376 
149.104 -46.7677 0.0503878 
149.203 -46.7644 0.0504381 
149.302 -46.7612 0.0504883 
149.401 -46.758 0.0505385 
149.499 -46.7548 0.0505888 
149.598 -46.7516 0.050639 
149.697 -46.7483 0.0506893 
149.796 -46.7451 0.0507395 
149.895 -46.7419 0.0507897 
149.993 -46.7387 0.05084 
150.092 -46.7354 0.0508902 
150.191 -46.7322 0.0509404 
150.29 -46.729 0.0509907 
150.389 -46.7258 0.0510409 
150.487 -46.7226 0.0510912 
150.586 -46.7193 0.0511414 
150.685 -46.7161 0.0511916 
150.784 -46.7129 0.0512419 
150.883 -46.7097 0.0512921 
150.982 -46.7064 0.0513423 
151.08 -46.7032 0.0513926 
151.179 -46.7 0.0514428 
151.278 -46.6968 0.0514931 
151.377 -46.6936 0.0515433 
151.476 -46.6903 0.0515935 
151.574 -46.6871 0.0516438 
151.673 -46.6839 0.051694 
151.772 -46.6807 0.0517442 
151.871 -46.6774 0.0517945 
151.97 -46.6742 0.0518447 
152.068 -46.671 0.0518949 
152.167 -46.6678 0.0519452 
152.266 -46.6645 0.0519954 
152.365 -46.6613 0.0520457 
152.464 -46.6581 0.0520959 
152.562 -46.6549 0.0521461 
152.661 -46.6517 0.0521964 
152.76 -46.6484 0.0522466 
152.859 -46.6452 0.0522968 
152.958 -46.642 0.0523471 
153.056 -46.6388 0.0523973 
153.155 -46.6355 0.0524476 
153.254 -46.6323 0.0524978 
153.353 -46.6291 0.052548 
153.452 -46.6259 0.0525983 
153.551 -46.6227 0.0526485 
153.649 -46.6194 0.0526987 
153.748 -46.6162 0.052749 
153.847 -46.613 0.0527992 
153.946 -46.6098 0.0528495 
154.045 -46.6065 0.0528997 
154.143 -46.6033 0.0529499 
154.242 -46.6001 0.0530002 
154.341 -46.5969 0.0530504 
154.44 -46.5936 0.0531006 
154.539 -46.5904 0.0531509 
154.637 -46.5872 0.0532011 
154.736 -46.584 0.0532514 
154.835 -46.5808 0.0533016 
154.934 -46.5775 0.0533518 
155.033 -46.5743 0.0534021 
155.131 -46.5711 0.0534523 
155.23 -46.5679 0.0535025 
155.329 -46.5646 0.0535528 
155.428 -46.5614 0.053603 
155.527 -46.5582 0.0536532 
155.625 -46.555 0.0537035 
155.724 -46.5518 0.0537537 
155.823 -46.5485 0.053804 
155.922 -46.5453 0.0538542 
156.021 -46.5421 0.0539044 
156.12 -46.5389 0.0539547 
156.218 -46.5356 0.0540049 
156.317 -46.5324 0.0540551 
156.416 -46.5292 0.0541054 
156.515 -46.526 0.0541556 
156.614 -46.5228 0.0542059 
156.712 -46.5195 0.0542561 
156.811 -46.5163 0.0543063 
156.91 -46.5131 0.0543566 
157.009 -46.5099 0.0544068 
157.108 -46.5066 0.054457 
157.206 -46.5034 0.0545073 
157.305 -46.5002 0.0545575 
157.404 -46.497 0.0546078 
157.503 -46.4937 0.054658 
157.602 -46.4905 0.0547082 
157.7 -46.4873 0.0547585 
157.799 -46.4841 0.0548087 
157.898 -46.4809 0.0548589 
157.997 -46.4776 0.0549092 
158.096 -46.4744 0.0549594 
158.194 -46.4712 0.0550097 
158.293 -46.468 0.0550599 
158.392 -46.4647 0.0551101 
158.491 -46.4615 0.0551604 
158.59 -46.4583 0.0552106 
158.689 -46.4551 0.0552608 
158.787 -46.4519 0.0553111 
158.886 -46.4486 0.0553613 
158.985 -46.4454 0.0554115 
159.084 -46.4422 0.0554618 
159.183 -46.439 0.055512 
159.281 -46.4357 0.0555623 
159.38 -46.4325 0.0556125 
159.479 -46.4293 0.0556627 
159.578 -46.4261 0.055713 
159.677 -46.4228 0.0557632 
159.775 -46.4196 0.0558134 
159.874 -46.4164 0.0558637 
159.973 -46.4132 0.0559139 
160.072 -46.41 0.0559642 
160.171 -46.4067 0.0560144 
160.269 -46.4035 0.0560646 
160.368 -46.4003 0.0561149 
160.467 -46.3971 0.0561651 
160.566 -46.3938 0.0562153 
160.665 -46.3906 0.0562656 
160.764 -46.3874 0.0563158 
160.862 -46.3842 0.0563661 
160.961 -46.381 0.0564163 
161.06 -46.3777 0.0564665 
161.159 -46.3745 0.0565168 
161.258 -46.3713 0.056567 
161.356 -46.3681 0.0566172 
161.455 -46.3648 0.0566675 
161.554 -46.3616 0.0567177 
161.653 -46.3584 0.056768 
161.752 -46.3552 0.0568182 
161.85 -46.3519 0.0568684 
161.949 -46.3487 0.0569187 
162.048 -46.3455 0.0569689 
162.147 -46.3423 0.0570191 
162.246 -46.3391 0.0570694 
162.344 -46.3358 0.0571196 
162.443 -46.3326 0.0571698 
162.542 -46.3294 0.0572201 
162.641 -46.3262 0.0572703 
162.74 -46.3229 0.0573206 
162.838 -46.3197 0.0573708 
162.937 -46.3165 0.057421 
163.036 -46.3133 0.0574713 
163.135 -46.3101 0.0575215 
163.234 -46.3068 0.0575717 
163.333 -46.3036 0.057622 
163.431 -46.3004 0.0576722 
163.53 -46.2972 0.0577225 
163.629 -46.2939 0.0577727 
163.728 -46.2907 0.0578229 
163.827 -46.2875 0.0578732 
163.925 -46.2843 0.0579234 
164.024 -46.2811 0.0579736 
164.123 -46.2778 0.0580239 
164.222 -46.2746 0.0580741 
164.321 -46.2714 0.0581244 
164.419 -46.2682 0.0581746 
164.518 -46.2649 0.0582248 
164.617 -46.2617 0.0582751 
164.716 -46.2585 0.0583253 
164.815 -46.2553 0.0583755 
164.913 -46.252 0.0584258 
165.012 -46.2488 0.058476 
165.111 -46.2456 0.0585263 
165.21 -46.2424 0.0585765 
165.309 -46.2392 0.0586267 
165.407 -46.2359 0.058677 
165.506 -46.2327 0.0587272 
165.605 -46.2295 0.0587774 
165.704 -46.2263 0.0588277 
165.803 -46.223 0.0588779 
165.902 -46.2198 0.0589281 
166 -46.2166 0.0589784 
166.099 -46.2134 0.0590286 
166.198 -46.2102 0.0590789 
166.297 -46.2069 0.0591291 
166.396 -46.2037 0.0591793 
166.494 -46.2005 0.0592296 
166.593 -46.1973 0.0592798 
166.692 -46.194 0.05933 
166.791 -46.1908 0.0593803 
166.89 -46.1876 0.0594305 
166.988 -46.1844 0.0594808 
167.087 -46.1811 0.059531 
167.186 -46.1779 0.0595812 
167.285 -46.1747 0.0596315 
167.384 -46.1715 0.0596817 
167.482 -46.1683 0.0597319 
167.581 -46.165 0.0597822 
167.68 -46.1618 0.0598324 
167.779 -46.1586 0.0598827 
167.878 -46.1554 0.0599329 
167.976 -46.1521 0.0599831 
168.075 -46.1489 0.0600334 
168.174 -46.1457 0.0600836 
168.273 -46.1425 0.0601338 
168.372 -46.1393 0.0601841 
168.471 -46.136 0.0602343 
168.569 -46.1328 0.0602845 
168.668 -46.1296 0.0603348 
168.767 -46.1264 0.060385 
168.866 -46.1231 0.0604353 
168.965 -46.1199 0.0604855 
169.063 -46.1167 0.0605357 
169.162 -46.1135 0.060586 
169.261 -46.1102 0.0606362 
169.36 -46.107 0.0606864 
169.459 -46.1038 0.0607367 
169.557 -46.1006 0.0607869 
169.656 -46.0974 0.0608372 
169.755 -46.0941 0.0608874 
169.854 -46.0909 0.0609376 
169.953 -46.0877 0.0609879 
170.051 -46.0845 0.0610381 
170.15 -46.0812 0.0610883 
170.249 -46.078 0.0611386 
170.348 -46.0748 0.0611888 
170.447 -46.0716 0.0612391 
170.545 -46.0684 0.0612893 
170.644 -46.0651 0.0613395 
170.743 -46.0619 0.0613898 
170.842 -46.0587 0.06144 
170.941 -46.0555 0.0614902 
171.04 -46.0522 0.0615405 
171.138 -46.049 0.0615907 
171.237 -46.0458 0.061641 
171.336 -46.0426 0.0616912 
171.435 -46.0394 0.0617414 
171.534 -46.0361 0.0617917 
171.632 -46.0329 0.0618419 
171.731 -46.0297 0.0618921 
171.83 -46.0265 0.0619424 
171.929 -46.0232 0.0619926 
172.028 -46.02 0.0620428 
172.126 -46.0168 0.0620931 
172.225 -46.0136 0.0621433 
172.324 -46.0103 0.0621936 
172.423 -46.0071 0.0622438 
172.522 -46.0039 0.062294 
172.62 -46.0007 0.0623443 
172.719 -45.9975 0.0623945 
172.818 -45.9942 0.0624447 
172.917 -45.991 0.062495 
173.016 -45.9878 0.0625452 
173.114 -45.9846 0.0625955 
173.213 -45.9813 0.0626457 
173.312 -45.9781 0.0626959 
173.411 -45.9749 0.0627462 
173.51 -45.9717 0.0627964 
173.609 -45.9685 0.0628466 
173.707 -45.9652 0.0628969 
173.806 -45.962 0.0629471 
173.905 -45.9588 0.0629974 
174.004 -45.9556 0.0630476 
174.103 -45.9523 0.0630978 
174.201 -45.9491 0.0631481 
174.3 -45.9459 0.0631983 
174.399 -45.9427 0.0632485 
174.498 -45.9394 0.0632988 
174.597 -45.9362 0.063349 
174.695 -45.933 0.0633993 
174.794 -45.9298 0.0634495 
174.893 -45.9266 0.0634997 
174.992 -45.9233 0.06355 
175.091 -45.9201 0.0636002 
175.189 -45.9169 0.0636504 
175.288 -45.9137 0.0637007 
175.387 -45.9104 0.0637509 
175.486 -45.9072 0.0638011 
175.585 -45.904 0.0638514 
175.683 -45.9008 0.0639016 
175.782 -45.8976 0.0639519 
175.881 -45.8943 0.0640021 
175.98 -45.8911 0.0640523 
176.079 -45.8879 0.0641026 
176.178 -45.8847 0.0641528 
176.276 -45.8814 0.064203 
176.375 -45.8782 0.0642533 
176.474 -45.875 0.0643035 
176.573 -45.8718 0.0643538 
176.672 -45.8686 0.064404 
176.77 -45.8653 0.0644542 
176.869 -45.8621 0.0645045 
176.968 -45.8589 0.0645547 
177.067 -45.8557 0.0646049 
177.166 -45.8524 0.0646552 
177.264 -45.8492 0.0647054 
177.363 -45.846 0.0647557 
177.462 -45.8428 0.0648059 
177.561 -45.8395 0.0648561 
177.66 -45.8363 0.0649064 
177.758 -45.8331 0.0649566 
177.857 -45.8299 0.0650068 
177.956 -45.8267 0.0650571 
178.055 -45.8234 0.0651073 
178.154 -45.8202 0.0651576 
178.252 -45.817 0.0652078 
178.351 -45.8073 0.065258 
178.449 -45.7977 0.0653083 
178.548 -45.788 0.0653585 
178.646 -45.7784 0.0654087 
178.744 -45.7687 0.065459 
178.843 -45.7591 0.0655092 
178.941 -45.7494 0.0655594 
179.04 -45.7398 0.0656097 
179.138 -45.7301 0.0656599 
179.236 -45.7204 0.0657102 
179.335 -45.7108 0.0657604 
179.433 -45.7011 0.0658106 
179.532 -45.6915 0.0658609 
179.63 -45.6818 0.0659111 
179.728 -45.6722 0.0659613 
179.827 -45.6625 0.0660116 
179.925 -45.6529 0.0660618 
180.023 -45.6432 0.0661121 
180.122 -45.6336 0.0661623 
180.22 -45.6239 0.0662125 
180.319 -45.6142 0.0662628 
180.417 -45.6046 0.066313 
180.515 -45.5949 0.0663632 
180.614 -45.5853 0.0664135 
180.712 -45.5756 0.0664637 
180.811 -45.566 0.066514 
180.909 -45.5563 0.0665642 
181.007 -45.5467 0.0666144 
181.106 -45.537 0.0666647 
181.204 -45.5274 0.0667149 
181.302 -45.5177 0.0667651 
181.401 -45.5081 0.0668154 
181.499 -45.4984 0.0668656 
181.598 -45.4887 0.0669158 
181.696 -45.4791 0.0669661 
181.794 -45.4694 0.0670163 
181.893 -45.4598 0.0670666 
181.991 -45.4501 0.0671168 
182.09 -45.4405 0.067167 
182.188 -45.4308 0.0672173 
182.286 -45.4212 0.0672675 
182.385 -45.4115 0.0673177 
182.483 -45.4019 0.067368 
182.582 -45.3922 0.0674182 
182.68 -45.3825 0.0674685 
182.778 -45.3729 0.0675187 
182.877 -45.3632 0.0675689 
182.975 -45.3536 0.0676192 
183.073 -45.3439 0.0676694 
183.172 -45.3343 0.0677196 
183.27 -45.3246 0.0677699 
183.369 -45.315 0.0678201 
183.467 -45.3053 0.0678704 
183.565 -45.2957 0.0679206 
183.664 -45.286 0.0679708 
183.762 -45.2763 0.0680211 
183.861 -45.2667 0.0680713 
183.959 -45.257 0.0681215 
184.057 -45.2474 0.0681718 
184.156 -45.2377 0.068222 
184.254 -45.2281 0.0682723 
184.353 -45.2184 0.0683225 
184.451 -45.2088 0.0683727 
184.549 -45.1991 0.068423 
184.648 -45.1895 0.0684732 
184.746 -45.1798 0.0685234 
184.844 -45.1702 0.0685737 
184.943 -45.1605 0.0686239 
185.041 -45.1508 0.0686741 
185.14 -45.1412 0.0687244 
185.238 -45.1315 0.0687746 
185.336 -45.1219 0.0688249 
185.435 -45.1122 0.0688751 
185.533 -45.1026 0.0689253 
185.632 -45.0929 0.0689756 
185.73 -45.0833 0.0690258 
185.828 -45.0736 0.069076 
185.927 -45.064 0.0691263 
186.025 -45.0543 0.0691765 
186.123 -45.0446 0.0692268 
186.222 -45.035 0.069277 
186.32 -45.0253 0.0693272 
186.419 -45.0157 0.0693775 
186.517 -45.006 0.0694277 
186.615 -44.9964 0.0694779 
186.714 -44.9867 0.0695282 
186.812 -44.9771 0.0695784 
186.911 -44.9674 0.0696287 
187.009 -44.9578 0.0696789 
187.107 -44.9481 0.0697291 
187.206 -44.9384 0.0697794 
187.304 -44.9288 0.0698296 
187.403 -44.9191 0.0698798 
187.501 -44.9095 0.0699301 
187.599 -44.8998 0.0699803 
187.698 -44.8902 0.0700306 
187.796 -44.8805 0.0700808 
187.894 -44.8709 0.070131 
187.993 -44.8612 0.0701813 
188.091 -44.8516 0.0702315 
188.19 -44.8419 0.0702817 
188.288 -44.8323 0.070332 
188.386 -44.8226 0.0703822 
188.485 -44.8129 0.0704324 
188.583 -44.8033 0.0704827 
188.682 -44.7936 0.0705329 
188.78 -44.784 0.0705832 
188.878 -44.7743 0.0706334 
188.977 -44.7647 0.0706836 
189.075 -44.755 0.0707339 
189.174 -44.7454 0.0707841 
189.272 -44.7357 0.0708343 
189.37 -44.7261 0.0708846 
189.469 -44.7164 0.0709348 
189.567 -44.7067 0.0709851 
189.665 -44.6971 0.0710353 
189.764 -44.6874 0.0710855 
189.862 -44.6778 0.0711358 
189.961 -44.6681 0.071186 
190.059 -44.6585 0.0712362 
190.157 -44.6488 0.0712865 
190.256 -44.6392 0.0713367 
190.354 -44.6295 0.071387 
190.453 -44.6199 0.0714372 
190.551 -44.6102 0.0714874 
190.649 -44.6005 0.0715377 
190.748 -44.5909 0.0715879 
190.846 -44.5812 0.0716381 
190.944 -44.5716 0.0716884 
191.043 -44.5619 0.0717386 
191.141 -44.5523 0.0717889 
191.24 -44.5426 0.0718391 
191.338 -44.533 0.0718893 
191.436 -44.5233 0.0719396 
191.535 -44.5137 0.0719898 
191.633 -44.504 0.07204 
191.732 -44.4944 0.0720903 
191.83 -44.4847 0.0721405 
191.928 -44.475 0.0721907 
192.027 -44.4654 0.072241 
192.125 -44.4557 0.0722912 
192.224 -44.4461 0.0723415 
192.322 -44.4364 0.0723917 
192.42 -44.4268 0.0724419 
192.519 -44.4171 0.0724922 
192.617 -44.4075 0.0725424 
192.715 -44.3978 0.0725926 
192.814 -44.3882 0.0726429 
192.912 -44.3785 0.0726931 
193.011 -44.3688 0.0727434 
193.109 -44.3592 0.0727936 
193.207 -44.3495 0.0728438 
193.306 -44.3399 0.0728941 
193.404 -44.3302 0.0729443 
193.503 -44.3206 0.0729945 
193.601 -44.3109 0.0730448 
193.699 -44.3013 0.073095 
193.798 -44.2916 0.0731453 
193.896 -44.282 0.0731955 
193.995 -44.2723 0.0732457 
194.093 -44.2626 0.073296 
194.191 -44.253 0.0733462 
194.29 -44.2433 0.0733964 
194.388 -44.2337 0.0734467 
194.486 -44.224 0.0734969 
194.585 -44.2144 0.0735472 
194.683 -44.2047 0.0735974 
194.782 -44.1951 0.0736476 
194.88 -44.1854 0.0736979 
194.978 -44.1758 0.0737481 
195.077 -44.1661 0.0737983 
195.175 -44.1565 0.0738486 
195.274 -44.1468 0.0738988 
195.372 -44.1371 0.073949 
195.47 -44.1275 0.0739993 
195.569 -44.1178 0.0740495 
195.667 -44.1082 0.0740998 
195.765 -44.0985 0.07415 
195.864 -44.0889 0.0742002 
195.962 -44.0792 0.0742505 
196.061 -44.0696 0.0743007 
196.159 -44.0599 0.0743509 
196.257 -44.0503 0.0744012 
196.356 -44.0406 0.0744514 
196.454 -44.0309 0.0745017 
196.553 -44.0213 0.0745519 
196.651 -44.0116 0.0746021 
196.749 -44.002 0.0746524 
196.848 -43.9923 0.0747026 
196.946 -43.9827 0.0747528 
197.045 -43.973 0.0748031 
197.143 -43.9634 0.0748533 
197.241 -43.9537 0.0749036 
197.34 -43.9441 0.0749538 
197.438 -43.9344 0.075004 
197.536 -43.9247 0.0750543 
197.635 -43.9151 0.0751045 
197.733 -43.9054 0.0751547 
197.832 -43.8958 0.075205 
197.93 -43.8861 0.0752552 
198.028 -43.8765 0.0753054 
198.127 -43.8668 0.0753557 
198.225 -43.8572 0.0754059 
198.324 -43.8475 0.0754562 
198.422 -43.8379 0.0755064 
198.52 -43.8282 0.0755566 
198.619 -43.8186 0.0756069 
198.717 -43.8089 0.0756571 
198.816 -43.7992 0.0757073 
198.914 -43.7896 0.0757576 
199.012 -43.7799 0.0758078 
199.111 -43.7703 0.0758581 
199.209 -43.7606 0.0759083 
199.307 -43.751 0.0759585 
199.406 -43.7413 0.0760088 
199.504 -43.7317 0.076059 
199.603 -43.722 0.0761092 
199.701 -43.7124 0.0761595 
199.799 -43.7027 0.0762097 
199.898 -43.693 0.07626 
199.996 -43.6834 0.0763102 
200.095 -43.6737 0.0763604 
200.193 -43.6641 0.0764107 
200.291 -43.6544 0.0764609 
200.39 -43.6448 0.0765111 
200.488 -43.6351 0.0765614 
200.586 -43.6255 0.0766116 
200.685 -43.6158 0.0766619 
200.783 -43.6062 0.0767121 
200.882 -43.5965 0.0767623 
200.98 -43.5868 0.0768126 
201.078 -43.5772 0.0768628 
201.177 -43.5675 0.076913 
201.275 -43.5579 0.0769633 
201.374 -43.5482 0.0770135 
201.472 -43.5386 0.0770637 
201.57 -43.5289 0.077114 
201.669 -43.5193 0.0771642 
201.767 -43.5096 0.0772145 
201.866 -43.5 0.0772647 
201.964 -43.4903 0.0773149 
202.062 -43.4807 0.0773652 
202.161 -43.471 0.0774154 
202.259 -43.4613 0.0774656 
202.357 -43.4517 0.0775159 
202.456 -43.442 0.0775661 
202.554 -43.4324 0.0776164 
202.653 -43.4227 0.0776666 
202.751 -43.4131 0.0777168 
202.849 -43.4034 0.0777671 
202.948 -43.3938 0.0778173 
203.046 -43.3841 0.0778675 
203.145 -43.3745 0.0779178 
203.243 -43.3648 0.077968 
203.341 -43.3551 0.0780183 
203.44 -43.3455 0.0780685 
203.538 -43.3358 0.0781187 
203.637 -43.3262 0.078169 
203.735 -43.3165 0.0782192 
203.833 -43.3069 0.0782694 
203.932 -43.2972 0.0783197 
204.03 -43.2876 0.0783699 
204.128 -43.2779 0.0784202 
204.227 -43.2683 0.0784704 
204.325 -43.2586 0.0785206 
204.424 -43.2489 0.0785709 
204.522 -43.2393 0.0786211 
204.62 -43.2296 0.0786713 
204.719 -43.22 0.0787216 
204.817 -43.2103 0.0787718 
204.916 -43.2007 0.078822 
205.014 -43.191 0.0788723 
205.112 -43.1814 0.0789225 
205.211 -43.1717 0.0789728 
205.309 -43.1621 0.079023 
205.407 -43.1524 0.0790732 
205.506 -43.1428 0.0791235 
205.604 -43.1331 0.0791737 
205.703 -43.1234 0.0792239 
205.801 -43.1138 0.0792742 
205.899 -43.1041 0.0793244 
205.998 -43.0945 0.0793747 
206.096 -43.0848 0.0794249 
206.195 -43.0752 0.0794751 
206.293 -43.0655 0.0795254 
206.391 -43.0559 0.0795756 
206.49 -43.0462 0.0796258 
206.588 -43.0366 0.0796761 
206.687 -43.0269 0.0797263 
206.785 -43.0172 0.0797766 
206.883 -43.0076 0.0798268 
206.982 -42.9979 0.079877 
207.08 -42.9883 0.0799273 
207.178 -42.9786 0.0799775 
207.277 -42.969 0.0800277 
207.375 -42.9593 0.080078 
207.474 -42.9497 0.0801282 
207.572 -42.94 0.0801785 
207.67 -42.9304 0.0802287 
207.769 -42.9207 0.0802789 
207.867 -42.911 0.0803292 
207.966 -42.9014 0.0803794 
208.064 -42.8917 0.0804296 
208.162 -42.8821 0.0804799 
208.261 -42.8724 0.0805301 
208.359 -42.8628 0.0805803 
208.458 -42.8531 0.0806306 
208.556 -42.8435 0.0806808 
208.654 -42.8338 0.0807311 
208.753 -42.8242 0.0807813 
208.851 -42.8145 0.0808315 
208.949 -42.8049 0.0808818 
209.048 -42.7952 0.080932 
209.146 -42.7855 0.0809822 
209.245 -42.7759 0.0810325 
209.343 -42.7662 0.0810827 
209.441 -42.7566 0.081133 
209.54 -42.7469 0.0811832 
209.638 -42.7373 0.0812334 
209.737 -42.7276 0.0812837 
209.835 -42.718 0.0813339 
209.933 -42.7083 0.0813841 
210.032 -42.6987 0.0814344 
210.13 -42.689 0.0814846 
210.229 -42.6793 0.0815349 
210.327 -42.6697 0.0815851 
210.425 -42.66 0.0816353 
210.524 -42.6504 0.0816856 
210.622 -42.6407 0.0817358 
210.72 -42.6311 0.081786 
210.819 -42.6214 0.0818363 
210.917 -42.6118 0.0818865 
211.016 -42.6021 0.0819368 
211.114 -42.5925 0.081987 
211.212 -42.5828 0.0820372 
211.311 -42.5731 0.0820875 
211.409 -42.5635 0.0821377 
211.508 -42.5538 0.0821879 
211.606 -42.5442 0.0822382 
211.704 -42.5345 0.0822884 
211.803 -42.5249 0.0823386 
211.901 -42.5152 0.0823889 
211.999 -42.5056 0.0824391 
212.098 -42.4959 0.0824894 
212.196 -42.4863 0.0825396 
212.295 -42.4766 0.0825898 
212.393 -42.467 0.0826401 
212.491 -42.4573 0.0826903 
212.59 -42.4476 0.0827405 
212.688 -42.438 0.0827908 
212.787 -42.4283 0.082841 
212.885 -42.4187 0.0828913 
212.983 -42.409 0.0829415 
213.082 -42.3994 0.0829917 
213.18 -42.3897 0.083042 
213.279 -42.3801 0.0830922 
213.377 -42.3704 0.0831424 
213.475 -42.3608 0.0831927 
213.574 -42.3511 0.0832429 
213.672 -42.3414 0.0832932 
213.77 -42.3318 0.0833434 
213.869 -42.3221 0.0833936 
213.967 -42.3125 0.0834439 
214.066 -42.3028 0.0834941 
214.164 -42.2932 0.0835443 
214.262 -42.2835 0.0835946 
214.361 -42.2739 0.0836448 
214.459 -42.2642 0.083695 
214.558 -42.2546 0.0837453 
214.656 -42.2449 0.0837955 
214.754 -42.2352 0.0838458 
214.853 -42.2256 0.083896 
214.951 -42.2159 0.0839462 
215.05 -42.2063 0.0839965 
215.148 -42.1966 0.0840467 
215.246 -42.187 0.0840969 
215.345 -42.1773 0.0841472 
215.443 -42.1677 0.0841974 
215.541 -42.158 0.0842477 
215.64 -42.1484 0.0842979 
215.738 -42.1387 0.0843481 
215.837 -42.1291 0.0843984 
215.935 -42.1194 0.0844486 
216.033 -42.1097 0.0844988 
216.132 -42.1001 0.0845491 
216.23 -42.0904 0.0845993 
216.329 -42.0808 0.0846496 
216.427 -42.0711 0.0846998 
216.525 -42.0615 0.08475 
216.624 -42.0518 0.0848003 
216.722 -42.0422 0.0848505 
216.82 -42.0325 0.0849007 
216.919 -42.0229 0.084951 
217.017 -42.0132 0.0850012 
217.116 -42.0035 0.0850515 
217.214 -41.9939 0.0851017 
217.312 -41.9842 0.0851519 
217.411 -41.9746 0.0852022 
217.509 -41.9649 0.0852524 
217.608 -41.9553 0.0853026 
217.706 -41.9456 0.0853529 
217.804 -41.936 0.0854031 
217.903 -41.9263 0.0854533 
218.001 -41.9167 0.0855036 
218.1 -41.907 0.0855538 
218.198 -41.8973 0.0856041 
218.296 -41.8877 0.0856543 
218.395 -41.878 0.0857045 
218.493 -41.8684 0.0857548 
218.591 -41.8587 0.085805 
218.69 -41.8491 0.0858552 
218.788 -41.8394 0.0859055 
218.887 -41.8298 0.0859557 
218.985 -41.8201 0.086006 
219.083 -41.8105 0.0860562 
219.182 -41.8008 0.0861064 
219.28 -41.7912 0.0861567 
219.379 -41.7815 0.0862069 
219.477 -41.7718 0.0862571 
219.575 -41.7622 0.0863074 
219.674 -41.7525 0.0863576 
219.772 -41.7429 0.0864079 
219.871 -41.7332 0.0864581 
219.969 -41.7236 0.0865083 
220.067 -41.7139 0.0865586 
220.166 -41.7043 0.0866088 
220.264 -41.6946 0.086659 
220.362 -41.685 0.0867093 
220.461 -41.6753 0.0867595 
220.559 -41.6656 0.0868098 
220.658 -41.656 0.08686 
220.756 -41.6463 0.0869102 
220.854 -41.6367 0.0869605 
220.953 -41.627 0.0870107 
221.051 -41.6174 0.0870609 
221.15 -41.6077 0.0871112 
221.248 -41.5981 0.0871614 
221.346 -41.5884 0.0872116 
221.445 -41.5788 0.0872619 
221.543 -41.5691 0.0873121 
221.641 -41.5594 0.0873624 
221.74 -41.5498 0.0874126 
221.838 -41.5401 0.0874628 
221.937 -41.5305 0.0875131 
222.035 -41.5208 0.0875633 
222.133 -41.5112 0.0876135 
222.232 -41.5015 0.0876638 
222.33 -41.4919 0.087714 
222.429 -41.4822 0.0877643 
222.527 -41.4726 0.0878145 
222.625 -41.4629 0.0878647 
222.724 -41.4533 0.087915 
222.822 -41.4436 0.0879652 
222.921 -41.4339 0.0880154 
223.019 -41.4243 0.0880657 
223.117 -41.4146 0.0881159 
223.216 -41.405 0.0881662 
223.314 -41.3953 0.0882164 
223.412 -41.3857 0.0882666 
223.511 -41.376 0.0883169 
223.609 -41.3664 0.0883671 
223.708 -41.3567 0.0884173 
223.806 -41.3471 0.0884676 
223.904 -41.3374 0.0885178 
224.003 -41.3277 0.0885681 
224.101 -41.3181 0.0886183 
224.2 -41.3084 0.0886685 
224.298 -41.2988 0.0887188 
224.396 -41.2891 0.088769 
224.495 -41.2795 0.0888192 
224.593 -41.2698 0.0888695 
224.692 -41.2602 0.0889197 
224.79 -41.2505 0.0889699 
224.888 -41.2409 0.0890202 
224.987 -41.2312 0.0890704 
225.085 -41.2215 0.0891207 
225.183 -41.2119 0.0891709 
225.282 -41.2022 0.0892211 
225.38 -41.1926 0.0892714 
225.479 -41.1829 0.0893216 
225.577 -41.1733 0.0893718 
225.675 -41.1636 0.0894221 
225.774 -41.154 0.0894723 
225.872 -41.1443 0.0895226 
225.971 -41.1347 0.0895728 
226.069 -41.125 0.089623 
226.167 -41.1154 0.0896733 
226.266 -41.1057 0.0897235 
226.364 -41.096 0.0897737 
226.462 -41.0864 0.089824 
226.561 -41.0767 0.0898742 
226.659 -41.0671 0.0899245 
226.758 -41.0574 0.0899747 
226.856 -41.0478 0.0900249 
226.954 -41.0381 0.0900752 
227.053 -41.0285 0.0901254 
227.151 -41.0188 0.0901756 
227.25 -41.0092 0.0902259 
227.348 -40.9995 0.0902761 
227.446 -40.9898 0.0903263 
227.545 -40.9802 0.0903766 
227.643 -40.9705 0.0904268 
227.742 -40.9609 0.0904771 
227.84 -40.9512 0.0905273 
227.938 -40.9416 0.0905775 
228.037 -40.9319 0.0906278 
228.135 -40.9223 0.090678 
228.233 -40.9126 0.0907282 
228.332 -40.903 0.0907785 
228.43 -40.8933 0.0908287 
228.529 -40.8836 0.090879 
228.627 -40.874 0.0909292 
228.725 -40.8643 0.0909794 
228.824 -40.8547 0.0910297 
228.922 -40.845 0.0910799 
229.021 -40.8354 0.0911301 
229.119 -40.8257 0.0911804 
229.217 -40.8161 0.0912306 
229.316 -40.8064 0.0912809 
229.414 -40.7968 0.0913311 
229.513 -40.7871 0.0913813 
229.611 -40.7775 0.0914316 
229.709 -40.7678 0.0914818 
229.808 -40.7581 0.091532 
229.906 -40.7485 0.0915823 
230.004 -40.7388 0.0916325 
230.103 -40.7292 0.0916828 
230.201 -40.7195 0.091733 
230.3 -40.7099 0.0917832 
230.398 -40.7002 0.0918335 
230.496 -40.6906 0.0918837 
230.595 -40.6809 0.0919339 
230.693 -40.6713 0.0919842 
230.792 -40.6616 0.0920344 
230.89 -40.6519 0.0920846 
230.988 -40.6423 0.0921349 
231.087 -40.6326 0.0921851 
231.185 -40.623 0.0922354 
231.283 -40.6133 0.0922856 
231.382 -40.6037 0.0923358 
231.48 -40.594 0.0923861 
231.579 -40.5844 0.0924363 
231.677 -40.5747 0.0924865 
231.775 -40.5651 0.0925368 
231.874 -40.5554 0.092587 
231.972 -40.5458 0.0926373 
232.071 -40.5361 0.0926875 
232.169 -40.5264 0.0927377 
232.267 -40.5168 0.092788 
232.366 -40.5071 0.0928382 
232.464 -40.4975 0.0928884 
232.563 -40.4878 0.0929387 
232.661 -40.4782 0.0929889 
232.759 -40.4685 0.0930392 
232.858 -40.4589 0.0930894 
232.956 -40.4492 0.0931396 
233.054 -40.4396 0.0931899 
233.153 -40.4299 0.0932401 
233.251 -40.4202 0.0932903 
233.35 -40.4106 0.0933406 
233.448 -40.4009 0.0933908 
233.546 -40.3913 0.0934411 
233.645 -40.3816 0.0934913 
233.743 -40.372 0.0935415 
233.842 -40.3623 0.0935918 
233.94 -40.3527 0.093642 
234.038 -40.343 0.0936922 
234.137 -40.3334 0.0937425 
234.235 -40.3237 0.0937927 
234.334 -40.314 0.0938429 
234.432 -40.3044 0.0938932 
234.53 -40.2947 0.0939434 
234.629 -40.2851 0.0939937 
234.727 -40.2754 0.0940439 
234.825 -40.2658 0.0940941 
234.924 -40.2561 0.0941444 
235.022 -40.2465 0.0941946 
235.121 -40.2368 0.0942448 
235.219 -40.2272 0.0942951 
235.317 -40.2175 0.0943453 
235.416 -40.2079 0.0943956 
235.514 -40.1982 0.0944458 
235.613 -40.1885 0.094496 
235.711 -40.1789 0.0945463 
235.809 -40.1692 0.0945965 
235.908 -40.1596 0.0946467 
236.006 -40.1499 0.094697 
236.104 -40.1403 0.0947472 
236.203 -40.1306 0.0947975 
236.301 -40.121 0.0948477 
236.4 -40.1113 0.0948979 
236.498 -40.1017 0.0949482 
236.596 -40.092 0.0949984 
236.695 -40.0823 0.0950486 
236.793 -40.0727 0.0950989 
236.892 -40.063 0.0951491 
236.99 -40.0534 0.0951994 
237.088 -40.0437 0.0952496 
237.187 -40.0341 0.0952998 
237.285 -40.0244 0.0953501 
237.384 -40.0148 0.0954003 
237.482 -40.0051 0.0954505 
237.58 -39.9955 0.0955008 
237.679 -39.9858 0.095551 
237.777 -39.9761 0.0956012 
237.875 -39.9665 0.0956515 
237.974 -39.9568 0.0957017 
238.072 -39.9472 0.095752 
238.171 -39.9375 0.0958022 
238.269 -39.9279 0.0958524 
238.367 -39.9182 0.0959027 
238.466 -39.9086 0.0959529 
238.564 -39.8989 0.0960031 
238.663 -39.8893 0.0960534 
238.761 -39.8796 0.0961036 
238.859 -39.87 0.0961539 
238.958 -39.8603 0.0962041 
239.056 -39.8506 0.0962543 
239.155 -39.841 0.0963046 
239.253 -39.8313 0.0963548 
239.351 -39.8217 0.096405 
239.45 -39.812 0.0964553 
239.548 -39.8024 0.0965055 
239.646 -39.7927 0.0965558 
239.745 -39.7831 0.096606 
239.843 -39.7734 0.0966562 
239.942 -39.7638 0.0967065 
240.04 -39.7541 0.0967567 
240.138 -39.7444 0.0968069 
240.237 -39.7348 0.0968572 
240.335 -39.7251 0.0969074 
240.434 -39.7155 0.0969577 
240.532 -39.7058 0.0970079 
240.63 -39.6962 0.0970581 
240.729 -39.6865 0.0971084 
240.827 -39.6769 0.0971586 
240.925 -39.6672 0.0972088 
241.024 -39.6576 0.0972591 
241.122 -39.6479 0.0973093 
241.221 -39.6382 0.0973595 
241.319 -39.6286 0.0974098 
241.417 -39.6189 0.09746 
241.516 -39.6093 0.0975103 
241.614 -39.5996 0.0975605 
241.713 -39.59 0.0976107 
241.811 -39.5803 0.097661 
241.909 -39.5707 0.0977112 
242.008 -39.561 0.0977614 
242.106 -39.5514 0.0978117 
242.205 -39.5417 0.0978619 
242.303 -39.5321 0.0979122 
242.401 -39.5224 0.0979624 
242.5 -39.5127 0.0980126 
242.598 -39.5031 0.0980629 
242.696 -39.4934 0.0981131 
242.795 -39.4838 0.0981633 
242.893 -39.4741 0.0982136 
242.992 -39.4645 0.0982638 
243.09 -39.4548 0.0983141 
243.188 -39.4452 0.0983643 
243.287 -39.4355 0.0984145 
243.385 -39.4259 0.0984648 
243.484 -39.4162 0.098515 
243.582 -39.4065 0.0985652 
243.68 -39.3969 0.0986155 
243.779 -39.3872 0.0986657 
243.877 -39.3776 0.0987159 
243.976 -39.3679 0.0987662 
244.074 -39.3583 0.0988164 
244.172 -39.3486 0.0988667 
244.271 -39.339 0.0989169 
244.369 -39.3293 0.0989671 
244.467 -39.3197 0.0990174 
244.566 -39.31 0.0990676 
244.664 -39.3003 0.0991178 
244.763 -39.2907 0.0991681 
244.861 -39.281 0.0992183 
244.959 -39.2714 0.0992686 
245.058 -39.2617 0.0993188 
245.156 -39.2521 0.099369 
245.255 -39.2424 0.0994193 
245.353 -39.2328 0.0994695 
245.451 -39.2231 0.0995197 
245.55 -39.2135 0.09957 
245.648 -39.2038 0.0996202 
245.746 -39.1942 0.0996705 
245.845 -39.1845 0.0997207 
245.943 -39.1748 0.0997709 
246.042 -39.1652 0.0998212 
246.14 -39.1555 0.0998714 
246.238 -39.1459 0.0999216 
246.337 -39.1362 0.0999719 
246.435 -39.1266 0.100022 
246.534 -39.1169 0.100072 
246.632 -39.1073 0.100123 
246.73 -39.0976 0.100173 
246.829 -39.088 0.100223 
246.927 -39.0783 0.100273 
247.026 -39.0686 0.100324 
247.124 -39.059 0.100374 
247.222 -39.0493 0.100424 
247.321 -39.0397 0.100474 
247.419 -39.03 0.100524 
247.517 -39.0204 0.100575 
247.616 -39.0107 0.100625 
247.714 -39.0011 0.100675 
247.813 -38.9914 0.100725 
247.911 -38.9818 0.100776 
248.009 -38.9721 0.100826 
248.108 -38.9624 0.100876 
248.206 -38.9528 0.100926 
248.305 -38.9431 0.100977 
248.403 -38.9335 0.101027 
248.501 -38.9238 0.101077 
248.6 -38.9142 0.101127 
248.698 -38.9045 0.101178 
248.797 -38.8949 0.101228 
248.895 -38.8852 0.101278 
248.993 -38.8756 0.101328 
249.092 -38.8659 0.101379 
249.19 -38.8563 0.101429 
249.288 -38.8466 0.101479 
249.387 -38.8369 0.101529 
249.485 -38.8273 0.101579 
249.584 -38.8176 0.10163 
249.682 -38.808 0.10168 
249.78 -38.7983 0.10173 
249.879 -38.7887 0.10178 
249.977 -38.779 0.101831 
250.076 -38.7694 0.101881 
250.174 -38.7597 0.101931 
250.272 -38.7501 0.101981 
250.371 -38.7404 0.102032 
250.469 -38.7307 0.102082 
250.567 -38.7211 0.102132 
250.666 -38.7114 0.102182 
250.764 -38.7018 0.102233 
250.863 -38.6921 0.102283 
250.961 -38.6825 0.102333 
251.059 -38.6728 0.102383 
251.158 -38.6632 0.102433 
251.256 -38.6535 0.102484 
251.355 -38.6439 0.102534 
251.453 -38.6342 0.102584 
251.551 -38.6245 0.102634 
251.65 -38.6149 0.102685 
251.748 -38.6052 0.102735 
251.847 -38.5956 0.102785 
251.945 -38.5859 0.102835 
252.043 -38.5763 0.102886 
252.142 -38.5666 0.102936 
252.24 -38.557 0.102986 
252.338 -38.5473 0.103036 
252.437 -38.5377 0.103087 
252.535 -38.528 0.103137 
252.634 -38.5184 0.103187 
252.732 -38.5087 0.103237 
252.83 -38.499 0.103288 
252.929 -38.4894 0.103338 
253.027 -38.4797 0.103388 
253.126 -38.4701 0.103438 
253.224 -38.4604 0.103488 
253.322 -38.4508 0.103539 
253.421 -38.4411 0.103589 
253.519 -38.4315 0.103639 
253.618 -38.4218 0.103689 
253.716 -38.4122 0.10374 
253.814 -38.4025 0.10379 
253.913 -38.3928 0.10384 
254.011 -38.3832 0.10389 
254.109 -38.3735 0.103941 
254.208 -38.3639 0.103991 
254.306 -38.3542 0.104041 
254.405 -38.3446 0.104091 
254.503 -38.3349 0.104142 
254.601 -38.3253 0.104192 
254.7 -38.3156 0.104242 
254.798 -38.306 0.104292 
254.897 -38.2963 0.104343 
254.995 -38.2866 0.104393 
255.093 -38.277 0.104443 
255.192 -38.2673 0.104493 
255.29 -38.2577 0.104543 
255.388 -38.248 0.104594 
255.487 -38.2384 0.104644 
255.585 -38.2287 0.104694 
255.684 -38.2191 0.104744 
255.782 -38.2094 0.104795 
255.88 -38.1998 0.104845 
255.979 -38.1901 0.104895 
256.077 -38.1805 0.104945 
256.176 -38.1708 0.104996 
256.274 -38.1611 0.105046 
256.372 -38.1515 0.105096 
256.471 -38.1418 0.105146 
256.569 -38.1322 0.105197 
256.668 -38.1225 0.105247 
256.766 -38.1129 0.105297 
256.864 -38.1032 0.105347 
256.963 -38.0936 0.105397 
257.061 -38.0839 0.105448 
257.159 -38.0743 0.105498 
257.258 -38.0646 0.105548 
257.356 -38.0549 0.105598 
257.455 -38.0453 0.105649 
257.553 -38.0356 0.105699 
257.651 -38.026 0.105749 
257.75 -38.0163 0.105799 
257.848 -38.0067 0.10585 
257.947 -37.997 0.1059 
258.045 -37.9874 0.10595 
258.143 -37.9777 0.106 
258.242 -37.9681 0.106051 
258.34 -37.9584 0.106101 
258.439 -37.9487 0.106151 
258.537 -37.9391 0.106201 
258.635 -37.9294 0.106252 
258.734 -37.9198 0.106302 
258.832 -37.9101 0.106352 
258.93 -37.9005 0.106402 
259.029 -37.8908 0.106452 
259.127 -37.8812 0.106503 
259.226 -37.8715 0.106553 
259.324 -37.8619 0.106603 
259.422 -37.8522 0.106653 
259.521 -37.8426 0.106704 
259.619 -37.8329 0.106754 
259.718 -37.8232 0.106804 
259.816 -37.8136 0.106854 
259.914 -37.8039 0.106905 
260.013 -37.7943 0.106955 
260.111 -37.7846 0.107005 
260.209 -37.775 0.107055 
260.308 -37.7653 0.107106 
260.406 -37.7557 0.107156 
260.505 -37.746 0.107206 
260.603 -37.7364 0.107256 
260.701 -37.7267 0.107306 
260.8 -37.717 0.107357 
260.898 -37.7074 0.107407 
260.997 -37.6977 0.107457 
261.095 -37.6881 0.107507 
261.193 -37.6784 0.107558 
261.292 -37.6688 0.107608 
261.39 -37.6591 0.107658 
261.489 -37.6495 0.107708 
261.587 -37.6398 0.107759 
261.685 -37.6302 0.107809 
261.784 -37.6205 0.107859 
261.882 -37.6108 0.107909 
261.98 -37.6012 0.10796 
262.079 -37.5915 0.10801 
262.177 -37.5819 0.10806 
262.276 -37.5722 0.10811 
262.374 -37.5626 0.108161 
262.472 -37.5529 0.108211 
262.571 -37.5433 0.108261 
262.669 -37.5336 0.108311 
262.768 -37.524 0.108361 
262.866 -37.5143 0.108412 
262.964 -37.5047 0.108462 
263.063 -37.495 0.108512 
263.161 -37.4853 0.108562 
263.26 -37.4757 0.108613 
263.358 -37.466 0.108663 
263.456 -37.4564 0.108713 
263.555 -37.4467 0.108763 
263.653 -37.4371 0.108814 
263.751 -37.4274 0.108864 
263.85 -37.4178 0.108914 
263.948 -37.4081 0.108964 
264.047 -37.3985 0.109015 
264.145 -37.3888 0.109065 
264.243 -37.3791 0.109115 
264.342 -37.3695 0.109165 
264.44 -37.3598 0.109216 
264.539 -37.3502 0.109266 
264.637 -37.3405 0.109316 
264.735 -37.3309 0.109366 
264.834 -37.3212 0.109416 
264.932 -37.3116 0.109467 
265.03 -37.3019 0.109517 
265.129 -37.2923 0.109567 
265.227 -37.2826 0.109617 
265.326 -37.2729 0.109668 
265.424 -37.2633 0.109718 
265.522 -37.2536 0.109768 
265.621 -37.244 0.109818 
265.719 -37.2343 0.109869 
265.818 -37.2247 0.109919 
265.916 -37.215 0.109969 
266.014 -37.2054 0.110019 
266.113 -37.1957 0.11007 
266.211 -37.1861 0.11012 
266.31 -37.1764 0.11017 
266.408 -37.1668 0.11022 
266.506 -37.1571 0.11027 
266.605 -37.1474 0.110321 
266.703 -37.1378 0.110371 
266.801 -37.1281 0.110421 
266.9 -37.1185 0.110471 
266.998 -37.1088 0.110522 
267.097 -37.0992 0.110572 
267.195 -37.0895 0.110622 
267.293 -37.0799 0.110672 
267.392 -37.0702 0.110723 
267.49 -37.0606 0.110773 
267.589 -37.0509 0.110823 
267.687 -37.0412 0.110873 
267.785 -37.0316 0.110924 
267.884 -37.0219 0.110974 
267.982 -37.0123 0.111024 
268.081 -37.0026 0.111074 
268.179 -36.993 0.111125 
268.277 -36.9833 0.111175 
268.376 -36.9737 0.111225 
268.474 -36.964 0.111275 
268.572 -36.9544 0.111325 
268.671 -36.9447 0.111376 
268.769 -36.935 0.111426 
268.868 -36.9254 0.111476 
268.966 -36.9157 0.111526 
269.064 -36.9061 0.111577 
269.163 -36.8964 0.111627 
269.261 -36.8868 0.111677 
269.36 -36.8771 0.111727 
269.458 -36.8675 0.111778 
269.556 -36.8578 0.111828 
269.655 -36.8482 0.111878 
269.753 -36.8385 0.111928 
269.851 -36.8289 0.111979 
269.95 -36.8192 0.112029 
270.048 -36.8095 0.112079 
270.147 -36.7999 0.112129 
270.245 -36.7902 0.112179 
270.343 -36.7806 0.11223 
270.442 -36.7709 0.11228 
270.54 -36.7613 0.11233 
270.639 -36.7516 0.11238 
270.737 -36.742 0.112431 
270.835 -36.7323 0.112481 
270.934 -36.7227 0.112531 
271.032 -36.713 0.112581 
271.131 -36.7033 0.112632 
271.229 -36.6937 0.112682 
271.327 -36.684 0.112732 
271.426 -36.6744 0.112782 
271.524 -36.6647 0.112833 
271.622 -36.6551 0.112883 
271.721 -36.6454 0.112933 
271.819 -36.6358 0.112983 
271.918 -36.6261 0.113034 
272.016 -36.6165 0.113084 
272.114 -36.6068 0.113134 
272.213 -36.5971 0.113184 
272.311 -36.5875 0.113234 
272.41 -36.5778 0.113285 
272.508 -36.5682 0.113335 
272.606 -36.5585 0.113385 
272.705 -36.5489 0.113435 
272.803 -36.5392 0.113486 
272.902 -36.5296 0.113536 
273 -36.5199 0.113586 
273.098 -36.5103 0.113636 
273.197 -36.5006 0.113687 
273.295 -36.491 0.113737 
273.393 -36.4813 0.113787 
273.492 -36.4716 0.113837 
273.59 -36.462 0.113888 
273.689 -36.4523 0.113938 
273.787 -36.4427 0.113988 
273.885 -36.433 0.114038 
273.984 -36.4234 0.114089 
274.082 -36.4137 0.114139 
274.181 -36.4041 0.114189 
274.279 -36.3944 0.114239 
274.377 -36.3848 0.114289 
274.476 -36.3751 0.11434 
274.574 -36.3654 0.11439 
274.672 -36.3558 0.11444 
274.771 -36.3461 0.11449 
274.869 -36.3365 0.114541 
274.968 -36.3268 0.114591 
275.066 -36.3172 0.114641 
275.164 -36.3075 0.114691 
275.263 -36.2979 0.114742 
275.361 -36.2882 0.114792 
275.46 -36.2786 0.114842 
275.558 -36.2689 0.114892 
275.656 -36.2592 0.114943 
275.755 -36.2496 0.114993 
275.853 -36.2399 0.115043 
275.952 -36.2303 0.115093 
276.05 -36.2206 0.115143 
276.148 -36.211 0.115194 
276.247 -36.2013 0.115244 
276.345 -36.1917 0.115294 
276.443 -36.182 0.115344 
276.542 -36.1724 0.115395 
276.64 -36.1627 0.115445 
276.739 -36.1531 0.115495 
276.837 -36.1434 0.115545 
276.935 -36.1337 0.115596 
277.034 -36.1241 0.115646 
277.132 -36.1144 0.115696 
277.231 -36.1048 0.115746 
277.329 -36.0951 0.115797 
277.427 -36.0855 0.115847 
277.526 -36.0758 0.115897 
277.624 -36.0662 0.115947 
277.723 -36.0565 0.115998 
277.821 -36.0469 0.116048 
277.919 -36.0372 0.116098 
278.018 -36.0275 0.116148 
278.116 -36.0179 0.116198 
278.214 -36.0082 0.116249 
278.313 -35.9986 0.116299 
278.411 -35.9889 0.116349 
278.51 -35.9793 0.116399 
278.608 -35.9696 0.11645 
278.706 -35.96 0.1165 
278.805 -35.9503 0.11655 
278.903 -35.9407 0.1166 
279.002 -35.931 0.116651 
279.1 -35.9213 0.116701 
279.198 -35.9117 0.116751 
279.297 -35.902 0.116801 
279.395 -35.8924 0.116852 
279.493 -35.8827 0.116902 
279.592 -35.8731 0.116952 
279.69 -35.8634 0.117002 
279.789 -35.8538 0.117053 
279.887 -35.8441 0.117103 
279.985 -35.8345 0.117153 
280.084 -35.8248 0.117203 
280.182 -35.8152 0.117253 
280.281 -35.8055 0.117304 
280.379 -35.7958 0.117354 
280.477 -35.7862 0.117404 
280.576 -35.7765 0.117454 
280.674 -35.7669 0.117505 
280.773 -35.7572 0.117555 
280.871 -35.7476 0.117605 
280.969 -35.7379 0.117655 
281.068 -35.7283 0.117706 
281.166 -35.7186 0.117756 
281.264 -35.709 0.117806 
281.363 -35.6993 0.117856 
281.461 -35.6896 0.117907 
281.56 -35.68 0.117957 
281.658 -35.6703 0.118007 
281.756 -35.6607 0.118057 
281.855 -35.651 0.118107 
281.953 -35.6414 0.118158 
282.052 -35.6317 0.118208 
282.15 -35.6221 0.118258 
282.248 -35.6124 0.118308 
282.347 -35.6028 0.118359 
282.445 -35.5931 0.118409 
282.544 -35.5834 0.118459 
282.642 -35.5738 0.118509 
282.74 -35.5641 0.11856 
282.839 -35.5545 0.11861 
282.937 -35.5448 0.11866 
283.035 -35.5352 0.11871 
283.134 -35.5255 0.118761 
283.232 -35.5159 0.118811 
283.331 -35.5062 0.118861 
283.429 -35.4966 0.118911 
283.527 -35.4869 0.118962 
283.626 -35.4773 0.119012 
283.724 -35.4676 0.119062 
283.823 -35.4579 0.119112 
283.921 -35.4483 0.119162 
284.019 -35.4386 0.119213 
284.118 -35.429 0.119263 
284.216 -35.4193 0.119313 
284.314 -35.4097 0.119363 
284.413 -35.4 0.119414 
284.511 -35.3904 0.119464 
284.61 -35.3807 0.119514 
284.708 -35.3711 0.119564 
284.806 -35.3614 0.119615 
284.905 -35.3517 0.119665 
285.003 -35.3421 0.119715 
285.102 -35.3324 0.119765 
285.2 -35.3228 0.119816 
285.298 -35.3131 0.119866 
285.397 -35.3035 0.119916 
285.495 -35.2938 0.119966 
285.594 -35.2842 0.120016 
285.692 -35.2745 0.120067 
285.79 -35.2649 0.120117 
285.889 -35.2552 0.120167 
285.987 -35.2455 0.120217 
286.085 -35.2359 0.120268 
286.184 -35.2262 0.120318 
286.282 -35.2166 0.120368 
286.381 -35.2069 0.120418 
286.479 -35.1973 0.120469 
286.577 -35.1876 0.120519 
286.676 -35.178 0.120569 
286.774 -35.1683 0.120619 
286.873 -35.1587 0.12067 
286.971 -35.149 0.12072 
287.069 -35.1394 0.12077 
287.168 -35.1297 0.12082 
287.266 -35.12 0.120871 
287.365 -35.1104 0.120921 
287.463 -35.1007 0.120971 
287.561 -35.0911 0.121021 
287.66 -35.0814 0.121071 
287.758 -35.0718 0.121122 
287.856 -35.0621 0.121172 
287.955 -35.0525 0.121222 
288.053 -35.0428 0.121272 
288.152 -35.0332 0.121323 
288.25 -35.0235 0.121373 
288.348 -35.0138 0.121423 
288.447 -35.0042 0.121473 
288.545 -34.9945 0.121524 
288.644 -34.9849 0.121574 
288.742 -34.9752 0.121624 
288.84 -34.9656 0.121674 
288.939 -34.9559 0.121725 
289.037 -34.9463 0.121775 
289.135 -34.9366 0.121825 
289.234 -34.927 0.121875 
289.332 -34.9173 0.121926 
289.431 -34.9076 0.121976 
289.529 -34.898 0.122026 
289.627 -34.8883 0.122076 
289.726 -34.8787 0.122126 
289.824 -34.869 0.122177 
289.923 -34.8594 0.122227 
290.021 -34.8497 0.122277 
290.119 -34.8401 0.122327 
290.218 -34.8304 0.122378 
290.316 -34.8208 0.122428 
290.415 -34.8111 0.122478 
290.513 -34.8015 0.122528 
290.611 -34.7918 0.122579 
290.71 -34.7821 0.122629 
290.808 -34.7725 0.122679 
290.906 -34.7628 0.122729 
291.005 -34.7532 0.12278 
291.103 -34.7435 0.12283 
291.202 -34.7339 0.12288 
291.3 -34.7242 0.12293 
291.398 -34.7146 0.12298 
291.497 -34.7049 0.123031 
291.595 -34.6953 0.123081 
291.694 -34.6856 0.123131 
291.792 -34.6759 0.123181 
291.89 -34.6663 0.123232 
291.989 -34.6566 0.123282 
292.087 -34.647 0.123332 
292.186 -34.6373 0.123382 
292.284 -34.6277 0.123433 
292.382 -34.618 0.123483 
292.481 -34.6084 0.123533 
292.579 -34.5987 0.123583 
292.677 -34.5891 0.123634 
292.776 -34.5794 0.123684 
292.874 -34.5698 0.123734 
292.973 -34.5601 0.123784 
293.071 -34.5504 0.123835 
293.169 -34.5408 0.123885 
293.268 -34.5311 0.123935 
293.366 -34.5215 0.123985 
293.465 -34.5118 0.124035 
293.563 -34.5022 0.124086 
293.661 -34.4925 0.124136 
293.76 -34.4829 0.124186 
293.858 -34.4732 0.124236 
293.956 -34.4636 0.124287 
294.055 -34.4539 0.124337 
294.153 -34.4442 0.124387 
294.252 -34.4346 0.124437 
294.35 -34.4249 0.124488 
294.448 -34.4153 0.124538 
294.547 -34.4056 0.124588 
294.645 -34.396 0.124638 
294.744 -34.3863 0.124689 
294.842 -34.3767 0.124739 
294.94 -34.367 0.124789 
295.039 -34.3574 0.124839 
295.137 -34.3477 0.124889 
295.236 -34.338 0.12494 
295.334 -34.3284 0.12499 
295.432 -34.3187 0.12504 
295.531 -34.3091 0.12509 
295.629 -34.2994 0.125141 
295.727 -34.2898 0.125191 
295.826 -34.2801 0.125241 
295.924 -34.2705 0.125291 
296.023 -34.2608 0.125342 
296.121 -34.2512 0.125392 
296.219 -34.2415 0.125442 
296.318 -34.2319 0.125492 
296.416 -34.2222 0.125543 
296.515 -34.2125 0.125593 
296.613 -34.2029 0.125643 
296.711 -34.1932 0.125693 
296.81 -34.1836 0.125744 
296.908 -34.1739 0.125794 
297.007 -34.1643 0.125844 
297.105 -34.1546 0.125894 
297.203 -34.145 0.125944 
297.302 -34.1353 0.125995 
297.4 -34.1257 0.126045 
297.498 -34.116 0.126095 
297.597 -34.1063 0.126145 
297.695 -34.0967 0.126196 
297.794 -34.087 0.126246 
297.892 -34.0774 0.126296 
297.99 -34.0677 0.126346 
298.089 -34.0581 0.126397 
298.187 -34.0484 0.126447 
298.286 -34.0388 0.126497 
298.384 -34.0291 0.126547 
298.482 -34.0195 0.126598 
298.581 -34.0098 0.126648 
298.679 -34.0001 0.126698 
298.777 -33.9905 0.126748 
298.876 -33.9808 0.126799 
298.974 -33.9712 0.126849 
299.073 -33.9615 0.126899 
299.171 -33.9519 0.126949 
299.269 -33.9422 0.126999 
299.368 -33.9326 0.12705 
299.466 -33.9229 0.1271 
299.565 -33.9133 0.12715 
299.663 -33.9036 0.1272 
299.761 -33.894 0.127251 
299.86 -33.8843 0.127301 
299.958 -33.8746 0.127351 
300.057 -33.865 0.127401 
300.155 -33.8553 0.127452 
300.253 -33.8457 0.127502 
300.352 -33.836 0.127552 
300.45 -33.8264 0.127602 
300.548 -33.8167 0.127653 
300.647 -33.8071 0.127703 
300.745 -33.7974 0.127753 
300.844 -33.7878 0.127803 
300.942 -33.7781 0.127853 
301.04 -33.7684 0.127904 
301.139 -33.7588 0.127954 
301.237 -33.7491 0.128004 
301.336 -33.7395 0.128054 
301.434 -33.7298 0.128105 
301.532 -33.7202 0.128155 
301.631 -33.7105 0.128205 
301.729 -33.7009 0.128255 
301.828 -33.6912 0.128306 
301.926 -33.6816 0.128356 
302.024 -33.6719 0.128406 
302.123 -33.6622 0.128456 
302.221 -33.6526 0.128507 
302.319 -33.6429 0.128557 
302.418 -33.6333 0.128607 
302.516 -33.6236 0.128657 
302.615 -33.614 0.128708 
302.713 -33.6043 0.128758 
302.811 -33.5947 0.128808 
302.91 -33.585 0.128858 
303.008 -33.5754 0.128908 
303.107 -33.5657 0.128959 
303.205 -33.5561 0.129009 
303.303 -33.5464 0.129059 
303.402 -33.5367 0.129109 
303.5 -33.5271 0.12916 
303.598 -33.5174 0.12921 
303.697 -33.5078 0.12926 
303.795 -33.4981 0.12931 
303.894 -33.4885 0.129361 
303.992 -33.4788 0.129411 
304.09 -33.4692 0.129461 
304.189 -33.4595 0.129511 
304.287 -33.4499 0.129562 
304.386 -33.4402 0.129612 
304.484 -33.4305 0.129662 
304.582 -33.4209 0.129712 
304.681 -33.4112 0.129762 
304.779 -33.4016 0.129813 
304.878 -33.3919 0.129863 
304.976 -33.3823 0.129913 
305.074 -33.3726 0.129963 
305.173 -33.363 0.130014 
305.271 -33.3533 0.130064 
305.369 -33.3437 0.130114 
305.468 -33.334 0.130164 
305.566 -33.3243 0.130215 
305.665 -33.3147 0.130265 
305.763 -33.305 0.130315 
305.861 -33.2954 0.130365 
305.96 -33.2857 0.130416 
306.039 -33.2307 0.135472 
306.119 -33.1757 0.140528 
306.198 -33.1207 0.145584 
306.278 -33.0657 0.15064 
306.357 -33.0106 0.155696 
306.436 -32.9556 0.160752 
306.516 -32.9006 0.165808 
306.595 -32.8456 0.170864 
306.675 -32.7906 0.17592 
306.754 -32.7356 0.180976 
306.834 -32.6805 0.186032 
306.913 -32.6255 0.191088 
306.993 -32.5705 0.196144 
307.072 -32.5155 0.2012 
307.151 -32.4605 0.206256 
307.231 -32.4055 0.211312 
307.31 -32.3504 0.216368 
307.39 -32.2954 0.221424 
307.469 -32.2404 0.22648 
307.549 -32.1854 0.231536 
307.628 -32.1304 0.236592 
307.708 -32.0753 0.241648 
307.787 -32.0203 0.246704 
307.867 -31.9653 0.25176 
307.946 -31.9103 0.256816 
308.025 -31.8553 0.261872 
308.105 -31.8003 0.266928 
308.184 -31.7452 0.271984 
308.264 -31.6902 0.27704 
308.343 -31.6352 0.282096 
308.423 -31.5802 0.287152 
308.502 -31.5252 0.292208 
308.582 -31.4702 0.297265 
308.661 -31.4151 0.302321 
308.74 -31.3601 0.307377 
308.82 -31.3051 0.312433 
308.899 -31.2501 0.317489 
308.979 -31.1951 0.322545 
309.058 -31.1401 0.327601 
309.138 -31.085 0.332657 
309.217 -31.03 0.337713 
309.297 -30.975 0.342769 
309.376 -30.92 0.347825 
309.455 -30.865 0.352881 
309.535 -30.8099 0.357937 
309.614 -30.7549 0.362993 
309.694 -30.6999 0.368049 
309.773 -30.6449 0.373105 
309.853 -30.5899 0.378161 
309.932 -30.5349 0.383217 
310.012 -30.4798 0.388273 
310.091 -30.4248 0.393329 
310.17 -30.3698 0.398385 
310.25 -30.3148 0.403441 
310.329 -30.2598 0.408497 
310.409 -30.2048 0.413553 
310.488 -30.1497 0.418609 
310.568 -30.0947 0.423665 
310.647 -30.0397 0.428721 
310.727 -29.9847 0.433777 
310.806 -29.9297 0.438833 
310.885 -29.8747 0.443889 
310.965 -29.8196 0.448945 
311.044 -29.7646 0.454001 
311.124 -29.7096 0.459057 
311.203 -29.6546 0.464113 
311.283 -29.5996 0.469169 
311.362 -29.5445 0.474226 
311.442 -29.4895 0.479282 
311.521 -29.4345 0.484338 
311.6 -29.3795 0.489394 
311.68 -29.3245 0.49445 
311.759 -29.2695 0.499506 
311.839 -29.2144 0.504562 
311.918 -29.1594 0.509618 
311.998 -29.1044 0.514674 
312.077 -29.0494 0.51973 
312.157 -28.9944 0.524786 
312.236 -28.9394 0.529842 
312.316 -28.8843 0.534898 
312.395 -28.8293 0.539954 
312.474 -28.7743 0.54501 
312.554 -28.7193 0.550066 
312.633 -28.6643 0.555122 
312.713 -28.6093 0.560178 
312.792 -28.5542 0.565234 
312.872 -28.4992 0.57029 
312.951 -28.4442 0.575346 
313.031 -28.3892 0.580402 
313.11 -28.3342 0.585458 
313.189 -28.2791 0.590514 
313.269 -28.2241 0.59557 
313.348 -28.1691 0.600626 
313.428 -28.1141 0.605682 
313.507 -28.0591 0.610738 
313.587 -28.0041 0.615794 
313.666 -27.949 0.62085 
313.746 -27.894 0.625906 
313.825 -27.839 0.630962 
313.904 -27.784 0.636018 
313.984 -27.729 0.641074 
314.063 -27.674 0.64613 
314.143 -27.6189 0.651187 
314.222 -27.5639 0.656243 
314.302 -27.5089 0.661299 
314.381 -27.4539 0.666355 
314.461 -27.3989 0.671411 
314.54 -27.3439 0.676467 
314.619 -27.2888 0.681523 
314.699 -27.2338 0.686579 
314.778 -27.1788 0.691635 
314.858 -27.1238 0.696691 
314.937 -27.0688 0.701747 
315.017 -27.0137 0.706803 
315.096 -26.9587 0.711859 
315.176 -26.9037 0.716915 
315.255 -26.8487 0.721971 
315.334 -26.7937 0.727027 
315.414 -26.7387 0.732083 
315.493 -26.6836 0.737139 
315.573 -26.6286 0.742195 
315.652 -26.5736 0.747251 
315.732 -26.5186 0.752307 
315.811 -26.4636 0.757363 
315.891 -26.4086 0.762419 
315.97 -26.3535 0.767475 
316.049 -26.2985 0.772531 
316.129 -26.2435 0.777587 
316.208 -26.1885 0.782643 
316.288 -26.1335 0.787699 
316.367 -26.0785 0.792755 
316.447 -26.0234 0.797811 
316.526 -25.9684 0.802867 
316.606 -25.9134 0.807923 
316.685 -25.8584 0.812979 
316.764 -25.8034 0.818035 
316.844 -25.7483 0.823091 
316.923 -25.6933 0.828148 
317.003 -25.6383 0.833204 
317.082 -25.5833 0.83826 
317.162 -25.5283 0.843316 
317.241 -25.4733 0.848372 
317.321 -25.4182 0.853428 
317.4 -25.3632 0.858484 
317.48 -25.3082 0.86354 
317.559 -25.2532 0.868596 
317.638 -25.1982 0.873652 
317.718 -25.1432 0.878708 
317.797 -25.0881 0.883764 
317.877 -25.0331 0.88882 
317.956 -24.9781 0.893876 
318.036 -24.9231 0.898932 
318.115 -24.8681 0.903988 
318.195 -24.8131 0.909044 
318.274 -24.758 0.9141 
318.353 -24.703 0.919156 
318.433 -24.648 0.924212 
318.512 -24.593 0.929268 
318.592 -24.538 0.934324 
318.671 -24.4829 0.93938 
318.751 -24.4279 0.944436 
318.83 -24.3729 0.949492 
318.91 -24.3179 0.954548 
318.989 -24.2629 0.959604 
319.068 -24.2079 0.96466 
319.148 -24.1528 0.969716 
319.227 -24.0978 0.974772 
319.307 -24.0428 0.979828 
319.386 -23.9878 0.984884 
319.466 -23.9328 0.98994 
319.545 -23.8778 0.994996 
319.625 -23.8227 1.00005 
319.704 -23.7677 1.00511 
319.783 -23.7127 1.01016 
319.863 -23.6577 1.01522 
319.942 -23.6027 1.02028 
320.022 -23.5477 1.02533 
320.101 -23.4926 1.03039 
320.181 -23.4376 1.03544 
320.26 -23.3826 1.0405 
320.34 -23.3276 1.04556 
320.419 -23.2726 1.05061 
320.498 -23.2175 1.05567 
320.578 -23.1625 1.06072 
320.657 -23.1075 1.06578 
320.737 -23.0525 1.07084 
320.816 -22.9975 1.07589 
320.896 -22.9425 1.08095 
320.82 -23.003 1.07707 
320.744 -23.0636 1.07318 
320.668 -23.1242 1.0693 
320.592 -23.1848 1.06541 
320.516 -23.2454 1.06153 
320.44 -23.3059 1.05765 
320.364 -23.3665 1.05376 
320.288 -23.4271 1.04988 
320.212 -23.4877 1.04599 
320.136 -23.5483 1.04211 
320.06 -23.6089 1.03823 
319.984 -23.6694 1.03434 
319.908 -23.73 1.03046 
319.832 -23.7906 1.02658 
319.756 -23.8512 1.02269 
319.68 -23.9118 1.01881 
319.604 -23.9723 1.01492 
319.528 -24.0329 1.01104 
319.452 -24.0935 1.00716 
319.376 -24.1541 1.00327 
319.3 -24.2147 0.999388 
319.224 -24.2752 0.995504 
319.148 -24.3358 0.99162 
319.072 -24.3964 0.987737 
318.996 -24.457 0.983853 
318.92 -24.5176 0.979969 
318.844 -24.5781 0.976085 
318.768 -24.6387 0.972201 
318.692 -24.6993 0.968317 
318.616 -24.7599 0.964433 
318.54 -24.8205 0.96055 
318.465 -24.8811 0.956666 
318.389 -24.9416 0.952782 
318.313 -25.0022 0.948898 
318.237 -25.0628 0.945014 
318.161 -25.1234 0.94113 
318.085 -25.184 0.937247 
318.009 -25.2445 0.933363 
317.933 -25.3051 0.929479 
317.857 -25.3657 0.925595 
317.781 -25.4263 0.921711 
317.705 -25.4869 0.917827 
317.629 -25.5474 0.913943 
317.553 -25.608 0.91006 
317.477 -25.6686 0.906176 
317.401 -25.7292 0.902292 
317.325 -25.7898 0.898408 
317.249 -25.8504 0.894524 
317.173 -25.9109 0.89064 
317.097 -25.9715 0.886756 
317.021 -26.0321 0.882873 
316.945 -26.0927 0.878989 
316.869 -26.1533 0.875105 
316.793 -26.2138 0.871221 
316.717 -26.2744 0.867337 
316.641 -26.335 0.863453 
316.565 -26.3956 0.85957 
316.489 -26.4562 0.855686 
316.413 -26.5167 0.851802 
316.337 -26.5773 0.847918 
316.261 -26.6379 0.844034 
316.185 -26.6985 0.84015 
316.109 -26.7591 0.836266 
316.033 -26.8197 0.832383 
315.957 -26.8802 0.828499 
315.881 -26.9408 0.824615 
315.805 -27.0014 0.820731 
315.729 -27.062 0.816847 
315.653 -27.1226 0.812963 
315.577 -27.1831 0.809079 
315.501 -27.2437 0.805196 
315.426 -27.3043 0.801312 
315.35 -27.3649 0.797428 
315.274 -27.4255 0.793544 
315.198 -27.486 0.78966 
315.122 -27.5466 0.785776 
315.046 -27.6072 0.781893 
314.97 -27.6678 0.778009 
314.894 -27.7284 0.774125 
314.818 -27.7889 0.770241 
314.742 -27.8495 0.766357 
314.666 -27.9101 0.762473 
314.59 -27.9707 0.758589 
314.514 -28.0313 0.754706 
314.438 -28.0919 0.750822 
314.362 -28.1524 0.746938 
314.286 -28.213 0.743054 
314.21 -28.2736 0.73917 
314.134 -28.3342 0.735286 
314.058 -28.3948 0.731403 
313.982 -28.4553 0.727519 
313.906 -28.5159 0.723635 
313.83 -28.5765 0.719751 
313.754 -28.6371 0.715867 
313.678 -28.6977 0.711983 
313.602 -28.7582 0.708099 
313.526 -28.8188 0.704216 
313.45 -28.8794 0.700332 
313.374 -28.94 0.696448 
313.298 -29.0006 0.692564 
313.222 -29.0612 0.68868 
313.146 -29.1217 0.684796 
313.07 -29.1823 0.680912 
312.994 -29.2429 0.677029 
312.918 -29.3035 0.673145 
312.842 -29.3641 0.669261 
312.766 -29.4246 0.665377 
312.69 -29.4852 0.661493 
312.614 -29.5458 0.657609 
312.538 -29.6064 0.653726 
312.463 -29.667 0.649842 
312.387 -29.7275 0.645958 
312.311 -29.7881 0.642074 
312.235 -29.8487 0.63819 
312.159 -29.9093 0.634306 
312.083 -29.9699 0.630422 
312.007 -30.0304 0.626539 
311.931 -30.091 0.622655 
311.855 -30.1516 0.618771 
311.779 -30.2122 0.614887 
311.703 -30.2728 0.611003 
311.627 -30.3334 0.607119 
311.551 -30.3939 0.603235 
311.475 -30.4545 0.599352 
311.399 -30.5151 0.595468 
311.323 -30.5757 0.591584 
311.247 -30.6363 0.5877 
311.171 -30.6968 0.583816 
311.095 -30.7574 0.579932 
311.019 -30.818 0.576049 
310.943 -30.8786 0.572165 
310.867 -30.9392 0.568281 
310.791 -30.9997 0.564397 
310.715 -31.0603 0.560513 
310.639 -31.1209 0.556629 
310.563 -31.1815 0.552745 
310.487 -31.2421 0.548862 
310.411 -31.3027 0.544978 
310.335 -31.3632 0.541094 
310.259 -31.4238 0.53721 
310.183 -31.4844 0.533326 
310.107 -31.545 0.529442 
310.031 -31.6056 0.525559 
309.955 -31.6661 0.521675 
309.879 -31.7267 0.517791 
309.803 -31.7873 0.513907 
309.727 -31.8479 0.510023 
309.651 -31.9085 0.506139 
309.575 -31.969 0.502255 
309.499 -32.0296 0.498372 
309.424 -32.0902 0.494488 
309.348 -32.1508 0.490604 
309.272 -32.2114 0.48672 
309.196 -32.272 0.482836 
309.12 -32.3325 0.478952 
309.044 -32.3931 0.475068 
308.968 -32.4537 0.471185 
308.892 -32.5143 0.467301 
308.816 -32.5749 0.463417 
308.74 -32.6354 0.459533 
308.664 -32.696 0.455649 
308.588 -32.7566 0.451765 
308.512 -32.8172 0.447882 
308.436 -32.8778 0.443998 
308.36 -32.9383 0.440114 
308.284 -32.9989 0.43623 
308.208 -33.0595 0.432346 
308.132 -33.1201 0.428462 
308.056 -33.1807 0.424578 
307.98 -33.2412 0.420695 
307.904 -33.3018 0.416811 
307.828 -33.3624 0.412927 
307.752 -33.423 0.409043 
307.676 -33.4836 0.405159 
307.6 -33.5442 0.401275 
307.524 -33.6047 0.397391 
307.448 -33.6653 0.393508 
307.372 -33.7259 0.389624 
307.296 -33.7865 0.38574 
307.22 -33.8471 0.381856 
307.144 -33.9076 0.377972 
307.068 -33.9682 0.374088 
306.992 -34.0288 0.370205 
306.916 -34.0894 0.366321 
306.84 -34.15 0.362437 
306.764 -34.2105 0.358553 
306.688 -34.2711 0.354669 
306.612 -34.3317 0.350785 
306.536 -34.3923 0.346901 
306.461 -34.4529 0.343018 
306.385 -34.5135 0.339134 
306.309 -34.574 0.33525 
306.233 -34.6346 0.331366 
306.157 -34.6952 0.327482 
306.081 -34.7558 0.323598 
306.005 -34.8164 0.319715 
305.929 -34.8769 0.315831 
305.853 -34.9375 0.311947 
305.777 -34.9981 0.308063 
305.701 -35.0587 0.304179 
305.625 -35.1193 0.300295 
305.549 -35.1798 0.296411 
305.473 -35.2404 0.292528 
305.397 -35.301 0.288644 
305.321 -35.3616 0.28476 
305.245 -35.4222 0.280876 
305.169 -35.4828 0.276992 
305.093 -35.5433 0.273108 
305.017 -35.6039 0.269224 
304.941 -35.6645 0.265341 
304.845 -35.6507 0.261457 
304.749 -35.6369 0.257573 
304.652 -35.6231 0.253689 
304.556 -35.6093 0.249805 
304.46 -35.5955 0.245921 
304.364 -35.5817 0.242038 
304.268 -35.5679 0.238154 
304.172 -35.5541 0.23427 
304.075 -35.5403 0.230386 
303.979 -35.5265 0.226502 
303.883 -35.5127 0.222618 
303.787 -35.4989 0.218734 
303.691 -35.4851 0.214851 
303.594 -35.4713 0.210967 
303.498 -35.4575 0.207083 
303.402 -35.4437 0.203199 
303.306 -35.43 0.199315 
303.21 -35.4162 0.195431 
303.113 -35.4024 0.191547 
303.017 -35.3886 0.187664 
302.921 -35.3748 0.18378 
302.825 -35.361 0.179896 
302.729 -35.3472 0.176012 
302.633 -35.3334 0.172128 
302.536 -35.3196 0.168244 
302.44 -35.3058 0.164361 
302.344 -35.292 0.160477 
302.248 -35.2782 0.156593 
302.152 -35.2644 0.152709 
302.055 -35.2506 0.148825 
301.959 -35.2368 0.144941 
301.863 -35.223 0.141057 
301.767 -35.2092 0.137174 
301.671 -35.1954 0.13329 
301.574 -35.1816 0.129406 
301.478 -35.1678 0.125522 
301.382 -35.154 0.121638 
301.286 -35.1402 0.117754 
301.19 -35.1264 0.11387 
301.094 -35.1126 0.109987 
300.997 -35.0988 0.106103 
300.901 -35.085 0.102219 
300.805 -35.0712 0.0983351 
300.709 -35.0574 0.0944513 
300.613 -35.0436 0.0905674 
300.516 -35.0299 0.0866836 
300.42 -35.0161 0.0827997 
300.324 -35.0023 0.0789159 
300.228 -34.9885 0.075032 
300.132 -34.9747 0.0711482 
300.035 -34.9609 0.0672643 
299.939 -34.9471 0.0633805 
299.843 -34.9333 0.0594966 
299.747 -34.9195 0.0556128 
299.651 -34.9057 0.0517289 
299.555 -34.8919 0.0478451 
299.458 -34.8781 0.0439612 
299.362 -34.8643 0.0400774 
299.266 -34.8505 0.0361935 
299.17 -34.8367 0.0323097 
299.074 -34.8229 0.0284258 
298.977 -34.8091 0.024542 
298.881 -34.7953 0.0206581 
298.785 -34.7815 0.0167743 
298.689 -34.7677 0.0128904 
298.593 -34.7539 0.00900657 
298.497 -34.7401 0.00512272 
298.4 -34.7263 0.00123887 
298.304 -34.7125 -0.00264497 
298.208 -34.6987 -0.00652882 
298.112 -34.6849 -0.0104127 
298.016 -34.6711 -0.0142965 
297.919 -34.6573 -0.0181804 
297.823 -34.6435 -0.0220642 
297.727 -34.6298 -0.0259481 
297.631 -34.616 -0.0298319 
297.535 -34.6022 -0.0337158 
297.438 -34.5884 -0.0375996 
297.342 -34.5746 -0.0414835 
297.246 -34.5608 -0.0453673 
297.15 -34.547 -0.0492512 
297.054 -34.5332 -0.053135 
296.958 -34.5194 -0.0570189 
296.861 -34.5056 -0.0609027 
296.765 -34.4918 -0.0647866 
296.669 -34.478 -0.0686704 
296.573 -34.4642 -0.0725543 
296.477 -34.4504 -0.0764381 
296.38 -34.4366 -0.080322 
296.284 -34.4228 -0.0842058 
296.188 -34.409 -0.0880897 
296.092 -34.3952 -0.0919735 
295.996 -34.3814 -0.0958574 
295.899 -34.3676 -0.0997412 
295.803 -34.3538 -0.103625 
295.707 -34.34 -0.107509 
295.611 -34.3262 -0.111393 
295.515 -34.3124 -0.115277 
295.419 -34.2986 -0.11916 
295.322 -34.2848 -0.123044 
295.226 -34.271 -0.126928 
295.13 -34.2572 -0.130812 
295.034 -34.2434 -0.134696 
294.938 -34.2297 -0.13858 
294.841 -34.2159 -0.142464 
294.745 -34.2021 -0.146347 
294.649 -34.1883 -0.150231 
294.553 -34.1745 -0.154115 
294.457 -34.1607 -0.157999 
294.36 -34.1469 -0.161883 
294.264 -34.1331 -0.165767 
294.168 -34.1193 -0.16965 
294.072 -34.1055 -0.173534 
293.976 -34.0917 -0.177418 
293.88 -34.0779 -0.181302 
293.783 -34.0641 -0.185186 
293.687 -34.0503 -0.18907 
293.591 -34.0365 -0.192954 
293.495 -34.0227 -0.196837 
293.399 -34.0089 -0.200721 
293.302 -33.9951 -0.204605 
293.206 -33.9813 -0.208489 
293.11 -33.9675 -0.212373 
293.014 -33.9537 -0.216257 
292.918 -33.9399 -0.220141 
292.821 -33.9261 -0.224024 
292.725 -33.9123 -0.227908 
292.629 -33.8985 -0.231792 
292.533 -33.8847 -0.235676 
292.437 -33.8709 -0.23956 
292.341 -33.8571 -0.243444 
292.244 -33.8433 -0.247327 
292.148 -33.8296 -0.251211 
292.052 -33.8158 -0.255095 
291.956 -33.802 -0.258979 
291.86 -33.7882 -0.262863 
291.763 -33.7744 -0.266747 
291.667 -33.7606 -0.270631 
291.571 -33.7468 -0.274514 
291.475 -33.733 -0.278398 
291.379 -33.7192 -0.282282 
291.283 -33.7054 -0.286166 
291.186 -33.6916 -0.29005 
291.09 -33.6778 -0.293934 
290.994 -33.664 -0.297818 
290.898 -33.6502 -0.301701 
290.802 -33.6364 -0.305585 
290.705 -33.6226 -0.309469 
290.609 -33.6088 -0.313353 
290.513 -33.595 -0.317237 
290.417 -33.5812 -0.321121 
290.321 -33.5674 -0.325004 
290.224 -33.5536 -0.328888 
290.128 -33.5398 -0.332772 
290.032 -33.526 -0.336656 
289.936 -33.5122 -0.34054 
289.84 -33.4984 -0.344424 
289.744 -33.4846 -0.348308 
289.647 -33.4708 -0.352191 
289.551 -33.457 -0.356075 
289.455 -33.4432 -0.359959 
289.359 -33.4295 -0.363843 
289.263 -33.4157 -0.367727 
289.166 -33.4019 -0.371611 
289.07 -33.3881 -0.375494 
288.974 -33.3743 -0.379378 
288.878 -33.3605 -0.383262 
288.782 -33.3467 -0.387146 
288.685 -33.3329 -0.39103 
288.589 -33.3191 -0.394914 
288.493 -33.3053 -0.398798 
288.397 -33.2915 -0.402681 
288.301 -33.2777 -0.406565 
288.205 -33.2639 -0.410449 
288.108 -33.2501 -0.414333 
288.012 -33.2363 -0.418217 
287.916 -33.2225 -0.422101 
287.82 -33.2087 -0.425985 
287.724 -33.1949 -0.429868 
287.627 -33.1811 -0.433752 
287.531 -33.1673 -0.437636 
287.435 -33.1535 -0.44152 
287.339 -33.1397 -0.445404 
287.243 -33.1259 -0.449288 
287.146 -33.1121 -0.453171 
287.05 -33.0983 -0.457055 
286.954 -33.0845 -0.460939 
286.858 -33.0707 -0.464823 
286.762 -33.0569 -0.468707 
286.666 -33.0431 -0.472591 
286.569 -33.0294 -0.476475 
286.473 -33.0156 -0.480358 
286.377 -33.0018 -0.484242 
286.281 -32.988 -0.488126 
286.185 -32.9742 -0.49201 
286.088 -32.9604 -0.495894 
285.992 -32.9466 -0.499778 
285.896 -32.9328 -0.503662 
285.8 -32.919 -0.507545 
285.704 -32.9052 -0.511429 
285.607 -32.8914 -0.515313 
285.511 -32.8776 -0.519197 
285.415 -32.8638 -0.523081 
285.319 -32.85 -0.526965 
285.223 -32.8362 -0.530848 
285.127 -32.8224 -0.534732 
285.03 -32.8086 -0.538616 
284.934 -32.7948 -0.5425 
284.838 -32.781 -0.546384 
284.742 -32.7672 -0.550268 
284.836 -32.7969 -0.549151 
284.929 -32.8266 -0.548033 
285.023 -32.8563 -0.546916 
285.117 -32.886 -0.545799 
285.211 -32.9157 -0.544682 
285.304 -32.9454 -0.543565 
285.398 -32.9751 -0.542447 
285.492 -33.0048 -0.54133 
285.586 -33.0345 -0.540213 
285.68 -33.0642 -0.539096 
285.773 -33.0939 -0.537979 
285.867 -33.1236 -0.536862 
285.961 -33.1533 -0.535744 
286.055 -33.183 -0.534627 
286.149 -33.2128 -0.53351 
286.242 -33.2425 -0.532393 
286.336 -33.2722 -0.531276 
286.43 -33.3019 -0.530159 
286.524 -33.3316 -0.529041 
286.617 -33.3613 -0.527924 
286.711 -33.391 -0.526807 
286.805 -33.4207 -0.52569 
286.899 -33.4504 -0.524573 
286.993 -33.4801 -0.523455 
287.086 -33.5098 -0.522338 
287.18 -33.5395 -0.521221 
287.274 -33.5692 -0.520104 
287.368 -33.5989 -0.518987 
287.461 -33.6286 -0.51787 
287.555 -33.6583 -0.516752 
287.649 -33.688 -0.515635 
287.743 -33.7177 -0.514518 
287.837 -33.7474 -0.513401 
287.93 -33.7771 -0.512284 
288.024 -33.8068 -0.511167 
288.118 -33.8365 -0.510049 
288.212 -33.8662 -0.508932 
288.306 -33.8959 -0.507815 
288.399 -33.9256 -0.506698 
288.493 -33.9553 -0.505581 
288.587 -33.985 -0.504463 
288.681 -34.0147 -0.503346 
288.774 -34.0444 -0.502229 
288.868 -34.0741 -0.501112 
288.962 -34.1038 -0.499995 
289.056 -34.1335 -0.498878 
289.15 -34.1632 -0.49776 
289.243 -34.1929 -0.496643 
289.337 -34.2226 -0.495526 
289.431 -34.2523 -0.494409 
289.525 -34.282 -0.493292 
289.618 -34.3117 -0.492175 
289.712 -34.3414 -0.491057 
289.806 -34.3711 -0.48994 
289.9 -34.4008 -0.488823 
289.994 -34.4305 -0.487706 
290.087 -34.4602 -0.486589 
290.181 -34.49 -0.485471 
290.275 -34.5197 -0.484354 
290.369 -34.5494 -0.483237 
290.462 -34.5791 -0.48212 
290.556 -34.6088 -0.481003 
290.65 -34.6385 -0.479886 
290.744 -34.6682 -0.478768 
290.838 -34.6979 -0.477651 
290.931 -34.7276 -0.476534 
291.025 -34.7573 -0.475417 
291.119 -34.787 -0.4743 
291.213 -34.8167 -0.473183 
291.307 -34.8464 -0.472065 
291.4 -34.8761 -0.470948 
291.494 -34.9058 -0.469831 
291.588 -34.9355 -0.468714 
291.682 -34.9652 -0.467597 
291.775 -34.9949 -0.466479 
291.869 -35.0246 -0.465362 
291.963 -35.0543 -0.464245 
292.057 -35.084 -0.463128 
292.151 -35.1137 -0.462011 
292.244 -35.1434 -0.460894 
292.338 -35.1731 -0.459776 
292.432 -35.2028 -0.458659 
292.526 -35.2325 -0.457542 
292.619 -35.2622 -0.456425 
292.713 -35.2919 -0.455308 
292.807 -35.3216 -0.454191 
292.901 -35.3513 -0.453073 
292.995 -35.381 -0.451956 
293.088 -35.4107 -0.450839 
293.182 -35.4404 -0.449722 
293.276 -35.4701 -0.448605 
293.37 -35.4998 -0.447487 
293.463 -35.5295 -0.44637 
293.557 -35.5592 -0.445253 
293.651 -35.5889 -0.444136 
293.745 -35.6186 -0.443019 
293.839 -35.6483 -0.441902 
293.932 -35.678 -0.440784 
294.026 -35.7077 -0.439667 
294.12 -35.7374 -0.43855 
294.214 -35.7671 -0.437433 
294.308 -35.7969 -0.436316 
294.401 -35.8266 -0.435199 
294.495 -35.8563 -0.434081 
294.589 -35.886 -0.432964 
294.683 -35.9157 -0.431847 
294.776 -35.9454 -0.43073 
294.87 -35.9751 -0.429613 
294.964 -36.0048 -0.428495 
295.058 -36.0345 -0.427378 
295.152 -36.0642 -0.426261 
295.245 -36.0939 -0.425144 
295.339 -36.1236 -0.424027 
295.433 -36.1533 -0.42291 
295.527 -36.183 -0.421792 
295.62 -36.2127 -0.420675 
295.714 -36.2424 -0.419558 
295.808 -36.2721 -0.418441 
295.902 -36.3018 -0.417324 
295.996 -36.3315 -0.416207 
296.089 -36.3612 -0.415089 
296.183 -36.3909 -0.413972 
296.277 -36.4206 -0.412855 
296.371 -36.4503 -0.411738 
296.464 -36.48 -0.410621 
296.558 -36.5097 -0.409503 
296.652 -36.5394 -0.408386 
296.746 -36.5691 -0.407269 
296.84 -36.5988 -0.406152 
296.933 -36.6285 -0.405035 
297.027 -36.6582 -0.403918 
297.121 -36.6879 -0.4028 
297.215 -36.7176 -0.401683 
297.309 -36.7473 -0.400566 
297.402 -36.777 -0.399449 
297.496 -36.8067 -0.398332 
297.59 -36.8364 -0.397215 
297.684 -36.8661 -0.396097 
297.777 -36.8958 -0.39498 
297.871 -36.9255 -0.393863 
297.965 -36.9552 -0.392746 
298.059 -36.9849 -0.391629 
298.153 -37.0146 -0.390511 
298.246 -37.0443 -0.389394 
298.34 -37.0741 -0.388277 
298.434 -37.1038 -0.38716 
298.528 -37.1335 -0.386043 
298.621 -37.1632 -0.384926 
298.715 -37.1929 -0.383808 
298.809 -37.2226 -0.382691 
298.903 -37.2523 -0.381574 
298.997 -37.282 -0.380457 
299.09 -37.3117 -0.37934 
299.184 -37.3414 -0.378223 
299.278 -37.3711 -0.377105 
299.372 -37.4008 -0.375988 
299.466 -37.4305 -0.374871 
299.559 -37.4602 -0.373754 
299.653 -37.4899 -0.372637 
299.747 -37.5196 -0.371519 
299.841 -37.5493 -0.370402 
299.934 -37.579 -0.369285 
300.028 -37.6087 -0.368168 
300.122 -37.6384 -0.367051 
300.216 -37.6681 -0.365934 
300.31 -37.6978 -0.364816 
300.403 -37.7275 -0.363699 
300.497 -37.7572 -0.362582 
300.591 -37.7869 -0.361465 
300.685 -37.8166 -0.360348 
300.778 -37.8463 -0.359231 
300.872 -37.876 -0.358113 
300.966 -37.9057 -0.356996 
301.06 -37.9354 -0.355879 
301.154 -37.9651 -0.354762 
301.247 -37.9948 -0.353645 
301.341 -38.0245 -0.352527 
301.435 -38.0542 -0.35141 
301.529 -38.0839 -0.350293 
301.622 -38.1136 -0.349176 
301.716 -38.1433 -0.348059 
301.81 -38.173 -0.346942 
301.904 -38.2027 -0.345824 
301.998 -38.2324 -0.344707 
302.091 -38.2621 -0.34359 
302.185 -38.2918 -0.342473 
302.279 -38.3215 -0.341356 
302.373 -38.3513 -0.340239 
302.467 -38.381 -0.339121 
302.56 -38.4107 -0.338004 
302.654 -38.4404 -0.336887 
302.748 -38.4701 -0.33577 
302.842 -38.4998 -0.334653 
302.935 -38.5295 -0.333535 
303.029 -38.5592 -0.332418 
303.123 -38.5889 -0.331301 
303.217 -38.6186 -0.330184 
303.311 -38.6483 -0.329067 
303.404 -38.678 -0.32795 
303.498 -38.7077 -0.326832 
303.592 -38.7374 -0.325715 
303.686 -38.7671 -0.324598 
303.779 -38.7968 -0.323481 
303.873 -38.8265 -0.322364 
303.967 -38.8562 -0.321247 
304.061 -38.8859 -0.320129 
304.155 -38.9156 -0.319012 
304.248 -38.9453 -0.317895 
304.342 -38.975 -0.316778 
304.436 -39.0047 -0.315661 
304.53 -39.0344 -0.314543 
304.623 -39.0641 -0.313426 
304.717 -39.0938 -0.312309 
304.811 -39.1235 -0.311192 
304.905 -39.1532 -0.310075 
304.999 -39.1829 -0.308958 
305.092 -39.2126 -0.30784 
305.186 -39.2423 -0.306723 
305.28 -39.272 -0.305606 
305.374 -39.3017 -0.304489 
305.468 -39.3314 -0.303372 
305.561 -39.3611 -0.302255 
305.655 -39.3908 -0.301137 
305.749 -39.4205 -0.30002 
305.843 -39.4502 -0.298903 
305.936 -39.4799 -0.297786 
306.03 -39.5096 -0.296669 
306.124 -39.5393 -0.295551 
306.218 -39.569 -0.294434 
306.312 -39.5987 -0.293317 
306.405 -39.6285 -0.2922 
306.499 -39.6582 -0.291083 
306.593 -39.6879 -0.289966 
306.687 -39.7176 -0.288848 
306.78 -39.7473 -0.287731 
306.874 -39.777 -0.286614 
306.968 -39.8067 -0.285497 
307.062 -39.8364 -0.28438 
307.156 -39.8661 -0.283263 
307.249 -39.8958 -0.282145 
307.343 -39.9255 -0.281028 
307.437 -39.9552 -0.279911 
307.531 -39.9849 -0.278794 
307.624 -40.0146 -0.277677 
307.718 -40.0443 -0.276559 
307.812 -40.074 -0.275442 
307.906 -40.1037 -0.274325 
308 -40.1334 -0.273208 
308.093 -40.1631 -0.272091 
308.187 -40.1928 -0.270974 
308.281 -40.2225 -0.269856 
308.375 -40.2522 -0.268739 
308.469 -40.2819 -0.267622 
308.562 -40.3116 -0.266505 
308.656 -40.3413 -0.265388 
308.75 -40.371 -0.26427 
308.844 -40.4007 -0.263153 
308.937 -40.4304 -0.262036 
309.031 -40.4601 -0.260919 
309.125 -40.4898 -0.259802 
309.219 -40.5195 -0.258685 
309.313 -40.5492 -0.257567 
309.406 -40.5789 -0.25645 
309.5 -40.6086 -0.255333 
309.594 -40.6383 -0.254216 
309.688 -40.668 -0.253099 
309.781 -40.6977 -0.251982 
309.875 -40.7274 -0.250864 
309.969 -40.7571 -0.249747 
310.063 -40.7868 -0.24863 
310.157 -40.8165 -0.247513 
310.25 -40.8462 -0.246396 
310.344 -40.8759 -0.245278 
310.438 -40.9057 -0.244161 
310.532 -40.9354 -0.243044 
310.626 -40.9651 -0.241927 
310.719 -40.9948 -0.24081 
310.813 -41.0245 -0.239693 
310.907 -41.0542 -0.238575 
311.001 -41.0839 -0.237458 
311.094 -41.1136 -0.236341 
311.188 -41.1433 -0.235224 
311.282 -41.173 -0.234107 
311.376 -41.2027 -0.23299 
311.47 -41.2324 -0.231872 
311.563 -41.2621 -0.230755 
311.657 -41.2918 -0.229638 
311.751 -41.3215 -0.228521 
311.845 -41.3512 -0.227404 
311.938 -41.3809 -0.226286 
312.032 -41.4106 -0.225169 
312.126 -41.4403 -0.224052 
312.22 -41.47 -0.222935 
312.314 -41.4997 -0.221818 
312.407 -41.5294 -0.220701 
312.501 -41.5591 -0.219583 
312.595 -41.5888 -0.218466 
312.689 -41.6185 -0.217349 
312.782 -41.6482 -0.216232 
312.876 -41.6779 -0.215115 
312.97 -41.7076 -0.213998 
313.064 -41.7373 -0.21288 
313.158 -41.767 -0.211763 
313.251 -41.7967 -0.210646 
313.345 -41.8264 -0.209529 
313.439 -41.8561 -0.208412 
313.533 -41.8858 -0.207294 
313.627 -41.9155 -0.206177 
313.72 -41.9452 -0.20506 
313.814 -41.9749 -0.203943 
313.908 -42.0046 -0.202826 
314.002 -42.0343 -0.201709 
314.095 -42.064 -0.200591 
314.189 -42.0937 -0.199474 
314.283 -42.1234 -0.198357 
314.377 -42.1531 -0.19724 
314.471 -42.1828 -0.196123 
314.564 -42.2126 -0.195006 
314.658 -42.2423 -0.193888 
314.752 -42.272 -0.192771 
314.846 -42.3017 -0.191654 
314.939 -42.3314 -0.190537 
315.033 -42.3611 -0.18942 
315.127 -42.3908 -0.188302 
315.221 -42.4205 -0.187185 
315.315 -42.4502 -0.186068 
315.408 -42.4799 -0.184951 
315.502 -42.5096 -0.183834 
315.596 -42.5393 -0.182717 
315.69 -42.569 -0.181599 
315.783 -42.5987 -0.180482 
315.877 -42.6284 -0.179365 
315.971 -42.6581 -0.178248 
316.065 -42.6878 -0.177131 
316.159 -42.7175 -0.176014 
316.252 -42.7472 -0.174896 
316.346 -42.7769 -0.173779 
316.44 -42.8066 -0.172662 
316.534 -42.8363 -0.171545 
316.628 -42.866 -0.170428 
316.721 -42.8957 -0.16931 
316.815 -42.9254 -0.168193 
316.909 -42.9551 -0.167076 
317.003 -42.9848 -0.165959 
317.096 -43.0145 -0.164842 
317.19 -43.0442 -0.163725 
317.284 -43.0739 -0.162607 
317.378 -43.1036 -0.16149 
317.472 -43.1333 -0.160373 
317.565 -43.163 -0.159256 
317.659 -43.1927 -0.158139 
317.753 -43.2224 -0.157022 
317.847 -43.2521 -0.155904 
317.94 -43.2818 -0.154787 
318.034 -43.3115 -0.15367 
318.128 -43.3412 -0.152553 
318.222 -43.3709 -0.151436 
318.316 -43.4006 -0.150318 
318.409 -43.4303 -0.149201 
318.503 -43.46 -0.148084 
318.597 -43.4898 -0.146967 
318.691 -43.5195 -0.14585 
318.784 -43.5492 -0.144733 
318.878 -43.5789 -0.143615 
318.972 -43.6086 -0.142498 
319.066 -43.6383 -0.141381 
319.16 -43.668 -0.140264 
319.253 -43.6977 -0.139147 
319.347 -43.7274 -0.13803 
319.441 -43.7571 -0.136912 
319.535 -43.7868 -0.135795 
319.629 -43.8165 -0.134678 
319.722 -43.8462 -0.133561 
319.816 -43.8759 -0.132444 
319.91 -43.9056 -0.131326 
320.004 -43.9353 -0.130209 
320.097 -43.965 -0.129092 
320.191 -43.9947 -0.127975 
320.285 -44.0244 -0.126858 
320.379 -44.0541 -0.125741 
320.473 -44.0838 -0.124623 
320.566 -44.1135 -0.123506 
320.66 -44.1432 -0.122389 
320.754 -44.1729 -0.121272 
320.848 -44.2026 -0.120155 
320.941 -44.2323 -0.119038 
321.035 -44.262 -0.11792 
321.129 -44.2917 -0.116803 
321.223 -44.3214 -0.115686 
321.317 -44.3511 -0.114569 
321.41 -44.3808 -0.113452 
321.504 -44.4105 -0.112334 
321.598 -44.4402 -0.111217 
321.692 -44.4699 -0.1101 
321.786 -44.4996 -0.108983 
321.879 -44.5293 -0.107866 
321.973 -44.559 -0.106749 
322.067 -44.5887 -0.105631 
322.161 -44.6184 -0.104514 
322.254 -44.6481 -0.103397 
322.348 -44.6778 -0.10228 
322.442 -44.7075 -0.101163 
322.536 -44.7372 -0.100046 
322.63 -44.767 -0.0989284 
322.723 -44.7967 -0.0978112 
322.817 -44.8264 -0.096694 
322.911 -44.8561 -0.0955768 
323.005 -44.8858 -0.0944597 
323.098 -44.9155 -0.0933425 
323.192 -44.9452 -0.0922253 
323.286 -44.9749 -0.0911081 
323.38 -45.0046 -0.089991 
323.474 -45.0343 -0.0888738 
323.567 -45.064 -0.0877566 
323.661 -45.0937 -0.0866394 
323.755 -45.1234 -0.0855222 
323.849 -45.1531 -0.0844051 
323.942 -45.1828 -0.0832879 
324.036 -45.2125 -0.0821707 
324.13 -45.2422 -0.0810535 
324.224 -45.2719 -0.0799364 
324.318 -45.3016 -0.0788192 
324.411 -45.3313 -0.077702 
324.505 -45.361 -0.0765848 
324.599 -45.3907 -0.0754677 
324.693 -45.4204 -0.0743505 
324.787 -45.4501 -0.0732333 
324.88 -45.4798 -0.0721161 
324.974 -45.5095 -0.0709989 
325.068 -45.5392 -0.0698818 
325.162 -45.5689 -0.0687646 
325.255 -45.5986 -0.0676474 
325.349 -45.6283 -0.0665302 
325.443 -45.658 -0.0654131 
325.537 -45.6877 -0.0642959 
325.631 -45.7174 -0.0631787 
325.727 -45.6998 -0.0620615 
325.824 -45.6821 -0.0609444 
